tree
version=v4
num_class=1
num_tree_per_iteration=1
label_index=0
max_feature_idx=34
objective=regression
feature_names=Column_0 Column_1 Column_2 Column_3 Column_4 Column_5 Column_6 Column_7 Column_8 Column_9 Column_10 Column_11 Column_12 Column_13 Column_14 Column_15 Column_16 Column_17 Column_18 Column_19 Column_20 Column_21 Column_22 Column_23 Column_24 Column_25 Column_26 Column_27 Column_28 Column_29 Column_30 Column_31 Column_32 Column_33 Column_34
feature_infos=[0:1] [0:1] [0:1] [0:1] [0:1] [0:1] [0:1] [0:0.99999999999999989] [0:1] [0:1] [0:1.0000000000000002] [0:1] [0.00015232292460015231:0.99999999999999989] [0:1] [0.17160037002775208:1] [0.013687915526007011:1] [0:0.99874686716791961] [0:1] [0:1] [0:1] [0:1.0000000000000002] [0:1] [0:0.99999999999999989] [0:0.99999999999999989] [0:1] [0:1] [0:1] [0:1] [0:0.49994334554897851] [0:0.99999999999999989] [0:1] [0:1] [0:1] [0:1] [0:1]
tree_sizes=8544 8522 8592 8532 8659 8617 8637 8862 8724 8680 8896 8873 8875 8590 8783 8893 8898 8815 8712 8973 8944 8956 8855 8760 8887 9085 8839 8988 9082 8872 8908 8963 8826 8884 8976 9026 8800 9024 8927 8948 8635 8877 8971 9000 8896 8944 8734 8790 8997 8847 9051 9093 8960 8802 8661 8814 8936 8995 8738 9062 9052 8836 9029 8900 8887 9003 8922 8943 9029 8997 8903 9024 9180 9005 8783 9116 8889 8928 8897 9104 9153 8942 8990 9017 8973 9004 8963 9091 8928 8841 8961 8960 8958 9016 9022 9025 8922 8883 8947 8890 9026 9042 8909 9022 9035 8940 8883 8876 8885 8921 9016 8883 9107 8911 8953 8861 8947 9148 9080 9146 8982 9061 9079 8954 9087 8975 9015 9001 8900 8954 8909 9239 8985 8974 9100 9058 9044 8998 8964 8882 9012 8957 9110 9098 9183 9070 8900 8776 8840 8911 8922 9029 9173 9081 9038 8993 8955 9059 8986 8803 8901 9038 9026 9034 9066 8888 9010 9018 9043 8955 9071 8873 9057 8987 8932 9059 9029 9091 9097 9093 9136 8959 8905 9027 8938 8860 9026 9110 8948 9019 8993 9062 9065 8989 8881 9001 8947 9090 8931 9107 9132 8999 8950 9143 9060 8936 8921 8966 8964 8874 9004 9080 9035 9061 9021 9071 9055 9084 8968 9061 9159 9194 9025 9117 9089 9166 8966 9213 8944 8788 9024 9093 9021 9204 9109 9035 8988 9040 8961 9066 8939 9208 8907 9086 8778 8925 9184 8903 8983 9050 9012 8959 8939 9064 9087 9005 9023 8976 8964 8970 9025 9035 8996 9078 8829 9038 9060 9000 8972 8976 9110 8992 8907 8997 9058 8836 8915 8952 9000 8968 8970 9047 8961 8991 9019 9185 9133 9036 8910 9091 8954 8965 9007 9181 8961 9067 8926 9091 9025 9121 9077 9104 8974 8924 8905 9058 8989 8950 9027 9195 9116 9134 9025 9166 8975 9113 9015 9129 9037 8967 9025 8987 9073 8972 9025 9143 8960 8949 9054 9167 9165 8985 8915 9141 9121 9380 9209 8991 8956 9073 8969 9015 9124 9027 9042 8917 8920 9129 9053 9239 8911 9004 8985 9245 8956 8960 9041 9220 8984 9255 8990 9068 9034 8926 9125 8910 9114 9125 9043 9160 9129 8988 8844 9091 9044 9010 9060 8948 8839 9191 9076 8963 8923 9064 9001 8913 9002 8990 9053 9329 8917 9018 8999 9013 9105 9275 9148 9083 8866 9151 9178 9149 9137 9181 9002 9161 9242 9083 9147 8982 8886 8932 8954 8872 8928 8890 8846 9070 9110 8975 9018 9201 8927 9107 9097 9207 9131 9049 9041 8855

Tree=0
num_leaves=95
num_cat=0
split_feature=3 32 20 3 3 20 20 2 3 7 2 3 26 3 11 3 7 2 1 0 20 3 3 3 6 21 20 1 20 20 26 1 0 7 21 26 2 20 11 20 21 7 6 3 26 3 3 21 20 3 6 21 26 24 2 3 10 19 3 7 24 0 26 20 3 3 21 11 0 3 20 16 22 21 10 16 26 7 1 10 7 3 0 0 6 12 3 3 7 7 22 12 3 11
split_gain=31077.7 4153.28 5313.57 3433.92 2416.65 2373.98 3365.11 2498.87 1981.87 1897.85 1287.24 1165.84 964.017 931.255 831.378 818.147 1760.95 795.844 775.958 872.95 753.543 683.062 1003.4 661.641 576.968 575.479 544.909 526.907 474.02 461.798 460.495 405.817 388.491 365.701 341.179 324.835 324.362 316.989 307.83 303.192 280.275 279.952 263.933 258.337 261.849 256.881 256.839 247.188 238.339 236.723 232.559 226.617 222.579 211.719 211.494 211.307 433.818 208.615 205.686 205.436 198.806 198.115 195.654 195.247 338.948 187.571 177.066 172.939 168.567 167.181 164.553 345.605 158.603 157.123 156.322 155.675 154.557 187.326 153.911 152.641 146.208 146.01 144.09 156.386 334.542 296.876 191.583 141.539 140.69 140.242 138.138 137.508 140.648 133.102
threshold=1.0000000180025095e-35 0.95000000000000007 0.83290193939598234 0.10807201035971427 0.68709957188518167 0.045962030184042699 0.83290193939598234 0.50000000000000011 0.36938944157591475 0.082817529091359268 0.50000000000000011 0.14735931367416075 0.75000000000000011 0.30364149810037527 0.72368421052631593 0.076545269448638084 0.36494181728150538 0.50000000000000011 0.88725490196078438 0.14583333333333334 0.038530921714831128 0.11278532545409641 0.15000308059803555 0.1116748630463003 0.4562500000000001 0.72222222222221444 0.006472824096983589 0.05392156862745099 0.020146186242682652 0.38420979457018156 0.58333333333333337 0.13235294117647062 0.64583333333333337 0.027605843030453086 1.0000000180025095e-35 0.91666666666666674 0.83333333333333337 0.62533800398021244 0.51315789473684226 0.008253808242011617 1.0000000180025095e-35 0.12886853181480568 0.30625000000000008 0.14735931367416075 0.58333333333333337 0.60161315291609208 0.0034273954192972356 1.0000000180025095e-35 0.13549765676107547 0.036559649004802623 0.10625000000000002 1.0000000180025095e-35 0.91666666666666674 0.71739130434782616 0.50000000000000011 0.83248862794479916 0.16846105129829012 0.10617120275228334 0.42571739035464728 0.14000990344144595 0.84782608695652184 0.68750000000000011 0.58333333333333337 0.15641081520814923 0.5035264174167795 0.20318422316085394 0.61111111111110017 0.82894736842105277 0.68750000000000011 0.22928329999214106 0.023229395353967734 0.73746867167919794 0.40909090909090912 0.72222222222221444 0.32594469073253124 0.69360902255639101 0.58333333333333337 0.045927209705372625 0.43627450980392163 0.64745619590458114 0.2028967566229265 0.10935922799287141 0.14583333333333334 0.60416666666666674 0.36875000000000008 0.93709063214013721 0.085178072762827531 0.13322686459124175 0.38722456053478588 0.32532805149789557 0.13636363636363638 0.48530083777608529 0.73924023778604497 0.48042278974843233
decision_type=2 2 2 2 2 2 2 2 2 2 2 2 2 2 2 2 2 2 2 2 2 2 2 2 2 2 2 2 2 2 2 2 2 2 2 2 2 2 2 2 2 2 2 2 2 2 2 2 2 2 2 2 2 2 2 2 2 2 2 2 2 2 2 2 2 2 2 2 2 2 2 2 2 2 2 2 2 2 2 2 2 2 2 2 2 2 2 2 2 2 2 2 2 2
left_child=-1 4 -3 46 5 13 7 8 24 47 33 -5 15 17 49 40 34 18 19 20 28 -18 67 62 30 35 53 42 -2 48 65 -31 -26 91 -17 -16 51 41 81 -20 57 -12 59 44 74 -33 -4 -8 -10 -14 -43 -9 -32 -15 -49 -39 -57 -11 -38 -25 89 -58 -21 64 -53 82 -41 -23 -35 -65 -30 -72 90 -22 -40 -34 -56 -78 -47 -27 -67 -36 -7 86 -85 -86 -84 -69 -89 -37 -73 -6 -93 -51
right_child=1 2 3 11 10 6 9 36 29 12 37 -13 14 26 25 16 21 -19 39 23 73 22 -24 27 32 79 -28 -29 70 31 52 45 75 68 38 60 58 55 43 66 -42 50 -44 -45 -46 78 -48 54 -50 93 -52 63 -54 -55 76 56 61 -59 -60 -61 -62 -63 -64 69 -66 80 -68 87 -70 -71 71 72 -74 -75 -76 -77 77 -79 -80 -81 -82 -83 83 84 85 -87 -88 88 -90 -91 -92 92 -94 -95
leaf_value=-0.07248610478161073 0.099800255894087142 -0.0077199567587384957 0.95643535867951335 1.5461093282816512 0.17629520879838792 0.071600642788712102 0.36184943297336841 0.305741741516868 0.229827718317686 1.3908186822032103 0.18177263374998812 0.18438533782098612 0.37271951720482033 0.72427335458981601 1.0988024247002006 0.77918641185385007 0.063180185409440065 0.0013849950190110724 0.20749119457563237 0.029549669053376061 0.048654746971179413 0.57113663399626702 0.29067406260375678 0.65985526350075074 0.076097716991817471 0.21292584660077191 0.27623007114175901 0.12444264740761214 0.20450429420912131 0.55427544779392568 0.070954093378447186 0.076559098023805769 0.44981147239225217 0.54398276558680758 0.11101203880585367 0.62642663955360289 0.016873740275700766 0.0073346886815057223 0.11909787469571666 0.021900450823394313 0.07483973330220868 1.2590109277661179 0.83171397051893292 0.065010620105828823 0.37324054526863293 0.59448426198131721 0.15481436805573759 0.12622834428433591 0.42855516112907299 0.30166602827672251 0.41953254301812953 0.0089907249375991722 0.031691501191221931 1.6858485850282352 0.025482637310340242 0.09153385243747747 0.63458276269010605 0.34428737887385336 0.14065126295956507 0.15039000384675152 0.20413032792043956 0.066526761595506384 0.08215808257827352 -0.038652984082410302 0.38097840801853722 0.082777590162282963 0.067465689261996933 1.5940080946580109 0.28917023846955625 -0.013675506965402446 0.097436762533583451 0.20316222069994588 0.17672527709236913 0.12563327835971577 0.26851207652275993 0.010815940699692196 0.04252063717117216 0.13354987548955694 0.2125458429435978 0.84527059164978757 0.020002660104610322 0.31611429997336393 -0.011745427078347505 0.027624365630480624 0.1768036747636447 1.1123607161395428 0.020939151298783515 1.403346739415168 0.56616446814202315 1.2827376679723994 0.42317356426943992 0.8368380732631221 0.32674198499764584 0.14857304798638982
leaf_weight=141611 3913 439 18 247 299 1705 100 85 1271 9.9999999999999982 448 28 327 31 78 36 44 5051 450 8776 4018 10.999999999999998 59 47 324 150 536 3494 5534 84 13988 1709 255 501 178 70 5115 779 1287 8259 5495 14.999999999999998 55 1319 245 52 143 1219 298 292 110 4850 9837 12.999999999999998 9686 733 96 32 600 97 39 33 4172 20260 100 3134 5812 60 131 22761 2050 208 803 1441 358 37 2834 1328 224 17 2819 631 13425 6147 439 13.999999999999998 15405 21 12.999999999999998 15.999999999999998 253 25 160 1023
leaf_count=141611 3913 439 18 247 299 1705 100 85 1271 10 448 28 327 31 78 36 44 5051 450 8776 4018 11 59 47 324 150 536 3494 5534 84 13988 1709 255 501 178 70 5115 779 1287 8259 5495 15 55 1319 245 52 143 1219 298 292 110 4850 9837 13 9686 733 96 32 600 97 39 33 4172 20260 100 3134 5812 60 131 22761 2050 208 803 1441 358 37 2834 1328 224 17 2819 631 13425 6147 439 14 15405 21 13 16 253 25 160 1023
internal_value=4.86328e-10 0.0486176 0.483448 0.977996 0.046808 0.044088 0.031197 0.017365 0.041951 0.0952545 0.215832 1.40746 0.155367 0.0796861 0.281464 0.129476 0.195345 0.0770001 0.0847343 0.100915 0.131161 0.7629 0.950629 0.0677988 0.0342044 0.552297 0.331772 0.142472 0.157764 0.185746 0.0324306 0.123694 0.22688 0.390975 0.166226 0.778529 -0.0151752 0.127548 0.160734 0.0458892 0.0787737 0.255616 0.459022 0.132938 0.180344 0.105473 0.244437 0.0484433 0.267572 0.220436 0.52027 -0.020532 0.0547431 1.00838 0.0463632 0.0828296 0.151055 0.593461 0.0298688 0.316674 0.578678 0.489266 0.0465007 -0.0211101 0.0165056 0.0200932 0.0407211 1.32146 0.491166 -0.0254382 0.183398 0.148152 0.230404 0.0689746 0.151615 0.394185 0.0393329 0.071566 0.284505 0.277296 0.053051 0.270987 0.0148098 0.0120768 0.039848 0.205717 0.00571923 1.40926 1.08325 0.748531 0.323906 0.260149 0.395674 0.182568
internal_weight=0 211134 875 436 210259 206929 151916 124938 71167 26978 3330 275 11811 55013 2012 9799 4262 54433 49382 34861 18220 208 164 16641 67529 370 580 3693 12761 3638 66913 2069 616 1116 4054 203 53771 2214 4018 14521 5537 573 199 3209 1890 1985 161 15167 1569 1642 125 48056 23825 44 15067 1641 862 42 5715 144 125 129 12948 47971 4950 43088 14071 105 632 43021 8848 3314 1264 5459 1645 292 13848 4162 276 167 5953 809 37135 35430 6600 453 28830 94 34 86 461 484 185 1315
internal_count=352745 211134 875 436 210259 206929 151916 124938 71167 26978 3330 275 11811 55013 2012 9799 4262 54433 49382 34861 18220 208 164 16641 67529 370 580 3693 12761 3638 66913 2069 616 1116 4054 203 53771 2214 4018 14521 5537 573 199 3209 1890 1985 161 15167 1569 1642 125 48056 23825 44 15067 1641 862 42 5715 144 125 129 12948 47971 4950 43088 14071 105 632 43021 8848 3314 1264 5459 1645 292 13848 4162 276 167 5953 809 37135 35430 6600 453 28830 94 34 86 461 484 185 1315
is_linear=0
shrinkage=1


Tree=1
num_leaves=95
num_cat=0
split_feature=3 32 20 3 26 3 2 20 3 20 20 7 7 3 3 0 3 3 1 3 7 20 0 6 20 21 1 0 0 6 20 2 19 21 26 3 3 26 10 20 7 3 7 0 3 26 20 2 3 2 20 3 12 13 3 2 24 3 7 10 20 16 22 10 1 6 20 21 19 3 20 7 3 7 3 15 10 1 1 7 16 25 3 7 3 13 23 13 13 13 5 22 16 30
split_gain=19889.7 2658.1 3400.68 2213.65 1671.32 1134.11 1064.19 1683.74 1127.61 853.061 1140.03 980.851 772.91 986.695 725.3 724.075 693.59 625.871 520.07 517.717 370.968 356.724 347.177 421.915 329.471 285.47 280.224 289.431 325.417 370.134 267.603 264.773 246.37 244.238 515.088 416.893 430.21 321.016 244.365 243.773 243.397 232.426 224.572 213.891 213.352 181.971 180.738 180.465 175.992 173.266 173.104 170.072 161.642 177.527 158.989 157.276 157.107 154.119 153.101 149.292 146.242 145.994 143.689 141.43 137.623 134.313 128.985 128.327 188.178 125.357 121.901 121.824 119.256 114.719 323.881 125.348 114.549 113.467 350.366 237.19 113.27 113.231 112.374 113.44 110.434 109.383 108.342 107.516 106.391 116.201 104.591 103.765 184.274 116.786
threshold=1.0000000180025095e-35 0.95000000000000007 0.83290193939598234 0.093500881311263356 0.58333333333333337 0.73924023778604497 0.50000000000000011 0.83290193939598234 0.41297204864381815 0.83290193939598234 0.15641081520814923 0.12688784352562518 0.36494181728150538 0.11278532545409641 0.14735931367416075 0.14583333333333334 0.36938944157591475 0.15000308059803555 0.88725490196078438 0.68709957188518167 0.082817529091359268 0.62533800398021244 0.43750000000000006 0.36875000000000008 0.038530921714831128 1.0000000180025095e-35 0.88725490196078438 0.062500000000000014 0.64583333333333337 0.36875000000000008 0.006472824096983589 0.50000000000000011 0.13675495063160714 0.72222222222221444 0.75000000000000011 0.11278532545409641 0.1309808819764077 0.91666666666666674 0.32594469073253124 0.039988264655009979 0.047165139886110437 0.10033098919688085 0.067962366922505582 0.27083333333333337 0.043613719155373411 0.75000000000000011 0.020146186242682652 0.83333333333333337 0.45593619562818227 0.50000000000000011 0.009690085778324543 0.65664952046450697 0.65567402894135574 0.81854838709677424 0.085178072762827531 1.0000000180025095e-35 0.84782608695652184 0.55497600820889026 0.12812577370636299 0.49546126240236449 0.079278498427371863 0.66979949874686728 0.95454545454545459 0.17479417352754914 0.43627450980392163 0.13125000000000003 0.020146186242682652 1.0000000180025095e-35 0.11330733463266604 0.20095691232744006 0.008253808242011617 0.28323842535281019 0.32673375105847996 0.12911611785095325 0.015308082445744296 0.41855690262025819 0.0046231792273590897 0.5931372549019609 0.54411764705882371 0.070190641247833627 0.74122807017543868 0.68644067796610175 0.0052449769255376389 0.35008665511265175 0.13795964914421613 0.59274193548387111 0.15000000000000005 0.91532258064516137 0.39919354838709681 0.59274193548387111 0.40550010460838198 0.22727272727272727 0.44548872180451132 0.83333333333333348
decision_type=2 2 2 2 2 2 2 2 2 2 2 2 2 2 2 2 2 2 2 2 2 2 2 2 2 2 2 2 2 2 2 2 2 2 2 2 2 2 2 2 2 2 2 2 2 2 2 2 2 2 2 2 2 2 2 2 2 2 2 2 2 2 2 2 2 2 2 2 2 2 2 2 2 2 2 2 2 2 2 2 2 2 2 2 2 2 2 2 2 2 2 2 2 2
left_child=-1 4 -3 45 5 6 8 47 15 10 16 40 20 -14 85 18 26 -15 24 31 -9 42 41 54 46 32 27 39 -29 -30 -10 48 62 34 35 -13 80 38 86 66 72 50 -7 -18 82 -4 -2 67 -12 -31 73 -32 53 -35 -24 -21 59 -49 -55 -39 -45 91 -22 -38 65 -59 -6 68 -8 -20 -28 -60 -11 -17 75 -75 -43 78 -56 -80 -37 -46 83 -27 -48 -5 -36 -62 -85 -90 -42 -25 93 -93
right_child=1 2 3 14 9 21 7 12 30 11 19 33 13 17 -16 22 43 -19 69 55 25 -23 23 61 -26 44 70 28 29 49 51 -33 -34 52 37 36 63 56 -40 -41 90 76 -44 60 81 -47 84 57 -50 -51 -52 -53 -54 58 77 -57 -58 64 71 -61 87 -63 -64 -65 -66 -67 -68 -69 -70 -71 -72 -73 -74 74 -76 -77 -78 -79 79 -81 -82 -83 -84 88 -86 -87 -88 -89 89 -91 -92 92 -94 -95
leaf_value=-0.057988884751749847 0.071514368384081914 -0.0061759646969225795 0.10879041858961885 1.2738137062536468 0.077046816455501793 0.20169842967644913 1.0221297377347947 0.021901316329292861 0.87718015889721834 0.039262523132899241 0.035034054846959262 0.10120905508741927 0.1236657916920376 1.0756007209252776 0.14750827135784286 -0.02140801236178581 0.50801750667685386 0.13892652704602196 0.018252023006968564 0.34210748362904753 1.4843153874079384 0.095625269229990151 0.026414914137924531 0.098543417860576715 0.051199224361586908 0.086112153599932434 0.20801986655863944 0.05303279862052987 0.096239663190363339 0.35118304253983879 0.1574715904445792 -4.9894278510395709e-05 0.1731207531046223 0.16518302210036684 0.86941790115898065 0.7906672841587733 0.96761669009923945 0.37185014346614481 0.94615938231139118 0.06597613726932422 0.11844848294202487 0.13727567036723334 0.41863782855199133 0.34085667507310752 0.08075045547601567 0.95316752076826328 0.12592719760603999 0.011815622019775297 0.1632666344807194 0.084674861161872297 -0.0038041917185493313 0.35419554700024825 0.034856399281375239 1.2124510353803635 0.089772366348304669 0.13003575005158688 0.12681912351048216 0.94801456610361745 0.2475639408779523 0.94124764680862438 0.15504654809496998 0.073852400027279705 0.54118158519268034 0.18202926155222074 0.033651532459992299 0.27659969902757942 0.16348876807357152 -0.023888714229151911 0.11047239801846445 0.090277778758155611 0.040817678041095554 0.81412962898612029 0.29447032309820259 0.40404552396224896 0.10996797910534871 1.108708097330398 0.026685899241404049 0.027679550031878122 1.133653065405394 0.32440532422700868 1.5379604253172876 0.14645893784870131 0.016646505915752091 0.98422904789447796 0.20852638383220576 0.90189654086087201 0.38708753706792332 0.71406737082371752 0.022858179719359786 0.77084485987822227 0.33747306676827271 0.29123434989258301 0.21999326082329229 0.7387102960663684
leaf_weight=141611 2400 439 142 218 849 473 9.9999999999999982 9765 22 3122 14648 551 320 89 28 154 102 42 7480 166 12 732 8727 163 4994 619 178 11386 4518 359 1872 13140 37 384 23 43 9.9999999999999982 233 71 2178 2814 382 320 244 2856 10.999999999999998 4582 4486 441 134 21169 194 285 9.9999999999999982 2002 889 106 14.999999999999998 63 20 809 348 14 110 79 58 3698 37749 96 1110 8660 20 75 23 269 18 19465 1140 19 61 9.9999999999999982 1658 2422 9.9999999999999982 754 37 98 13.999999999999998 27 11.999999999999998 90 43 365 51
leaf_count=141611 2400 439 142 218 849 473 10 9765 22 3122 14648 551 320 89 28 154 102 42 7480 166 12 732 8727 163 4994 619 178 11386 4518 359 1872 13140 37 384 23 43 10 233 71 2178 2814 382 320 244 2856 11 4582 4486 441 134 21169 194 285 10 2002 889 106 15 63 20 809 348 14 110 79 58 3698 37749 96 1110 8660 20 75 23 269 18 19465 1140 19 61 10 1658 2422 10 754 37 98 14 27 12 90 43 365 51
internal_value=0 0.0388941 0.386758 0.782396 0.0374464 0.0247751 0.0228821 0.00295743 0.038343 0.0625388 0.0545975 0.123443 0.0544416 0.312941 1.11375 0.0343448 0.0800108 0.775293 0.0655856 0.0258474 0.0477537 0.196305 0.022101 0.0507306 0.0912451 0.0806804 0.0744763 0.0860546 0.0717243 0.114195 0.183333 0.0207065 0.504663 0.243608 0.297146 0.186248 0.457096 0.442863 0.651607 0.120995 0.0833223 0.0131843 0.28924 0.231323 0.0771677 0.169497 0.117097 -0.0187095 0.0387819 0.278745 -0.00115548 0.175944 0.154026 0.225228 0.0404327 0.163404 0.331222 0.0185266 0.473157 0.416862 0.204872 0.177586 0.976474 0.247495 0.216589 0.414562 0.147349 -0.0232717 0.196478 0.0275592 0.0441852 0.384086 0.0452496 0.119686 0.189778 0.71341 0.0288144 0.0784007 0.106173 0.516602 0.931666 0.104885 0.0366767 0.109301 0.137599 1.21985 0.47877 0.164556 0.402237 0.253008 0.125236 0.235623 0.284302 0.534014
internal_weight=0 211134 875 436 210259 139708 138183 60376 77807 70551 62413 8138 17883 451 283 75719 33129 131 21320 29284 17432 1525 54399 12919 12730 7667 31960 23122 16397 5011 2088 28229 63 2037 1275 724 173 551 192 6725 6101 41480 793 1169 7604 153 7736 42493 15089 493 21633 2066 762 477 11949 1055 359 4638 93 253 1067 970 26 120 152 73 4547 37855 106 8590 8838 83 3197 464 310 41 19847 3222 2082 80 53 4514 3090 668 5336 255 121 823 49 39 2904 622 459 94
internal_count=352745 211134 875 436 210259 139708 138183 60376 77807 70551 62413 8138 17883 451 283 75719 33129 131 21320 29284 17432 1525 54399 12919 12730 7667 31960 23122 16397 5011 2088 28229 63 2037 1275 724 173 551 192 6725 6101 41480 793 1169 7604 153 7736 42493 15089 493 21633 2066 762 477 11949 1055 359 4638 93 253 1067 970 26 120 152 73 4547 37855 106 8590 8838 83 3197 464 310 41 19847 3222 2082 80 53 4514 3090 668 5336 255 121 823 49 39 2904 622 459 94
is_linear=0
shrinkage=0.2


Tree=2
num_leaves=95
num_cat=0
split_feature=3 32 20 3 26 3 2 20 3 20 20 7 7 3 3 0 3 3 1 3 21 7 10 0 6 19 16 26 20 3 3 7 21 7 26 3 32 16 2 3 7 3 7 0 20 7 20 0 1 6 25 19 3 2 20 7 0 3 32 26 3 1 2 3 3 20 19 21 3 1 7 24 22 3 4 0 0 33 1 3 26 27 23 6 18 23 25 25 6 13 27 21 16 11
split_gain=12729.4 1701.18 2176.44 1449.24 1069.64 725.832 681.085 1077.59 729.29 545.959 729.618 627.745 494.662 631.485 486.384 481.762 443.898 416.444 332.593 331.339 263.571 239.985 237.34 232.079 263.102 217.206 213.352 200.072 179.295 173.82 306.83 321.761 290.141 261.132 228.576 359.504 220.92 214.357 169.455 156.254 155.774 154.049 148.259 147.878 145.937 144.925 137.126 136.89 133.347 135.065 131.911 131.893 130.702 126.244 120.542 118.576 117.289 148.23 144.81 118.399 116.839 116.609 115.498 115.889 114.112 113.789 125.312 125.038 107.176 116.469 164.712 107.672 105.916 103.889 113.755 102.752 235.665 98.1487 96.6509 96.4949 181.538 101.5 150.288 136.991 96.4032 95.1375 109.944 166.072 156.676 95.0066 94.8557 91.7199 90.7558 90.6101
threshold=1.0000000180025095e-35 0.95000000000000007 0.83290193939598234 0.11050891069507411 0.58333333333333337 0.73924023778604497 0.50000000000000011 0.83290193939598234 0.35936039248053098 0.83290193939598234 0.15641081520814923 0.12688784352562518 0.36494181728150538 0.11278532545409641 0.14735931367416075 0.14583333333333334 0.36938944157591475 0.14021833558809485 0.88725490196078438 0.68709957188518167 1.0000000180025095e-35 0.067962366922505582 0.10006333122229262 0.43750000000000006 0.36875000000000008 0.10324086456753841 0.66478696741854637 0.91666666666666674 0.006472824096983589 0.10033098919688085 0.14615583961785969 0.19868779400841796 0.61111111111110017 0.37732111908888344 0.75000000000000011 0.0096037739292125571 0.21388888888888893 0.73496240601503759 0.50000000000000011 0.043613719155373411 0.047165139886110437 0.0034273954192972356 0.12812577370636299 0.68750000000000011 0.023229395353967734 0.22988363456301067 0.020146186242682652 0.27083333333333337 0.88725490196078438 0.4562500000000001 0.46610169491525427 0.1643748933088556 0.085178072762827531 0.50000000000000011 0.009690085778324543 0.18036642733349842 0.14583333333333334 0.086388079351124927 0.12361111111111113 0.75000000000000011 0.17552068657434336 0.33823529411764713 0.83333333333333337 0.097586364915460119 0.44610913047393691 0.64998261146662717 0.57023613863908584 0.38888888888887158 0.1116748630463003 0.063725490196078441 0.14000990344144595 0.63043478260869579 0.59090909090909094 0.63362502418659006 0.48313821073240909 0.72916666666666674 0.85416666666666674 0.57819894483352552 0.024509803921568631 0.007445067845533785 0.25000000000000006 0.024092669361922073 0.11666666666666668 0.15625000000000003 0.41304347826086957 0.65000000000000002 0.39830508474576282 0.12711864406779663 0.19375000000000003 0.65725806451612911 0.015772811422086346 0.61111111111110017 0.69486215538847118 0.61842105263157898
decision_type=2 2 2 2 2 2 2 2 2 2 2 2 2 2 2 2 2 2 2 2 2 2 2 2 2 2 2 2 2 2 2 2 2 2 2 2 2 2 2 2 2 2 2 2 2 2 2 2 2 2 2 2 2 2 2 2 2 2 2 2 2 2 2 2 2 2 2 2 2 2 2 2 2 2 2 2 2 2 2 2 2 2 2 2 2 2 2 2 2 2 2 2 2 2
left_child=-1 4 -3 41 5 6 8 62 15 10 16 40 20 79 91 18 27 -15 26 38 25 53 -22 52 68 -9 44 48 84 34 31 93 37 -34 -13 55 -32 -33 64 -24 -11 -4 50 85 46 65 -2 -18 49 56 -37 -44 54 -7 -17 -36 92 59 75 -58 -48 -21 -8 -64 -12 67 -67 73 -25 70 71 77 -68 -30 -75 -59 -77 -70 -49 80 -14 -82 -83 -84 -10 -23 87 -87 -89 -69 -19 -5 -6 -31
right_child=1 2 3 14 9 21 7 12 28 11 19 29 13 17 -16 23 47 90 -20 61 22 43 39 24 -26 -27 -28 -29 45 30 36 32 33 -35 35 42 -38 -39 -40 -41 -42 -43 51 -45 -46 -47 60 78 -50 -51 -52 -53 -54 -55 -56 -57 57 58 -60 -61 -62 -63 63 -65 -66 66 72 89 69 -71 -72 -73 -74 74 -76 76 -78 -79 -80 -81 81 82 83 -85 -86 86 -88 88 -90 -91 -92 -93 -94 -95
leaf_value=-0.046391108338412416 0.048071785314180389 -0.0049407714880007943 0.70586235655678653 0.9181967566179674 0.090282416143693978 0.19892858750243225 -0.018617322795550728 1.0384716033935548 1.1204069462689483 0.036199655369662104 0.027903486394970419 0.07462013958330263 -0.089192056506872175 0.91885786087482002 0.11800661065748759 0.098964022078275038 0.40641400829441476 0.64247375386101868 0.022048992459142328 0.23596126027761086 0.013534266042733218 0.25220780927954844 0.027038699524408755 0.022198230768872326 0.14085568539784735 0.22888573209689769 0.1169601139430395 0.04003016758235995 0.25661964088932016 0.51506052833488758 0.85051405676640579 0.71825575477992887 0.22825247899939619 1.0563837217787901 0.31807388931512837 1.1001387109359102 0.088527171018843859 1.6613393696871672 -3.9915922205949056e-05 0.082920130952765 0.10018914870043641 0.08551858848538893 0.33633037564846191 0.070056434394791728 0.036325484953431707 0.021523433146088827 0.1144447176875561 0.47293804104511561 0.045419805825595259 0.24181876496633606 0.23406659483033071 0.06287708146331511 0.019959722557315929 0.044307650300546945 -0.0052501543632919425 0.69418357089161875 0.021356443357036056 0.14345151829100364 0.071332554013055702 0.080759640738246555 0.41802356086957915 0.088712150219887181 -0.0082642667598191132 0.058115618574623273 0.12792010922795616 0.067878843313361442 0.95623854338614778 0.12688290150517742 0.4707628927447578 0.060114454163003442 0.055074121320948882 0.22304079015465345 0.2338700468862249 1.0945583636944112 0.34176988459768753 0.72185510716267998 0.11758889090547811 1.3156347534873269 0.15217346404340804 0.028635806386822643 0.10852568086824919 0.045866074345328592 0.53521958366036404 1.4291506816943489 0.28308132561770355 0.22343798682093619 0.31032405268578306 1.2619573213837363 0.33751457888971675 0.27585385735773554 0.037600389719009399 1.1857555402468329 0.15530772005695193 0.15997432282354723
leaf_weight=141611 1927 439 18 172 4378 316 37855 14.999999999999998 11.000000000000002 3197 14618 713 35 77 28 455 102 13.999999999999998 8587 301 8982 307 3351 9309 964 114 3277 12650 246 34 15.999999999999998 78 99 18 60 12.000000000000002 312 10.999999999999998 13140 4970 2904 145 91 128 5424 426 2046 39 5315 210 17 314 22187 637 18297 76 3207 801 1914 2308 52 754 3025 1613 471 736 10.999999999999998 969 11.000000000000002 2509 51 17 31 12.999999999999998 21 42 67 10.999999999999998 1028 227 19 10.999999999999998 16.000000000000004 11.999999999999998 10.999999999999998 20 84 22 10.999999999999998 208 40 73 1068 186
leaf_count=141611 1927 439 18 172 4378 316 37855 15 11 3197 14618 713 35 77 28 455 102 14 8587 301 8982 307 3351 9309 964 114 3277 12650 246 34 16 78 99 18 60 12 312 11 13140 4970 2904 145 91 128 5424 426 2046 39 5315 210 17 314 22187 637 18297 76 3207 801 1914 2308 52 754 3025 1613 471 736 11 969 11 2509 51 17 31 13 21 42 67 11 1028 227 19 11 16 12 11 20 84 22 11 208 40 73 1068 186
internal_value=0 0.0311153 0.309407 0.625917 0.0299571 0.0198201 0.0183057 0.00236594 0.0306744 0.050031 0.043678 0.0987544 0.0435533 0.250353 0.907671 0.0270152 0.0640087 0.620234 0.0524641 0.0206779 0.038203 0.157044 0.0360796 0.0169356 0.0403594 0.323024 0.072987 0.059581 0.133133 0.194886 0.271096 0.383047 0.562673 0.355657 0.150099 0.244513 0.125697 0.834817 0.0165652 0.0604158 0.0666579 0.154023 0.1556 0.259452 0.0577368 0.128432 0.0865902 0.185058 0.0723888 0.0826311 0.592441 0.12432 0.00957065 0.0955776 -0.00272149 0.528253 0.080206 0.0652974 0.102561 0.0462164 0.121969 0.130724 -0.0149676 0.0148213 0.0310255 0.14881 0.0870532 0.181786 0.0322238 0.0681331 0.291676 0.601079 0.423062 0.30191 0.629601 0.168243 0.350425 0.893199 0.163898 0.0989326 0.270517 0.487583 0.672253 0.918333 0.701744 0.314053 0.45264 0.678198 0.95381 0.153209 0.194419 0.997918 0.103034 0.214851
internal_weight=0 211134 875 436 210259 139708 138183 60376 77807 70551 62413 8138 17883 451 273 75124 33129 131 21313 29284 17432 1525 17303 53811 12872 129 12726 31960 2683 2037 754 426 206 117 1283 570 328 89 28229 8321 6101 163 434 572 9449 2661 4025 1169 19310 13995 29 405 40939 953 18752 136 13785 8339 2824 5515 2098 1055 42493 4638 15089 2235 778 1457 11908 2599 90 39 42 280 34 910 109 22 1067 320 93 58 39 28 22 444 137 53 33 1177 54 245 5446 220
internal_count=352745 211134 875 436 210259 139708 138183 60376 77807 70551 62413 8138 17883 451 273 75124 33129 131 21313 29284 17432 1525 17303 53811 12872 129 12726 31960 2683 2037 754 426 206 117 1283 570 328 89 28229 8321 6101 163 434 572 9449 2661 4025 1169 19310 13995 29 405 40939 953 18752 136 13785 8339 2824 5515 2098 1055 42493 4638 15089 2235 778 1457 11908 2599 90 39 42 280 34 910 109 22 1067 320 93 58 39 28 22 444 137 53 33 1177 54 245 5446 220
is_linear=0
shrinkage=0.2


Tree=3
num_leaves=95
num_cat=0
split_feature=3 32 20 3 2 3 20 10 20 7 3 3 3 20 3 3 26 3 6 0 7 13 7 1 7 1 3 20 26 7 3 32 6 16 3 3 20 26 21 7 10 20 2 10 4 1 7 16 30 16 7 7 34 19 0 3 6 3 13 22 12 13 3 0 21 19 7 33 1 17 21 10 12 1 3 3 3 3 6 6 30 1 24 33 10 3 3 21 20 0 12 21 23 20
split_gain=8146.84 1088.76 1392.92 928.012 708.873 1377.14 1218.64 566.877 536.264 363.995 571.734 322.62 311.707 300.949 760.612 299.467 281.877 263.19 256.852 298.762 252.645 247.307 239.985 217.302 372.411 274.006 196.505 208.615 196.351 195.726 195.193 251.045 187.496 181.024 189.373 173.086 160.944 160.836 190.346 220.421 164.193 157.974 149.983 153.158 144.626 143.605 143.475 143.027 382.849 178.587 141.406 133.333 189.025 133.24 132.504 130.697 129.681 132.638 123.666 122.706 121.956 124.819 117.453 117.233 116.133 386.791 181.854 111.999 110.8 110.057 109.612 109.571 289.249 121.927 116.428 108.288 106.895 231.169 128.72 154.31 105.39 131.492 103.856 103.265 102.126 286.695 100.687 100.621 99.2535 106.127 99.1105 98.1346 97.2866 96.0536
threshold=1.0000000180025095e-35 0.95000000000000007 0.83290193939598234 0.093500881311263356 0.50000000000000011 0.43673854715748334 0.83290193939598234 0.10132995566814443 0.044381358879412448 0.37732111908888344 0.11278532545409641 0.73924023778604497 0.14021833558809485 0.042294160363642502 0.082978546992507354 0.14735931367416075 0.75000000000000011 0.0096037739292125571 0.36875000000000008 0.64583333333333337 0.070190641247833627 0.58467741935483886 0.12688784352562518 0.88725490196078438 0.16922505570685817 0.15196078431372553 0.60161315291609208 0.006472824096983589 0.91666666666666674 0.025377568705125034 0.20318422316085394 0.048611111111111126 0.5062500000000002 0.64974937343358397 0.015308082445744296 0.043613719155373411 0.003542817922905219 0.41666666666666669 0.27777777777777152 0.12911611785095325 0.10850749419463798 0.008253808242011617 0.83333333333333337 0.007705298712265149 0.98849242817756833 0.36764705882352949 0.22988363456301067 0.44172932330827069 0.83333333333333348 0.30764411027568928 0.20462985887595944 0.08356028719980195 0.016097669991671778 0.1747779319792695 0.27083333333333337 0.14615583961785969 0.34375000000000006 0.57620674494774682 0.92741935483870974 0.86363636363636376 0.65567402894135574 0.81854838709677424 0.054742603852952362 0.64583333333333337 1.0000000180025095e-35 0.10778204743281644 0.14000990344144595 0.56996270559675855 0.43627450980392163 0.24213512951045035 1.0000000180025095e-35 0.00065442263035676602 0.88065498857578073 0.73039215686274517 0.03880755645585688 0.0034273954192972356 0.11498966486511705 0.14250215591357604 0.18125000000000005 0.20625000000000004 0.50000000000000011 0.74019607843137269 0.71739130434782616 0.51362492786966996 0.01834494405742031 0.23419800604529287 0.0085538807137435346 0.61111111111110017 0.64998261146662717 0.14583333333333334 0.94676313785224686 0.27777777777777152 0.11666666666666668 0.17164320874359809
decision_type=2 2 2 2 2 2 2 2 2 2 2 2 2 2 2 2 2 2 2 2 2 2 2 2 2 2 2 2 2 2 2 2 2 2 2 2 2 2 2 2 2 2 2 2 2 2 2 2 2 2 2 2 2 2 2 2 2 2 2 2 2 2 2 2 2 2 2 2 2 2 2 2 2 2 2 2 2 2 2 2 2 2 2 2 2 2 2 2 2 2 2 2 2 2
left_child=-1 4 -3 75 5 8 11 -8 13 16 -11 42 -12 23 -15 -5 35 50 30 55 21 -16 -13 24 58 32 27 82 60 68 64 90 -26 45 36 70 67 40 39 -39 44 -25 84 -44 51 62 93 48 -21 -50 -18 -37 -53 -23 80 -20 57 -45 71 -51 61 -19 -27 -29 65 66 -10 -35 -28 -63 -9 72 73 -2 -73 -4 78 -78 -41 -80 81 -36 -7 -83 85 -6 -72 -43 89 -66 -32 -30 -22 -33
right_child=1 2 3 15 6 26 7 9 18 10 12 22 -14 14 20 -17 17 28 19 47 92 53 -24 41 25 33 29 63 91 -31 31 46 -34 34 54 37 -38 38 -40 76 -42 87 43 56 -46 -47 -48 -49 49 59 -52 52 -54 -55 -56 -57 -58 -59 -60 -61 -62 69 -64 -65 88 -67 -68 -69 -70 -71 86 74 -74 -75 -76 -77 77 -79 79 -81 -82 83 -84 -85 -86 -87 -88 -89 -90 -91 -92 -93 -94 -95
leaf_value=-0.03711288542043864 0.25290246499489749 -0.0039526177680274744 0.56468985610538069 0.78345178403106397 0.010764215343106995 0.36358766776064172 0.017625455567995604 0.41883297839335037 1.4662738710641858 0.0983202065782596 0.79778570228152812 0.051056568238147276 0.25153862186349357 0.041671265299267297 1.5074770741992527 0.094405288781438557 0.2570046398167809 0.2196762608468521 0.01054125846165745 0.12934233103032142 0.85375491375724488 1.0547985180219015 0.26764458321668355 0.13996361456072914 0.016439585934833172 0.063383882414071446 0.27478933757056995 0.094470398883808329 0.20224238430011146 0.26450041154244802 0.13842629581974594 0.032082814941618708 0.45730781772961981 0.9212340379202808 0.11676153812357914 0.10185453819086482 0.099135615586026293 0.074881030074621158 0.099255980297725172 -0.066290896137555441 0.043786275340002637 0.0059055626257398675 -0.015713077315413607 0.028997147965256855 0.82646010039108142 0.049811679067161385 0.0068820251450356744 0.11778244110189942 1.2404406645718744 0.91683460285789098 0.64912361534787166 0.9592943335834303 0.16741725043817002 0.2743503797621954 0.045910606972817992 0.11357627996211372 0.20632886289226776 0.20622527996383311 0.12496873459290013 0.29434503085519137 0.091865983763669695 0.303232184255665 0.13823411884949408 0.28216146293791455 0.047569399300914722 0.071420210341207532 0.31145816266536719 0.28742553081951644 0.07775426093168164 0.7952296388245399 0.067162596675378591 -0.00078156871744754523 0.94591361599809987 -0.017081389699596911 0.037473072021814845 0.0424588277163329 0.88778885518727102 0.23038072608411314 1.1194881601767106 0.26628836087278418 0.088518474513815337 0.31281838918930782 1.1107689066366715 0.16263644270765326 -0.012629487349560596 0.30934036799931319 -3.9990221793235174e-05 0.040126281120849039 0.063569886229828648 0.0070375482696419141 0.5039242525254527 0.04543070013701761 0.30789750681839667 0.086483387089757779
leaf_weight=141611 115 439 18 255 1140 23 13124 28 12.000000000000002 365 90 1193 78 410 18 28 132 317 2170 176 14.999999999999998 14.999999999999998 247 454 3638 1716 147 2127 188 924 695 3121 39 27 1635 228 37 124 1574 30 3663 8280 2811 3697 13.999999999999998 7150 4728 852 17 19 51 19 33 21 1189 637 190 177 505 38 233 44 1640 142 2720 289 9.9999999999999982 19 511 31 1320 5479 17 160 7592 135 46 40 10.999999999999998 37 2146 283 10.999999999999998 519 51260 145 2749 5876 1370 51683 31 1058 101 2223
leaf_count=141611 115 439 18 255 1140 23 13124 28 12 365 90 1193 78 410 18 28 132 317 2170 176 15 15 247 454 3638 1716 147 2127 188 924 695 3121 39 27 1635 228 37 124 1574 30 3663 8280 2811 3697 14 7150 4728 852 17 19 51 19 33 21 1189 637 190 177 505 38 233 44 1640 142 2720 289 10 19 511 31 1320 5479 17 160 7592 135 46 40 11 37 2146 283 11 519 51260 145 2749 5876 1370 51683 31 1058 101 2223
internal_value=0 0.0248922 0.247525 0.500734 0.0239657 0.0336731 0.0100735 0.046659 0.0298754 0.0771345 0.238851 -0.00533201 0.544171 0.0459374 0.18915 0.715278 0.0699336 0.137368 0.0187359 0.0685674 0.544835 0.902184 0.0882074 0.0442253 0.0530116 0.0704491 0.150865 0.113585 0.114978 0.205136 0.0158234 0.0404472 0.0211156 0.0815363 0.109717 0.0559653 0.409668 0.0781371 0.126609 0.276101 0.0553282 0.0238346 -0.00759887 0.02018 0.199131 0.0658314 0.0322599 0.156812 0.289827 0.67152 0.366284 0.167765 0.456757 0.599537 0.105404 0.0339233 0.0450066 0.0370946 0.0278161 0.501842 0.206458 0.274571 0.0999615 0.106217 0.0110825 0.132959 0.941358 0.659444 0.121773 0.506591 0.0244745 0.0241446 0.145313 0.0958209 0.0214378 0.103898 0.428243 0.582018 0.258696 0.461813 0.120838 0.149299 0.605323 0.215631 -0.0112335 0.0444557 0.0217608 0.0201102 0.0104029 0.00906403 0.154033 0.0690909 0.378483 0.0547124
internal_weight=0 211134 875 436 210259 123772 86487 25627 119887 12503 533 60860 168 49096 580 283 11970 2054 70791 3909 170 54 1440 48516 33906 20038 3885 2303 1871 1582 66882 10798 3677 16361 5855 9916 83 5819 1862 288 3957 14610 59420 6875 294 10506 10072 1102 250 74 183 280 52 36 5772 2807 4064 3874 13868 57 625 392 3356 2269 56084 311 22 46 658 75 4097 13363 292 275 13071 153 164 86 78 48 4583 2437 34 802 52545 1285 4069 14156 55773 54403 726 1246 116 5344
internal_count=352745 211134 875 436 210259 123772 86487 25627 119887 12503 533 60860 168 49096 580 283 11970 2054 70791 3909 170 54 1440 48516 33906 20038 3885 2303 1871 1582 66882 10798 3677 16361 5855 9916 83 5819 1862 288 3957 14610 59420 6875 294 10506 10072 1102 250 74 183 280 52 36 5772 2807 4064 3874 13868 57 625 392 3356 2269 56084 311 22 46 658 75 4097 13363 292 275 13071 153 164 86 78 48 4583 2437 34 802 52545 1285 4069 14156 55773 54403 726 1246 116 5344
is_linear=0
shrinkage=0.2


Tree=4
num_leaves=95
num_cat=0
split_feature=3 11 20 3 26 26 3 20 3 20 3 20 21 19 0 26 3 3 26 1 21 20 3 32 3 20 7 20 20 12 17 0 2 3 3 26 11 3 3 7 11 12 3 7 20 7 20 10 21 19 3 6 11 10 13 4 33 30 18 3 10 20 0 17 3 22 6 7 6 13 4 4 10 7 19 33 28 13 34 3 7 3 19 20 20 28 19 0 15 24 13 21 24 17
split_gain=5213.98 697.847 915.98 815.384 598.683 393.106 311.586 296.867 440.028 337.151 415.29 216.473 196.374 172.75 166.249 198.83 198.838 165.751 152.419 142.34 135.816 133.124 167.229 134.78 130.303 129.832 128.174 123.131 121.361 192.573 126.94 116.139 111.664 106.828 104.946 101.86 100.712 98.0807 140.816 179.836 159.801 108.69 120.525 96.1983 94.7794 131.578 101.034 117.898 96.5461 369.928 106.782 94.4679 103.97 93.6015 91.5026 95.1388 94.9529 91.4599 89.7989 120.076 89.6781 89.1577 97.5356 94.1563 92.3937 88.6122 88.5069 87.3527 225.349 91.5926 97.7435 107.864 84.4466 150.344 87.7473 85.2787 85.1134 84.2473 84.2098 81.5169 136.334 81.3301 104.575 80.8985 81.7665 78.9919 115.795 76.5032 79.6254 75.0736 74.8857 74.7221 74.571 74.0734
threshold=1.0000000180025095e-35 0.96052631578947378 0.64998261146662717 0.11050891069507411 0.58333333333333337 0.91666666666666674 0.14735931367416075 0.15641081520814923 0.35936039248053098 0.83290193939598234 0.68709957188518167 0.62533800398021244 1.0000000180025095e-35 0.10778204743281644 0.64583333333333337 0.75000000000000011 0.097586364915460119 0.011488194941907852 0.75000000000000011 0.98529411764705899 0.72222222222221444 0.022003771856314035 0.081951111042188898 0.034722222222222231 0.007445067845533785 0.035204119933387373 0.082817529091359268 0.020146186242682652 0.39152102174102893 0.39040365575019043 0.19596371377389629 0.31250000000000006 0.50000000000000011 0.2447492243584598 0.51942660269610452 0.75000000000000011 0.72368421052631593 0.48577718557459565 0.080972727887532223 0.36494181728150538 0.51315789473684226 0.81637471439451648 0.11278532545409641 0.12441198316414954 0.14364000986626921 0.16823471156226791 0.037822932641264607 0.22883681655055949 0.16666666666667143 0.026831929745449182 0.0840229360829743 0.35625000000000012 0.77631578947368429 0.59679121807050894 0.044354838709677429 0.98849242817756833 0.90807575360480686 0.83333333333333348 0.36956521739130438 0.0063291646613643287 0.21490394764618961 0.020146186242682652 1.0000000180025095e-35 1.0000000180025095e-35 0.11714970376524049 0.86363636363636376 0.34375000000000006 0.18086159940579355 0.30625000000000008 0.71370967741935498 0.70649698325808141 0.77150677268549983 0.012940679755119278 0.010708096063382027 0.26285326759514144 0.28439496473584958 0.0038662961190220409 0.71370967741935498 0.021594073533413579 0.73924023778604497 0.12193612280267395 0.13322686459124175 0.25199371548553651 0.084723905326712937 0.091636996364494308 0.010657972481366766 0.22780715112424249 0.27083333333333337 0.30201407899882682 0.282608695652174 0.30241935483870974 0.61111111111110017 0.63043478260869579 0.20561685401245547
decision_type=2 2 2 2 2 2 2 2 2 2 2 2 2 2 2 2 2 2 2 2 2 2 2 2 2 2 2 2 2 2 2 2 2 2 2 2 2 2 2 2 2 2 2 2 2 2 2 2 2 2 2 2 2 2 2 2 2 2 2 2 2 2 2 2 2 2 2 2 2 2 2 2 2 2 2 2 2 2 2 2 2 2 2 2 2 2 2 2 2 2 2 2 2 2
left_child=-1 4 -3 18 7 14 78 8 19 10 32 28 13 57 21 16 -16 36 58 44 31 27 35 87 60 33 -14 -6 -12 30 -30 -10 34 -26 -9 -23 -17 38 -28 40 54 42 -41 -33 45 48 47 -47 49 -2 -50 52 92 -18 -40 56 -56 -11 59 -4 -7 -49 -63 64 -64 77 -46 -42 69 90 -71 -72 -68 76 -75 -76 -74 -15 -5 -25 -81 -44 -83 -51 -85 86 -55 -24 -89 -27 -69 -54 -19 -82
right_child=1 2 3 6 5 24 -8 9 20 12 11 -13 26 65 15 17 53 51 -20 -21 -22 22 23 79 25 89 37 -29 29 -31 -32 43 -34 -35 -36 -37 -38 -39 39 41 67 -43 81 -45 66 46 -48 61 50 83 -52 -53 91 85 55 -57 -58 -59 -60 -61 -62 62 63 -65 -66 -67 72 68 -70 70 71 -73 73 74 75 -77 -78 -79 -80 80 93 82 -84 84 -86 -87 -88 88 -90 -91 -92 -93 -94 -95
leaf_value=-0.029690310065683973 1.213376283645597 -0.0017831908965936943 0.73629672527313239 0.57419736412908307 0.047058675336749435 0.083868766380292004 0.022343376364026751 0.0012005536067897983 0.38636674358366202 0.38718751321235684 0.10147025118401785 0.030766015582553888 0.010538144485987761 0.53051395583333394 0.024176715356565241 0.22457167339211301 0.095746937343366867 0.1030917441980288 0.74668743243584279 -0.026220870234550678 0.078177073732882463 -0.0093477958096885149 0.045394704841398043 0.036487941946050609 0.038238125834452713 0.026833753906245122 0.025256901936438328 0.11216848958087725 1.04435829107578 0.14093870664170635 0.38613818955740764 0.19758644525040203 -0.014394654188898619 0.18886836268939078 0.088541194123921918 0.038733105657696387 0.63925487354259802 -0.074977551857667343 0.72999425692991782 0.0069250017404556274 0.022247610814641217 -0.24001338848700893 0.70445722655246135 -0.012335790987254694 0.032891410927217944 0.066418560994279216 0.017586121596686835 0.012599603387938103 -0.0028556814105556213 0.033367063125340844 0.024319195824359888 0.20740530814926217 0.49986851440790381 0.19211589415868119 0.12456971938654147 0.64601112763086954 0.65134294033050544 1.1279704491297402 -0.06379412939382155 0.095419117346615859 0.32739763001052591 0.11832756039820791 0.01944984415812152 0.026375488095465662 0.52065702119181234 -0.053142916768168416 0.068276931653268619 0.218412510563194 0.87003403385480249 0.10695469532249094 0.79359093747640919 0.23817391816596942 1.1000241409648546 0.051486938859505407 0.6424250663622566 0.20419750158221295 0.3565967789718083 0.081924528553260156 0.80936626627090136 0.058677149579312853 -0.086441840444292345 0.58211049288511274 0.013176869818319878 0.38700623494358016 0.090263528694094236 -0.051230754635550761 0.99188514351844792 0.56501845154801711 0.1281979898410954 0.001758536571850216 0.0096927307724215834 0.15352290768878185 0.042120530285567968 0.41177282427656065
leaf_weight=141611 10.999999999999998 542 13.999999999999998 173 3567 282 35 26418 104 15 420 982 10598 33 4503 177 1777 2051 12.999999999999998 2636 1141 4765 616 16270 4813 6608 4633 1723 12.999999999999998 204 119 439 32433 196 562 2797 27 269 10.999999999999998 28 1755 12.999999999999998 38 109 1060 5009 13384 5437 16071 1411 9036 274 39 15.000000000000002 613 14.999999999999998 13.999999999999998 12 129 71 77 749 28 1965 31 48 377 81 14.999999999999998 171 19 53 11.000000000000002 121 23 78 13.999999999999998 34 94 262 13.999999999999998 28 24 52 130 10.999999999999998 13.999999999999998 17 921 17226 455 69 1318 81
leaf_count=141611 11 542 14 173 3567 282 35 26418 104 15 420 982 10598 33 4503 177 1777 2051 13 2636 1141 4765 616 16270 4813 6608 4633 1723 13 204 119 439 32433 196 562 2797 27 269 11 28 1755 13 38 109 1060 5009 13384 5437 16071 1411 9036 274 39 15 613 15 14 12 129 71 77 749 28 1965 31 48 377 81 15 171 19 53 11 121 23 78 14 34 94 262 14 28 24 52 130 11 14 17 921 17226 455 69 1318 81
internal_value=0 0.0199138 0.180945 0.368164 0.0190928 0.0341137 0.583439 0.0115033 0.0222145 0.00355919 -0.0036676 0.0926975 0.026849 0.261162 0.0466697 0.0687199 0.0467112 0.103889 0.0817639 0.019179 0.119787 0.0393688 0.0334308 0.0438268 0.0163526 0.0148621 0.0250823 0.0682655 0.173143 0.262734 0.450963 0.192604 -0.00648655 0.0441322 0.00301988 0.00843616 0.279456 0.0437999 0.0478108 0.0791617 0.069765 0.308843 0.36931 0.155832 0.021355 0.0198794 0.0298353 0.0422373 0.00996373 0.0575353 0.00692455 0.094341 0.0854311 0.102557 0.15804 0.14824 0.136332 0.716424 0.0413713 0.200975 0.136102 0.0274841 0.0566679 0.0338502 0.282796 0.154274 0.0680707 0.0471508 0.102195 0.0874099 0.189262 0.384742 0.12783 0.218728 0.166365 0.303992 0.683705 0.302872 0.656991 0.0385623 0.1331 0.482052 0.319526 0.049554 0.175047 0.405115 0.578211 0.100154 0.136115 0.00871067 0.0412343 0.278592 0.079239 0.338352
internal_weight=0 211134 1071 529 210063 70510 302 139553 59427 80126 61151 1738 18975 142 41308 10275 6320 3955 227 57634 1793 31033 25743 18181 29202 28843 18833 5290 756 336 132 652 59413 5009 26980 7562 204 8235 7966 3333 3202 131 118 548 54998 53314 26603 13219 26711 1604 25107 3751 3477 1817 653 642 627 27 214 85 359 8210 2773 2024 59 115 1684 2549 794 779 243 72 624 247 222 101 25 67 267 16627 357 90 52 1593 182 40 29 1554 938 23834 536 108 3369 95
internal_count=352745 211134 1071 529 210063 70510 302 139553 59427 80126 61151 1738 18975 142 41308 10275 6320 3955 227 57634 1793 31033 25743 18181 29202 28843 18833 5290 756 336 132 652 59413 5009 26980 7562 204 8235 7966 3333 3202 131 118 548 54998 53314 26603 13219 26711 1604 25107 3751 3477 1817 653 642 627 27 214 85 359 8210 2773 2024 59 115 1684 2549 794 779 243 72 624 247 222 101 25 67 267 16627 357 90 52 1593 182 40 29 1554 938 23834 536 108 3369 95
is_linear=0
shrinkage=0.2


Tree=5
num_leaves=95
num_cat=0
split_feature=3 11 20 3 26 20 20 7 3 3 21 3 3 7 3 3 3 6 10 0 21 19 3 0 20 2 0 6 0 1 11 3 3 4 19 20 3 2 21 3 7 3 26 21 6 20 3 12 1 20 6 7 5 32 13 7 1 3 21 12 3 1 16 10 30 16 33 33 14 14 21 11 20 7 7 11 25 6 3 21 3 3 12 11 3 25 13 20 1 27 10 22 17 13
split_gain=3336.95 446.622 586.227 521.846 386.62 207.063 400.389 289.478 258.492 221.435 214.397 203.975 193.234 166.668 142.843 135.588 134.853 134.835 131.551 128.546 200.558 320.228 130.068 168.681 127.388 114.653 111.105 167.051 166.262 139.107 111.057 106.527 120.428 151.29 126.942 105.941 105.74 137.973 103.284 100.381 157.742 99.9472 97.5481 94.8418 157.793 92.7836 92.1267 97.3187 84.8011 225.399 84.2915 113.727 83.1378 92.2212 83.0462 93.4175 82.3917 198.28 172.811 81.3071 81.045 105.408 79.1979 102.176 85.4689 194.313 115.414 83.0599 78.6762 78.5758 126.16 77.7344 77.0241 76.3584 75.3102 74.6086 78.5152 74.0873 73.883 71.2766 100.896 70.5372 69.9769 69.8075 91.4452 69.495 90.6559 68.639 68.4326 86.1633 67.3083 66.6827 66.5914 65.4103
threshold=1.0000000180025095e-35 0.96052631578947378 0.64998261146662717 0.11050891069507411 0.41666666666666669 0.15641081520814923 0.83290193939598234 0.12688784352562518 0.35936039248053098 0.73924023778604497 0.27777777777777152 0.14367591499507212 0.11498966486511705 0.37732111908888344 0.097586364915460119 0.14250215591357604 0.13433003461852924 0.18125000000000005 0.086552670466540027 0.14583333333333334 1.0000000180025095e-35 0.10025745989570872 0.11050891069507411 0.31250000000000006 0.0081389060391065821 0.50000000000000011 0.64583333333333337 0.3312500000000001 0.14583333333333334 0.88725490196078438 0.61842105263157898 0.11278532545409641 0.035991395806078665 0.9427218603907781 0.33597540753874316 0.038530921714831128 0.68709957188518167 1.0000000180025095e-35 0.38888888888887158 0.2074518703136454 0.20339192869522163 0.099025239520822692 0.75000000000000011 1.0000000180025095e-35 0.34375000000000006 0.010302897527151392 0.12135949912110199 0.22536176694592538 0.82843137254901966 0.50422820956323389 0.30625000000000008 0.16823471156226791 1.0000000180025095e-35 0.013194444444444448 0.90725806451612911 0.026863084922010404 0.13235294117647062 0.26190770084742621 0.27777777777777152 0.15392231530845393 0.12135949912110199 0.5931372549019609 0.505639097744361 0.0093096896770107681 0.50000000000000011 0.3728070175438597 0.79541045181668835 0.14778549120786386 0.57874653098982443 0.5766651248843665 0.72222222222221444 0.17105263157894737 0.020146186242682652 0.26590740282248088 0.23062639267145338 0.40789473684210531 0.36440677966101703 0.3312500000000001 0.14485630379296677 0.38888888888887158 0.018306624235168257 0.65664952046450697 0.8922315308453922 0.40789473684210531 0.35124399800183076 0.72033898305084754 0.39919354838709681 0.0080623045705032273 0.54411764705882371 0.043804452513024776 0.31750052776018584 0.86363636363636376 0.17995216090526253 0.47177419354838712
decision_type=2 2 2 2 2 2 2 2 2 2 2 2 2 2 2 2 2 2 2 2 2 2 2 2 2 2 2 2 2 2 2 2 2 2 2 2 2 2 2 2 2 2 2 2 2 2 2 2 2 2 2 2 2 2 2 2 2 2 2 2 2 2 2 2 2 2 2 2 2 2 2 2 2 2 2 2 2 2 2 2 2 2 2 2 2 2 2 2 2 2 2 2 2 2
left_child=-1 4 -3 42 19 8 9 54 26 25 12 -5 17 30 69 16 90 -9 -11 68 21 -21 -22 24 -24 39 28 87 29 35 31 32 33 34 -12 72 77 59 75 -7 48 43 -4 44 -30 -45 -33 -48 49 92 -32 -52 53 -25 55 -8 57 -51 85 -38 62 88 63 -29 67 66 -66 -65 -2 70 -15 -40 -6 -39 -73 76 -10 -26 -16 80 82 -58 -47 84 -43 86 -59 -28 89 -62 -14 -67 -41 -13
right_child=1 2 3 11 5 6 7 10 38 18 13 93 15 14 78 -17 -18 -19 -20 20 22 -23 23 52 36 -27 27 60 41 -31 50 46 -34 -35 -36 -37 37 73 71 40 -42 83 -44 45 -46 79 47 -49 -50 56 51 -53 -54 -55 -56 -57 81 58 -60 -61 61 -63 -64 64 65 91 -68 -69 -70 -71 -72 74 -74 -75 -76 -77 -78 -79 -80 -81 -82 -83 -84 -85 -86 -87 -88 -89 -90 -91 -92 -93 -94 -95
leaf_value=-0.023752246503494362 0.045718466692216284 -0.00142655237236342 0.033097077223742125 0.53097480153309484 0.038208303589350651 0.0080662733562892781 -0.0015982472854475533 0.020036888331338598 0.54642620457638491 0.044606294347256138 0.057745900065923228 0.37626448710759486 0.20120394250442244 0.67412709338324417 0.60367212272157866 0.17734144470887259 1.0643591866773718 0.28496293018859137 0.18785804181968285 0.99066738451228431 -0.0037539776090085119 0.10503576605143138 0.58662140471239888 0.066269523254956678 -0.0012345651941962727 -0.0060382444362343732 0.1284332914903345 0.04971260235955318 0.10753010904756927 0.018516246245734811 0.043105540159227795 0.82227514726775031 -0.010258080329455382 1.0315413409471512 0.83966152727603915 0.028995311019724357 0.59328263259452318 0.026478312060887833 0.049770528499761393 0.040067143259673484 0.0010355358470211943 0.064347155096378686 0.59734995181743922 0.063883175571489731 0.90856748142025701 0.13012732476708205 0.65552831009030355 0.1519228070748575 -0.017177160350012502 0.00015041919639416501 0.15230376223723097 0.86527240818197082 0.025918071827817864 0.31170349093154076 0.12184081012811009 0.041234776550767877 0.024237414978554216 0.83341635540127745 0.15360828316865527 0.18194213312947088 0.56589411000410716 0.056974476700027789 0.061875507979826307 0.66049389707354411 1.4098845481872555 0.4642720637843013 0.47108449436724187 0.12783555184072673 0.014824958773478607 -0.027745810715372073 0.020516246902170007 0.1704731960423429 0.082318717567790953 0.31931144415929513 -0.012163407766373358 0.094271074789517295 0.21673514208197597 0.039580231559957615 0.21598504204303026 -0.012510596324225916 0.014833519280499353 0.22970915396868344 0.55570529068217567 0.021029106055472025 0.57770025699532457 1.1200358649094901 0.065781271159648894 0.036080352124060126 0.7189600623466752 0.077194146319262455 0.58563163237912319 -0.012286049030397249 0.24936983205543004 -0.15201960802078249
leaf_weight=141611 4437 542 214 262 2328 16949 3269 182 47 745 49 14.999999999999998 29 21 51 64 17 133 391 17 48562 415 14.999999999999998 1419 27927 20976 341 135 93 7525 2282 13.999999999999998 141 9.9999999999999982 9.9999999999999982 4434 23 954 783 72 1913 1619 12.999999999999998 854 10.999999999999998 170 20 66 310 113 48 10.999999999999998 9426 64 370 5403 1138 16.000000000000004 49 117 27 54 583 12.999999999999998 11.000000000000002 24 9.9999999999999982 118 12838 68 27 579 4951 37 107 79 75 1900 32 8744 1896 71 17 4923 13.999999999999998 11.999999999999998 9.9999999999999982 5749 22 31 49 23 391 25
leaf_count=141611 4437 542 214 262 2328 16949 3269 182 47 745 49 15 29 21 51 64 17 133 391 17 48562 415 15 1419 27927 20976 341 135 93 7525 2282 14 141 10 10 4434 23 954 783 72 1913 1619 13 854 11 170 20 66 310 113 48 11 9426 64 370 5403 1138 16 49 117 27 54 583 13 11 24 10 118 12838 68 27 579 4951 37 107 79 75 1900 32 8744 1896 71 17 4923 14 12 10 5749 22 31 49 23 391 25
internal_value=0 0.015931 0.144756 0.294532 0.0152742 0.0241131 0.0158727 0.0476009 0.0339757 0.0067813 0.0980699 0.466751 0.222619 0.0773553 0.253883 0.402357 0.553947 0.131895 0.0939121 0.00694517 0.0039389 0.139887 0.00328955 0.0114565 0.00392379 0.00442574 0.0310907 0.0539592 0.026745 0.0397343 0.0641041 0.176595 0.0956914 0.312197 0.190274 0.0533658 0.00364146 0.0636672 0.111232 0.0148559 0.0429579 0.0131205 0.0654111 0.00210871 0.192255 0.000415766 0.346493 0.26904 0.0797121 0.0957568 0.0492078 0.28523 0.0328435 0.0768614 0.0290475 0.0250884 0.0559746 0.174884 0.401836 0.24952 0.127594 0.27288 0.106363 0.184017 0.275128 0.457052 0.962837 0.180695 0.0227598 0.110551 0.306471 0.0928338 0.0682111 0.0374115 0.141986 0.245694 0.343747 0.00136536 0.454202 -0.00459035 0.0286572 0.036304 0.168816 0.0329152 0.0687482 0.721919 0.538172 0.0412515 0.418616 0.304692 0.442703 0.231063 0.216822 0.0460869
internal_weight=0 211134 1071 529 210063 101912 55522 12366 46390 43156 3324 302 474 2850 199 159 95 315 1136 108151 90876 432 90444 41882 30973 42020 44720 7141 37579 19238 2651 310 210 69 59 11713 30958 1131 1670 21044 4095 18341 227 11785 104 11681 100 86 2182 1872 2341 59 10909 1483 9042 8672 1409 200 87 140 1051 134 917 334 199 68 21 131 17275 116 48 1469 7279 991 686 201 122 29827 83 10827 2083 1209 187 6556 1633 38 26 6090 80 58 78 47 463 40
internal_count=352745 211134 1071 529 210063 101912 55522 12366 46390 43156 3324 302 474 2850 199 159 95 315 1136 108151 90876 432 90444 41882 30973 42020 44720 7141 37579 19238 2651 310 210 69 59 11713 30958 1131 1670 21044 4095 18341 227 11785 104 11681 100 86 2182 1872 2341 59 10909 1483 9042 8672 1409 200 87 140 1051 134 917 334 199 68 21 131 17275 116 48 1469 7279 991 686 201 122 29827 83 10827 2083 1209 187 6556 1633 38 26 6090 80 58 78 47 463 40
is_linear=0
shrinkage=0.2


Tree=6
num_leaves=95
num_cat=0
split_feature=3 11 20 3 2 3 20 10 20 20 7 6 3 7 20 0 3 0 20 1 0 10 25 12 26 27 13 0 26 32 3 21 19 21 20 24 34 20 13 3 1 13 21 21 19 10 13 3 21 34 12 21 0 21 19 22 33 13 0 3 6 3 10 21 13 3 3 3 1 19 3 21 3 7 12 12 21 10 3 10 12 0 7 24 10 16 16 21 21 14 2 17 25 19
split_gain=2140 284.251 376.238 338.754 289.424 486.049 403.553 220.879 174.713 263.076 192.164 162.705 161.727 155.409 153.467 135.932 128.163 124.98 195.219 221.979 170.186 151.486 145.298 124.891 123.7 122.309 117.367 149.103 117.258 159.99 111.504 116.341 151.196 108.629 132.343 107.544 103.752 101.097 99.3611 98.8863 101.027 98.3707 94.8281 94.6347 93.6496 92.6649 97.0949 95.0364 92.6034 90.6388 87.1324 86.8275 93.7281 86.7522 108.616 653.361 86.1934 85.4134 84.2542 124.019 89.7098 88.6137 83.7066 82.2012 91.5265 81.0092 134.166 106.53 79.9269 79.4557 109.551 77.6786 103.316 79.1535 77.6672 77.2334 77.1676 76.9887 162.134 76.7494 137.122 75.7738 151.629 135.655 75.0324 125.429 100.803 74.9814 74.5438 71.9261 70.7657 70.5181 74.7764 70.0907
threshold=0.0011978950765570769 0.96052631578947378 0.64998261146662717 0.07311253379519457 0.50000000000000011 0.43673854715748334 0.83290193939598234 0.10132995566814443 0.022003771856314035 0.020146186242682652 0.0025129982668977472 0.4562500000000001 0.10935922799287141 0.40950730378806643 0.037822932641264607 0.64583333333333337 0.17552068657434336 0.31250000000000006 0.044381358879412448 0.85784313725490213 0.81250000000000011 0.10850749419463798 0.75423728813559332 0.88065498857578073 0.75000000000000011 0.053796285689778976 0.97983870967741948 0.31250000000000006 0.91666666666666674 0.37638888888888894 0.16949209360708814 0.16666666666667143 0.040139413118541703 0.38888888888887158 0.64998261146662717 0.41304347826086957 0.011839876714890016 0.14364000986626921 0.85887096774193561 0.26741211257724345 0.05392156862745099 0.21370967741935484 0.16666666666667143 0.16666666666667143 0.14984088560741154 0.019907114207304205 0.39919354838709681 0.55497600820889026 0.27777777777777152 0.058650079390078221 0.55932977913175941 0.61111111111110017 1.0000000180025095e-35 0.94444444444444298 0.12216202060381104 0.77272727272727282 0.80685193054899107 0.81854838709677424 0.64583333333333337 0.017288302669130031 0.38125000000000003 0.082978546992507354 0.37027654633734441 0.61111111111110017 0.17338709677419359 0.025815011676619669 0.0085538807137435346 0.15134346197457221 0.33823529411764713 0.30991610189703706 0.1116748630463003 0.72222222222221444 0.10935922799287141 0.15164644714038131 0.57798933739527802 0.90548362528560544 0.72222222222221444 0.17563858982478367 0.83248862794479916 0.22757019210470766 0.5822543792840823 0.39583333333333337 0.14000990344144595 0.41304347826086957 0.10977411864048979 0.51817042606516295 0.42418546365914789 0.27777777777777152 1.0000000180025095e-35 0.61713691026827033 0.83333333333333337 0.16211481234789751 0.56779661016949168 0.09274941917660745
decision_type=2 2 2 2 2 2 2 2 2 2 2 2 2 2 2 2 2 2 2 2 2 2 2 2 2 2 2 2 2 2 2 2 2 2 2 2 2 2 2 2 2 2 2 2 2 2 2 2 2 2 2 2 2 2 2 2 2 2 2 2 2 2 2 2 2 2 2 2 2 2 2 2 2 2 2 2 2 2 2 2 2 2 2 2 2 2 2 2 2 2 2 2 2 2
left_child=-1 4 -3 -4 5 8 30 -8 9 39 23 12 58 24 36 -13 69 63 20 37 -19 22 -22 -11 65 -15 27 48 29 71 31 32 74 34 41 49 93 -20 50 40 -2 -7 -39 -21 -24 46 47 -32 -12 -31 56 52 62 54 55 -35 -17 -44 -10 60 68 -61 -50 64 87 66 75 -67 -60 70 -5 72 -26 -74 -6 -9 -70 -47 -79 80 -80 -38 83 -83 85 86 -63 -16 -68 -85 -69 92 -28 -14
right_child=1 2 3 16 6 33 7 13 11 10 26 15 14 25 17 38 -18 18 19 43 21 -23 44 -25 28 -27 91 -29 -30 35 45 -33 -34 53 -36 -37 81 42 -40 -41 -42 -43 57 -45 -46 77 -48 -49 51 -51 -52 -53 -54 -55 -56 -57 -58 -59 59 61 -62 84 -64 -65 -66 67 88 90 76 -71 -72 -73 73 -75 -76 -77 -78 78 79 -81 -82 82 -84 89 -86 -87 -88 -89 -90 -91 -92 -93 -94 -95
leaf_value=-0.018932464698334723 0.096207579171362356 -0.0012251676756487642 0.021681610605818163 -0.16247921550975128 0.23008004983558369 0.3408195159869159 0.006440848660776835 0.040113858597033571 -0.00085246938724755988 0.23203982206124094 0.0271979843174622 0.021379375338500962 0.0057768384782740708 0.020191163870326261 0.06837386592106269 0.33675885936646754 -0.16223288542694517 0.058856830244752557 0.0088164498684537747 0.52349574534643084 0.35248762031218839 0.12108988954884109 0.50088027889529851 0.84443126936753599 0.30418964793023312 0.39542560644625696 0.93060504216700757 0.00064933658778638199 0.051181517339576266 0.44633267900866014 0.070030194404332544 -0.016937570160173464 0.02935566139439813 0.076932751801682686 0.033497082217384067 0.21780162862269209 0.052617564254148264 0.33868160923184071 -0.071905630948708679 0.13952450180490225 0.012582274702573493 0.15150753323199048 0.10443185312006552 0.15766965039052797 1.2504784997304281 -0.0059924011833616241 0.032548699216241955 0.35494388554103767 0.11534591735438689 1.1243903795878092 0.09325394958156992 0.0559179433766731 0.069851231282170786 -0.065810749270455091 0.069084563440541272 1.0358059447823149 -0.021293150176925044 -0.027545007524768947 0.035916939149139807 0.0076502422691521136 0.29166144934984356 0.17468939423561092 0.23051299076064158 0.023568829942483861 -0.002955221184261554 0.05794097466936924 0.51139048099517825 -0.0077220764111828157 0.32033559039406395 0.55319334907191142 0.36473967378040612 0.039619391260528616 0.033105300292372707 0.39059878176656265 0.91211578900163826 0.23962863561618761 0.077349951026875904 0.013649309480872625 1.0534120380878449 0.13208518301854369 0.23608021690295292 0.93970399016843131 0.051366606740967227 0.069736115694046016 -0.0088500253221379267 0.11025039938624484 1.0726983690261842 0.013523492936128124 -0.036305978038118233 0.7043906807899476 0.17053673161946714 0.17616764228000786 0.23826421178304236 0.39518476401863156
leaf_weight=142404 600 540 188 17 17.000000000000004 170 13033 1195 37882 119 1417 462 26 57 1354 203 18 156 3438 31 56 61 12.000000000000002 14.999999999999998 152 89 12.000000000000002 1528 1358 23 115 28962 1655 205 228 48 1905 54 56 262 15660 310 678 323 14.999999999999998 19968 1096 79 760 11.999999999999998 148 1945 1008 172 2767 33 31 276 712 10022 78 10.000000000000002 378 17933 14976 5321 9.9999999999999982 1702 87 84 217 286 170 29 10.999999999999998 83 131 8552 11.999999999999998 61 26 17 95 25 223 393 9.9999999999999982 3780 1660 9.9999999999999982 94 66 12.999999999999998 64
leaf_count=142404 600 540 188 17 17 170 13033 1195 37882 119 1417 462 26 57 1354 203 18 156 3438 31 56 61 12 15 152 89 12 1528 1358 23 115 28962 1655 205 228 48 1905 54 56 262 15660 310 678 323 15 19968 1096 79 760 12 148 1945 1008 172 2767 33 31 276 712 10022 78 10 378 17933 14976 5321 10 1702 87 84 217 286 170 29 11 83 131 8552 12 61 26 17 95 25 223 393 10 3780 1660 10 94 66 13 64
internal_value=0 0.0128176 0.115929 0.236661 0.0122933 0.0184979 0.00337753 0.024579 0.0162349 0.0315767 0.0633067 0.0124235 0.0116203 0.0438154 0.0202595 0.0970601 0.356948 0.0176653 0.0470653 0.0372829 0.203584 0.360372 0.536229 0.300591 0.0413492 0.24893 0.0588453 0.0559265 0.085775 0.151022 -0.00548835 -0.013967 0.0371529 0.0881169 0.15896 0.412203 0.0725119 0.0251467 0.176888 0.0176322 0.0156681 0.218556 0.0808444 0.189705 0.917324 0.00319891 0.0556337 0.186052 0.0712612 0.67881 0.21336 0.0865234 0.114262 0.0723294 0.0802362 0.209886 0.289325 0.0662499 0.00372428 0.018586 0.0856394 0.0122443 0.1536 0.0137239 0.00494478 0.0321771 0.00429824 0.0437251 0.0683601 0.386335 0.326437 0.116991 0.180034 0.0852023 0.498023 0.0530714 0.174321 0.000835419 0.0165952 0.271073 0.494185 0.0632936 0.201647 0.476198 0.0846364 0.135114 0.623694 0.0279893 -0.0330264 0.251066 0.00160773 0.284525 0.570588 0.282689
internal_weight=0 210341 1064 524 209277 123401 85876 25322 119516 23783 7261 95733 94833 12289 45285 900 336 43143 5100 4800 300 144 83 134 12143 146 7127 7036 2078 720 60554 30645 1683 3885 708 83 2142 4446 438 16522 16260 480 1008 354 27 29909 1290 194 5508 35 382 4091 2146 3177 3005 238 234 954 49548 11666 1008 10658 1138 38043 20110 10065 2948 7117 930 318 234 637 351 199 28 1278 218 28619 8651 99 38 2052 147 52 636 413 20 5134 1670 35 1796 91 25 90
internal_count=352745 210341 1064 524 209277 123401 85876 25322 119516 23783 7261 95733 94833 12289 45285 900 336 43143 5100 4800 300 144 83 134 12143 146 7127 7036 2078 720 60554 30645 1683 3885 708 83 2142 4446 438 16522 16260 480 1008 354 27 29909 1290 194 5508 35 382 4091 2146 3177 3005 238 234 954 49548 11666 1008 10658 1138 38043 20110 10065 2948 7117 930 318 234 637 351 199 28 1278 218 28619 8651 99 38 2052 147 52 636 413 20 5134 1670 35 1796 91 25 90
is_linear=0
shrinkage=0.2


Tree=7
num_leaves=95
num_cat=0
split_feature=3 26 26 7 21 19 23 20 6 7 3 3 0 32 12 26 3 3 24 23 25 13 6 19 22 15 32 3 20 19 5 2 24 7 3 32 10 25 22 15 22 17 22 10 19 17 6 3 7 12 32 21 20 30 21 11 3 19 1 16 17 22 20 7 18 3 3 10 6 25 22 3 6 0 24 2 3 1 11 32 24 13 2 11 11 19 3 2 20 17 20 21 19 18
split_gain=1369.6 243.478 228.765 127.382 139.36 256.882 226.757 111.019 175.733 162.612 182.785 101.059 125.302 91.6831 89.7717 85.214 134.564 121.649 105.972 90.1603 87.174 84.7372 84.2572 83.1692 287.331 209.537 82.2991 149.893 96.68 81.9316 81.0437 79.254 80.9483 95.6093 76.9603 97.9217 73.0691 72.941 125.597 352.944 109.514 76.1236 69.2574 89.6247 67.7186 73.8 64.3155 64.2801 78.741 87.6686 93.0367 64.1121 62.4698 59.3419 59.1487 58.8555 58.5066 77.9488 57.3858 54.19 81.2276 81.9429 52.579 97.5881 95.5861 52.4964 109.92 84.9224 53.8015 59.0983 58.215 58.9249 60.9456 51.2208 51.0106 50.9962 53.1055 50.1628 50.0399 452.427 189.254 76.9046 86.6557 64.9831 49.7348 108.654 49.4755 68.9341 62.066 49.3232 48.8614 48.7616 92.5727 64.6675
threshold=0.0011978950765570769 0.58333333333333337 0.91666666666666674 0.17739539489972769 1.0000000180025095e-35 0.10778204743281644 0.91666666666666685 0.83290193939598234 0.29375000000000012 0.45654865065610306 0.060793020281540162 0.086388079351124927 0.31250000000000006 0.95000000000000007 0.6911652703731912 0.75000000000000011 0.11050891069507411 0.013385117346562812 0.41304347826086957 0.05000000000000001 0.75423728813559332 0.51209677419354849 0.3312500000000001 0.15674872347663985 0.77272727272727282 0.35363707469691047 0.30555555555555564 0.58827850984271335 0.022003771856314035 0.091632462859578184 1.0000000180025095e-35 1.0000000180025095e-35 0.67391304347826098 0.27333498390690775 0.007445067845533785 0.4694444444444445 0.0023432552248258396 0.82203389830508489 0.40909090909090912 0.44984356667970282 0.31818181818181823 0.082938836471973462 0.86363636363636376 0.21321511505172056 0.047050409005082103 0.2077103261401505 0.38125000000000003 0.68709957188518167 0.12688784352562518 0.18987052551408989 0.23750000000000002 0.72222222222221444 0.0014171271691620873 0.83333333333333348 0.61111111111110017 0.72368421052631593 0.3899771035248577 0.16548737702290608 0.13235294117647062 0.69110275689223066 0.13200090989173771 0.5 0.83290193939598234 0.30304530824461506 0.76086956521739135 0.11604992489103351 0.14367591499507212 0.41629723453662665 0.081250000000000031 0.12711864406779663 0.31818181818181823 0.035391428631654405 0.18125000000000005 0.10416666666666667 1.0000000180025095e-35 0.50000000000000011 0.35124399800183076 0.27941176470588241 0.61842105263157898 0.27222222222222231 0.45652173913043487 0.81854838709677424 0.83333333333333337 0.43421052631578955 0.85526315789473695 0.42265561581552064 0.14862326783166965 0.83333333333333337 0.021448411208939703 0.20033591644087712 0.021448411208939703 0.83333333333332871 0.19881392482425245 0.32608695652173919
decision_type=2 2 2 2 2 2 2 2 2 2 2 2 2 2 2 2 2 2 2 2 2 2 2 2 2 2 2 2 2 2 2 2 2 2 2 2 2 2 2 2 2 2 2 2 2 2 2 2 2 2 2 2 2 2 2 2 2 2 2 2 2 2 2 2 2 2 2 2 2 2 2 2 2 2 2 2 2 2 2 2 2 2 2 2 2 2 2 2 2 2 2 2 2 2
left_child=-1 3 13 4 5 6 53 26 9 23 -11 21 46 15 -12 16 -3 19 75 20 -17 -6 73 24 65 29 27 28 56 -26 36 -19 33 86 35 -4 -14 -25 39 41 -41 -39 43 -7 -27 -46 47 52 77 50 -50 59 -13 -2 -28 74 90 -58 -29 -38 -61 -62 -35 64 -64 68 67 -67 -9 70 71 72 -70 -23 -21 76 -18 -49 79 81 -81 82 -32 -84 -20 -86 87 -33 -89 -85 -5 92 93 -60
right_child=1 2 34 7 11 42 -8 8 -10 10 14 12 30 -15 -16 17 18 31 84 55 -22 22 -24 37 25 44 54 58 -30 -31 78 32 -34 62 -36 -37 51 38 -40 40 -42 -43 -44 -45 45 -47 -48 48 49 -51 -52 -53 -54 -55 -56 -57 57 -59 91 60 61 -63 63 -65 -66 66 -68 -69 69 -71 -72 -73 -74 -75 -76 -77 -78 -79 -80 80 -82 -83 83 89 85 -87 -88 88 -90 -91 -92 -93 -94 -95
leaf_value=-0.015145970868235034 0.59610481262205628 0.0068243508603957545 0.073213156361804421 0.03817111060341892 -0.014819765101137156 0.10723809072764096 -0.076947122679225044 0.37129778981208805 0.62693646975925998 -0.030416169868106337 0.31472694046124466 0.17956169773389896 0.022884062909676997 0.17554660869955649 -0.19164196888605756 0.65050576618313793 0.025574746904587654 0.026144509297607883 0.055826355213035909 0.45462983428190151 -0.0052824899554252628 0.031098795117943879 0.033567849651782306 -0.013169479270288338 1.326534474979747 0.74209461927413944 -0.0034087349229937726 0.063822774444856956 0.01273206791676957 0.53554801702499388 0.023951679511068195 0.10708028682120961 0.024453570735791273 0.14809253683585363 0.0052208388401563006 0.50172377656537881 0.14164318077576657 0.63007460236549384 -0.0099843443672293104 1.3177977194388708 0.50719053347905474 0.062717345552785062 -0.020532535862671963 0.64707449307808518 0.70071984291076661 0.12137697396213061 0.049682977239658796 0.10435317427928532 0.85090989555631347 0.10403881672748 0.13402982378999392 0.068408735084210734 -0.0031925270373291941 1.1799160162607829 0.016260299910398551 0.37004832995660381 -0.06576049417257307 0.66533859627587466 0.70037615515969021 -0.097410205006599429 1.0282347995042798 0.32705199092626575 1.1280123753981153 0.12796400735775632 0.29424292580647904 0.13241880424817404 -0.033747150998562576 0.50268882029765372 0.25056347356123077 -0.046481368491053582 -0.02577362488477658 -0.06812968904321845 0.87280434608459478 -0.0048516766807767554 0.078958042002515882 -0.0061984781741231086 0.11532025288069647 -0.0015477494730598187 -0.022276463034793664 0.3053228132426738 1.2941671470801035 -0.010666300064149904 0.10150792847240116 0.15739998713135717 0.10840988921905484 0.72025475762784485 0.041889054373583839 0.45360253693965769 0.010886155997133374 0.78556015133857737 0.10463927622072776 0.00089742481708526617 0.91819562528814602 0.10646371341903101
leaf_weight=142404 13 12616 294 3175 22175 229 13.999999999999998 14.999999999999998 21 113 211 75 1261 171 14.999999999999998 25 2725 11357 4946 14.999999999999998 11.999999999999998 1716 3000 1502 11.000000000000002 9.9999999999999982 15500 31 12588 9.9999999999999982 6805 1567 2391 99 28943 23 204 9.9999999999999982 294 12 15 175 211 12.999999999999998 9.9999999999999982 73 1037 229 14.000000000000002 171 14.999999999999998 947 30511 15 10101 33 10.000000000000002 13.999999999999998 10.999999999999998 9.9999999999999982 10.000000000000002 20 11.000000000000002 24 10.999999999999998 75 100 37 17.000000000000004 375 39 10.999999999999998 9.9999999999999982 20805 400 2123 292 818 1202 16.000000000000004 14.999999999999998 2639 376 10.000000000000002 68 13.999999999999998 1937 12.999999999999998 494 9.9999999999999982 514 9.9999999999999982 13.999999999999998 22
leaf_count=142404 13 12616 294 3175 22175 229 14 15 21 113 211 75 1261 171 15 25 2725 11357 4946 15 12 1716 3000 1502 11 10 15500 31 12588 10 6805 1567 2391 99 28943 23 204 10 294 12 15 175 211 13 10 73 1037 229 14 171 15 947 30511 15 10101 33 10 14 11 10 10 20 11 24 11 75 100 37 17 375 39 11 10 20805 400 2123 292 818 1202 16 15 2639 376 10 68 14 1937 13 494 10 514 10 14 22
internal_value=0 0.010254 0.0198268 0.00541727 0.00124522 0.107087 0.580258 0.0141572 0.0503029 0.0464464 0.177274 0.000688404 0.00733422 0.0294041 0.281118 0.0287971 0.020623 0.0389249 0.0377437 0.13776 0.437818 -0.00577613 0.00208181 0.0306126 0.0854529 0.379263 0.0114362 0.0225026 0.0210972 0.949874 0.0235375 0.0362476 0.0537733 0.0706414 0.00629429 0.104304 0.0564373 0.00895506 0.0746291 0.19197 0.86746 0.0933853 0.0632166 0.136238 0.250416 0.191177 0.000667047 -0.000929709 0.0435803 0.158569 0.48011 0.0919627 -0.00274439 0.908861 0.00435178 0.112978 0.0494573 0.360714 0.282825 0.183379 0.396232 0.56078 0.230187 0.406868 0.711128 0.0361239 0.118661 0.25474 -0.0013448 -0.0137113 0.145883 0.322058 0.481023 -0.00211241 0.0925365 0.0175497 0.0342608 0.0216149 0.0162522 0.0209439 0.783796 0.0185406 0.0292442 0.120193 0.0583875 0.212871 0.0648737 0.0863401 0.0222379 0.47148 0.0474323 0.401931 0.487257 0.304435
internal_weight=0 210341 70604 139737 94586 495 42 45151 3161 3140 339 94091 46395 41344 226 41173 22784 18389 10168 485 37 47696 25521 2801 793 114 41990 16389 16301 21 13525 17904 6547 4156 29260 317 2452 2008 506 212 27 185 453 242 93 83 32870 31833 1247 200 29 1191 30586 28 25601 448 3713 24 88 244 40 30 145 46 22 679 212 112 467 452 77 38 27 22521 415 5140 3017 1047 11073 9871 31 9840 7201 396 5028 82 4011 2074 507 20 3689 57 47 33
internal_count=352745 210341 70604 139737 94586 495 42 45151 3161 3140 339 94091 46395 41344 226 41173 22784 18389 10168 485 37 47696 25521 2801 793 114 41990 16389 16301 21 13525 17904 6547 4156 29260 317 2452 2008 506 212 27 185 453 242 93 83 32870 31833 1247 200 29 1191 30586 28 25601 448 3713 24 88 244 40 30 145 46 22 679 212 112 467 452 77 38 27 22521 415 5140 3017 1047 11073 9871 31 9840 7201 396 5028 82 4011 2074 507 20 3689 57 47 33
is_linear=0
shrinkage=0.2


Tree=8
num_leaves=95
num_cat=0
split_feature=3 21 19 22 26 11 23 2 3 20 7 21 20 13 7 20 19 12 15 6 0 13 13 0 0 16 3 0 0 10 26 14 3 33 22 3 25 20 18 23 2 10 3 32 17 14 3 6 13 4 4 23 3 12 16 30 16 22 11 21 25 24 22 1 12 22 6 13 22 2 19 22 19 7 23 10 22 15 19 22 15 29 19 28 11 24 16 19 23 3 3 23 0 11
split_gain=878.355 196.959 573.279 485.205 155.386 128.938 121.856 112.079 148.907 134.077 103.169 112.851 101.763 95.152 77.549 84.6653 77.5181 77.1295 85.5775 85.3064 75.3439 101.856 112.152 87.0848 90.2581 82.525 81.6285 119.829 188.862 210.419 86.9035 74.121 68.3264 80.9845 168.566 66.7198 66.4055 65.1252 95.564 119.629 64.0256 75.1731 63.9566 95.6883 63.8819 69.8885 60.5926 60.2971 58.8914 82.5029 66.8549 59.6117 68.4921 67.289 58.6684 73.8417 83.5711 93.6616 58.1024 152.007 95.9947 64.5281 58.0113 76.65 88.3719 56.9286 56.3511 70.8849 56.1932 141.54 83.1952 141.981 140.477 65.6277 58.5835 54.8681 53.5387 394.582 168.337 332.804 143.264 85.1087 55.4438 128.61 84.5158 98.2185 76.7174 54.5407 52.3202 52.0501 77.3337 78.2642 51.6028 51.4616
threshold=1.0000000180025095e-35 1.0000000180025095e-35 0.10778204743281644 0.95454545454545459 0.41666666666666669 0.90789473684210531 0.75000000000000011 0.50000000000000011 0.43673854715748334 0.83290193939598234 0.12688784352562518 0.27777777777777152 0.83290193939598234 0.33467741935483875 0.37732111908888344 0.83290193939598234 0.19357324458404382 0.6015993907083016 0.45434102463824799 0.093750000000000014 0.64583333333333337 0.77016129032258074 0.78629032258064524 0.14583333333333334 1.0000000180025095e-35 0.64974937343358397 0.082978546992507354 0.85416666666666674 0.81250000000000011 0.083175005277601882 0.75000000000000011 0.64442645698427403 0.023571446770689279 0.35166688243864641 0.40909090909090912 0.0020707932184607135 0.97457627118644086 0.024033710774302972 0.1521739130434783 0.58333333333333337 0.83333333333333337 0.0046231792273590897 0.15684607773063616 0.19583333333333339 0.14644965123898215 0.60811748381128605 0.0020707932184607135 0.30625000000000008 0.71370967741935498 0.86226874975026979 0.63309625604347319 0.91666666666666685 0.12241371428720242 0.70578827113480591 0.54072681704260661 1.0000000180025095e-35 0.35150375939849626 0.77272727272727282 0.61842105263157898 0.38888888888887158 0.22881355932203393 1.0000000180025095e-35 0.5 0.54411764705882371 0.30868240670220876 0.86363636363636376 0.34375000000000006 0.81048387096774199 0.86363636363636376 1.0000000180025095e-35 0.19700951159308139 0.77272727272727282 0.15298311417468888 0.084303045308244631 0.65000000000000002 0.14650622757019216 0.31818181818181823 0.46822448181462656 0.10617120275228334 0.86363636363636376 0.38414157215486905 0.0031072740991139945 0.20641584480845346 0.00013791255871814075 0.80263157894736858 0.80434782608695665 0.74122807017543868 0.1466088816983375 0.58333333333333337 0.10290080106589992 0.007445067845533785 0.68333333333333346 0.68750000000000011 0.61842105263157898
decision_type=2 2 2 2 2 2 2 2 2 2 2 2 2 2 2 2 2 2 2 2 2 2 2 2 2 2 2 2 2 2 2 2 2 2 2 2 2 2 2 2 2 2 2 2 2 2 2 2 2 2 2 2 2 2 2 2 2 2 2 2 2 2 2 2 2 2 2 2 2 2 2 2 2 2 2 2 2 2 2 2 2 2 2 2 2 2 2 2 2 2 2 2 2 2
left_child=-1 2 3 12 -3 7 -5 8 20 40 46 16 -2 92 35 36 48 18 89 -20 23 26 32 24 -6 -26 -22 28 -28 30 31 -30 33 34 -23 -15 -16 38 39 -24 -9 -42 -25 -44 45 88 75 -32 49 50 51 52 65 -54 55 -35 -57 -58 59 -13 -61 -62 -31 -64 -65 -12 -43 -68 69 -4 72 -72 73 -71 -73 -11 77 80 79 -78 -60 82 86 84 85 -84 -82 -88 -34 90 91 -17 -7 -10
right_child=1 4 68 6 5 13 -8 9 93 10 11 58 -14 14 15 17 -18 -19 19 -21 21 22 37 42 25 -27 27 -29 29 62 47 -33 44 54 -36 -37 -38 -39 -40 -41 41 66 43 -45 -46 -47 -48 -49 -50 -51 -52 -53 53 -55 -56 56 57 -59 76 60 61 -63 63 64 -66 -67 67 -69 -70 70 71 74 -74 -75 -76 -77 78 -79 -80 -81 81 -83 83 -85 -86 -87 87 -89 -90 -91 -92 -93 -94 -95
leaf_value=-0.01218611047138821 1.4311940034230652 0.0022966617855114768 0.038341568726035932 0.52648381244783338 0.013638795304778035 0.095090963474164403 0.075641832189061328 -0.0075478443781410902 0.078205280501015106 0.0859506991518251 0.048105245517401758 0.69001935256852054 0.75867603951030316 0.50809097886085508 0.0074667095639180661 0.4452519802252452 0.63651692867279053 -0.014950379470120307 0.1992721512204125 0.76933942692620416 0.0087748276887380447 1.0835234505789619 1.0703746122121807 0.00091305658002759104 0.029228999588358357 0.080590904624794277 0.058845570470893629 0.014230430570781941 0.64759569238213921 0.057847607121901949 1.260041709379716 -0.038615735769271853 0.040643560513854031 0.0077941972762346273 0.23846637565514139 -0.01318766969700598 0.4021708574559954 0.028303360452925631 0.10596743118801069 0.092093723649159076 -0.02058364402037114 0.033712196886823399 0.035714431702633428 -0.0050557703677887476 0.076388151867852624 0.80226867448538541 0.0087986740603632329 0.59783024787902839 0.039796118702118598 0.64136749245226388 -1.3180263340473176e-05 0.69310887239196095 0.61527020381047182 0.025177785618738697 -0.096159344717212353 0.95204408407211316 0.71498464779420312 -0.053359088102976487 -0.069533313322163781 0.50659266054630281 0.49960495854417486 0.022506108975887881 0.16325550058856608 0.15586304881355975 0.91338746590273723 0.4515580411123879 0.11521668561993266 0.59986606297584677 0.0053018252077351074 0.18725301933785277 0.91859203086179841 0.48618301838636402 0.012942246676877487 0.81476088364919041 0.018153837064038152 0.42362237093241317 -0.14535478669054366 1.165339019206854 -0.0033326398173731142 1.1471416584650675 0.0024900522296472144 0.58776031871636714 0.42490034563974899 0.056065743189790976 0.018502039259130305 1.1808453643321992 0.14921114161610602 0.56479788422584531 0.58514428794383999 0.26832948793780126 -0.085077645485861275 -0.1590929349263509 0.28884784770863398 -0.042560027108380673
leaf_weight=141611 18 107780 753 38 11901 108 65 23495 1976 118 79 18 18 9.9999999999999982 323 30 12.999999999999998 69 21 21 5010 13.999999999999998 10.000000000000002 23096 4592 1720 752 1278 17.000000000000004 94 11.000000000000002 9.9999999999999982 24 24 29 550 18 966 110 9.9999999999999982 1106 2050 6057 3715 253 9.9999999999999982 8182 10.999999999999998 144 15.999999999999998 64 10.999999999999998 26 10.999999999999998 23 9.9999999999999982 11.000000000000002 14.999999999999998 247 20 11.999999999999998 206 60 11.000000000000002 13.999999999999998 17 169 12.999999999999998 883 12.000000000000002 17 20 86 14.999999999999998 23 23 17 12.999999999999998 1426 14.999999999999998 240 14.999999999999998 22 69 10.999999999999998 9.9999999999999982 80 14.999999999999998 9.9999999999999982 106 57 11.999999999999998 112 152
leaf_count=141611 18 107780 753 38 11901 108 65 23495 1976 118 79 18 18 10 323 30 13 69 21 21 5010 14 10 23096 4592 1720 752 1278 17 94 11 10 24 24 29 550 18 966 110 10 1106 2050 6057 3715 253 10 8182 11 144 16 64 11 26 11 23 10 11 15 247 20 12 206 60 11 14 17 169 13 883 12 17 20 86 15 23 23 17 13 1426 15 240 15 22 69 11 10 80 15 10 106 57 12 112 152
internal_value=0 0.00817342 0.0714744 0.462883 0.00758394 0.0132036 0.241972 0.0123485 0.0175895 0.00379187 0.0222362 0.0553194 1.09494 0.0726865 0.050805 0.0974156 0.156539 0.171998 0.224222 0.484306 0.0157416 0.0328483 0.0799493 0.0127989 0.0238923 0.043225 0.0230042 0.0545761 0.10719 0.266642 0.633869 0.393443 0.167425 0.290834 0.513601 -0.00387912 0.0283015 0.0461881 0.179085 0.581234 -0.00386547 0.0220534 0.0066517 0.0202149 0.11507 0.33749 0.0110388 0.928936 0.139583 0.203732 0.170068 0.24566 0.208652 0.439837 0.175425 0.279532 0.460691 0.271709 0.0394882 0.129624 0.0872411 0.0487684 0.166117 0.28585 0.580077 0.11955 0.043181 0.149834 0.0413994 0.0758207 0.238952 0.429288 0.137889 0.535868 0.235842 0.141032 0.0289035 0.073443 0.00684756 0.460503 0.0534224 0.119158 0.103434 0.225253 0.496739 0.661133 0.0627059 0.21483 0.200791 0.170936 0.0666568 0.272582 0.193731 0.0695792
internal_weight=0 211134 1948 139 209186 101406 103 99969 61996 37973 11140 2817 36 1437 1217 657 381 316 247 42 59868 8787 1519 51081 18213 6312 7268 2258 980 228 49 27 423 126 43 560 341 1096 130 20 26833 3338 32868 9772 297 44 8323 22 368 224 208 144 133 37 83 60 36 26 2436 256 238 218 179 85 25 96 2232 182 1809 926 173 60 113 27 43 141 2180 722 1458 32 709 462 447 112 43 32 335 95 34 205 99 42 220 2128
internal_count=352745 211134 1948 139 209186 101406 103 99969 61996 37973 11140 2817 36 1437 1217 657 381 316 247 42 59868 8787 1519 51081 18213 6312 7268 2258 980 228 49 27 423 126 43 560 341 1096 130 20 26833 3338 32868 9772 297 44 8323 22 368 224 208 144 133 37 83 60 36 26 2436 256 238 218 179 85 25 96 2232 182 1809 926 173 60 113 27 43 141 2180 722 1458 32 709 462 447 112 43 32 335 95 34 205 99 42 220 2128
is_linear=0
shrinkage=0.2


Tree=9
num_leaves=95
num_cat=0
split_feature=3 21 19 22 7 20 12 12 3 32 20 3 20 19 3 0 1 16 30 22 19 16 7 2 10 7 3 15 7 3 3 3 3 3 20 3 3 21 34 20 3 20 6 26 14 16 18 7 21 0 20 4 3 21 25 12 22 16 3 12 29 18 4 20 20 3 0 12 16 3 4 11 21 21 2 21 10 2 32 6 12 12 16 7 30 19 16 19 3 22 10 2 15 6
split_gain=564.253 121.022 331.895 275.399 111.433 123.929 164.86 355.194 157.011 119.819 141.126 109.764 108.714 104.053 103.909 180.103 113.849 132.612 112.913 451.887 264.836 175.102 109.225 89.8658 126.923 89.5579 94.522 98.6874 87.1971 88.4555 89.0521 87.5264 87.124 83.2291 82.2549 211.314 96.0452 94.1392 81.9708 81.7316 81.3683 211.159 83.956 79.7541 77.1318 74.2946 74.2807 80.5923 72.3182 95.1338 87.0557 147.786 81.8184 92.9611 79.1489 78.2383 83.3042 195.655 72.2373 67.3582 90.3607 128.535 69.0231 67.2949 66.8538 166.214 116.689 164.514 63.9404 62.9426 63.3393 107.474 61.6521 61.1138 62.7914 60.1967 59.9912 155.964 145.316 104.634 116.11 100.086 133.225 91.7652 71.7202 74.2196 64.0656 70.8327 97.7111 61.7483 59.2858 59.1654 97.535 97.7184
threshold=0.0011978950765570769 1.0000000180025095e-35 0.10778204743281644 0.95454545454545459 0.17170091606833379 0.83290193939598234 0.65567402894135574 0.63990860624524004 0.019312259143823129 0.28333333333333338 0.022003771856314035 0.46587155323428925 0.021448411208939703 0.088882672960298531 0.086388079351124927 0.31250000000000006 0.21078431372549022 0.5106516290726818 0.50000000000000011 0.77272727272727282 0.21644339961826836 0.36403508771929832 0.016105471651398865 0.50000000000000011 0.097530082330589005 0.21317157712305032 0.078360918705441082 0.40447790379350806 0.37732111908888344 0.10807201035971427 0.0085538807137435346 0.13543878446064148 0.0034273954192972356 0.10033098919688085 0.0043854340775421356 0.013385117346562812 0.42571739035464728 0.27777777777777152 0.43822927842447318 0.0043854340775421356 0.60161315291609208 0.62533800398021244 0.44375000000000003 0.41666666666666669 0.54359389454209084 0.65726817042606511 0.41304347826086957 0.18903193859866307 0.72222222222221444 0.68750000000000011 0.044381358879412448 0.83587725256722756 0.18465462264612256 0.16666666666667143 0.58474576271186451 0.65628332063975636 0.5 0.70238095238095244 0.21317053762183277 0.45064737242955066 0.00038826036779969871 0.71739130434782616 0.33002357453949743 0.089865012892027182 0.13005167535071985 0.12241371428720242 0.77083333333333337 0.34874333587204881 0.73621553884711777 0.0020707932184607135 0.84894314140728033 0.51315789473684226 0.38888888888887158 0.38888888888887158 1.0000000180025095e-35 0.61111111111110017 0.07473084230525652 0.83333333333333337 0.18750000000000003 0.11875000000000001 0.24455445544554458 0.18591012947448593 0.71491228070175439 0.051869274572914098 0.50000000000000011 0.30172096380631708 0.71115288220551387 0.36377853511336006 0.12686457459013331 0.22727272727272727 0.040890859193582443 1.0000000180025095e-35 0.41171294485725468 0.31875000000000003
decision_type=2 2 2 2 2 2 2 2 2 2 2 2 2 2 2 2 2 2 2 2 2 2 2 2 2 2 2 2 2 2 2 2 2 2 2 2 2 2 2 2 2 2 2 2 2 2 2 2 2 2 2 2 2 2 2 2 2 2 2 2 2 2 2 2 2 2 2 2 2 2 2 2 2 2 2 2 2 2 2 2 2 2 2 2 2 2 2 2 2 2 2 2 2 2
left_child=-1 2 3 -2 14 9 7 28 -9 10 12 -12 34 -5 16 39 17 18 -3 20 -20 22 38 24 48 -10 27 -27 -7 30 59 -31 -8 -28 35 37 45 -6 -21 -16 75 42 -42 -29 -33 -37 -39 -48 49 52 51 -51 -17 58 -53 -55 57 73 -54 60 -30 62 -62 -18 -26 -66 67 -67 -11 70 -19 -72 -71 74 -57 -41 -25 79 84 80 81 -78 -83 -81 85 -79 -87 88 -88 -89 -22 92 -43 -94
right_child=1 4 -4 13 5 6 32 8 25 68 11 -13 -14 -15 15 23 63 69 19 21 90 -23 -24 76 64 26 33 43 29 31 -32 44 -34 -35 -36 36 -38 46 -40 40 41 91 -44 -45 -46 -47 47 -49 -50 50 -52 54 53 55 -56 56 -58 -59 -60 -61 61 -63 -64 -65 65 66 -68 -69 -70 72 71 -73 -74 -75 -76 -77 77 78 -80 83 -82 82 -84 -85 -86 86 87 89 -90 -91 -92 -93 93 -95
leaf_value=-0.0097215903327804234 0.85004469055463283 0.027571044393342098 0.033509971087046654 0.66232354007661343 -0.021694949811155148 0.017649172788991585 0.17347593719825935 -0.045574689943056843 0.0022772755473852158 0.00020229585618921484 0.011630942415559497 0.16164074561808042 0.11515358630880089 0.10737133731037891 0.16368778345208887 0.01638281471606293 0.001749076622291912 0.061206274149406971 1.4808395717825209 0.76491335684369355 0.69027736828877362 0.037089829333033973 0.13244516198241782 0.0010390066474215724 -0.010622031171861071 1.1363378357887268 -0.11569422320886091 -0.010065046223727137 -0.00046311388624475361 0.29137937065386615 -0.032876548263025877 0.55657722516493358 -0.024707747164454001 0.28498975780490693 0.027754819991817389 -0.020152487183184725 0.41218726330346639 1.0103751284735543 0.10087538212537767 -0.00842418190258022 0.12627502058812676 0.4557864464446903 -0.26955164413560523 0.70957613715103696 -0.0025448137894272804 0.13381402415668747 0.71734056454151851 -0.0064340728521347056 0.038790693245970474 0.19003488022983075 0.10694930080212756 0.40026231241576804 0.68245160930296955 0.04579873316375925 1.0558290252318749 0.07488939881324766 0.084217224730509188 1.1720132529735565 0.21174141043531047 -0.11597490999205361 0.24338064627213912 -0.011841159838217277 0.69802367056117343 -0.014687554114167299 -0.0055756289312705641 0.93992416188120842 -0.13717009695246815 0.24026082136282106 0.021974598136972501 0.023174346174877441 0.024678203132417469 0.74954355691870056 -0.0039278039862463343 0.097822325676679617 0.70648258714114931 0.0064198277549979768 0.15954505134168573 -0.049887181988314676 0.88255590972575271 0.21493901267301208 0.049159958015741974 0.99147144079208371 0.19413765527700122 0.0064887629489781985 0.0091248329818392031 0.02639443485531956 1.0221271922190984 0.45912404879927637 0.36950146424082608 0.062128909428914393 0.073805788780252138 0.0013148139402117526 -0.057639983012095879 0.46060978439119132
leaf_weight=142404 34 1967 1790 15.999999999999998 10.999999999999998 1919 95 78 48 34754 20337 197 835 87 124 803 15393 280 13.999999999999998 29 13.000000000000002 503 43 7036 2067 9.9999999999999982 22 11.000000000000002 47 151 243 10.999999999999998 1344 361 4388 277 31 13.999999999999998 9.9999999999999982 23576 833 30 22 13.999999999999998 96 229 16.000000000000004 9.9999999999999982 3366 125 367 17.000000000000004 17 555 12.999999999999998 10.000000000000002 124 9.9999999999999982 56 29 22 27 34 28248 187 20 15.999999999999998 41 6387 4241 18 14.999999999999998 16114 49 17 20369 127 34 10.999999999999998 86 580 14.999999999999998 19 4767 104 32 11.999999999999998 25 39 42 11.999999999999998 3629 76 18
leaf_count=142404 34 1967 1790 16 11 1919 95 78 48 34754 20337 197 835 87 124 803 15393 280 14 29 13 503 43 7036 2067 10 22 11 47 151 243 11 1344 361 4388 277 31 14 10 23576 833 30 22 14 96 229 16 10 3366 125 367 17 17 555 13 10 124 10 56 29 22 27 34 28248 187 20 16 41 6387 4241 18 15 16114 49 17 20369 127 34 11 86 580 15 19 4767 104 32 12 25 39 42 12 3629 76 18
internal_value=0 0.00658166 0.0564727 0.356496 0.00612037 0.0124827 0.044386 0.070194 0.217054 0.0103261 0.0208572 0.0130701 0.0483738 0.193578 0.00275888 0.00817677 -0.00286681 0.00843462 0.0510868 0.125214 0.784385 0.0812693 0.352273 0.0237597 0.0406245 0.261013 0.290724 0.605335 0.0392162 0.101924 0.0432672 0.193319 -0.011624 0.261974 0.0371678 0.107413 0.0704636 0.496465 0.594647 0.00152159 0.00110744 0.0263916 0.11609 0.392934 0.054935 0.049528 0.638959 0.438966 0.0571266 0.0856604 0.160029 0.285707 0.0620039 0.10572 0.684341 0.0851422 0.189121 0.340378 0.321359 0.159638 0.221121 0.346596 0.519414 -0.00889005 0.00148266 0.0962569 0.343564 0.469659 0.00358237 0.00308762 0.092093 0.354162 0.00171898 0.230953 0.472559 -0.00154382 0.013507 0.0283933 0.169128 0.020871 0.0908714 0.241136 0.545903 0.0101827 0.141879 0.216913 0.277388 0.345454 0.52306 0.210261 0.394371 0.00595667 0.141806 0.0415993
internal_weight=0 210341 1927 137 208414 72048 4562 3123 544 67486 26345 20534 5811 103 136366 69466 66900 23259 2591 624 39 585 82 20789 7860 466 418 35 2579 660 402 258 1439 383 4976 588 537 51 39 48677 48553 4608 855 25 107 506 40 26 5529 2163 522 155 1641 838 30 765 210 86 73 159 130 83 56 43641 2331 264 77 61 41141 20668 313 33 20355 76 27 43945 12929 5893 299 5594 741 161 34 4853 288 184 150 118 51 67 25 3753 124 94
internal_count=352745 210341 1927 137 208414 72048 4562 3123 544 67486 26345 20534 5811 103 136366 69466 66900 23259 2591 624 39 585 82 20789 7860 466 418 35 2579 660 402 258 1439 383 4976 588 537 51 39 48677 48553 4608 855 25 107 506 40 26 5529 2163 522 155 1641 838 30 765 210 86 73 159 130 83 56 43641 2331 264 77 61 41141 20668 313 33 20355 76 27 43945 12929 5893 299 5594 741 161 34 4853 288 184 150 118 51 67 25 3753 124 94
is_linear=0
shrinkage=0.2


Tree=10
num_leaves=95
num_cat=0
split_feature=3 21 26 26 3 21 19 10 6 22 19 23 19 23 24 13 11 3 8 0 19 14 1 22 3 21 13 16 20 6 7 27 26 24 3 3 24 2 10 16 3 3 33 18 2 23 1 0 20 3 19 1 7 17 15 24 10 12 3 20 3 3 19 23 21 20 6 19 18 18 7 6 13 34 14 25 7 10 25 0 16 15 15 16 22 16 0 3 23 4 10 13 19 3
split_gain=361.122 101.099 102.582 129.949 65.9068 74.4652 672.378 75.4811 56.8069 54.032 581.725 132.003 69.0473 142.99 50.6729 49.748 47.7075 61.1446 48.218 47.0348 86.3823 88.6151 59.7023 77.8513 46.2376 45.4107 70.9861 41.8295 41.6758 44.3625 43.4353 44.1332 41.154 83.8712 77.8007 62.4692 56.0763 58.8305 68.0705 53.4029 72.404 48.5064 46.0682 50.1429 45.0155 41.5699 40.3302 39.0014 44.5666 43.9266 74.0907 42.7037 43.648 42.3878 49.9625 38.2239 39.6153 39.9494 38.1019 37.0925 102.228 52.8778 67.8518 49.1373 40.0328 56.0552 105.85 114.774 170.435 62.8015 51.6784 60.7731 37.2056 36.8844 45.1931 54.1264 36.7937 36.7416 55.6616 37.73 36.3223 62.0541 35.5861 38.7875 56.0846 35.3527 35.2346 35.8187 35.3665 98.2877 34.9698 42.9802 56.1222 34.8699
threshold=0.0011978950765570769 0.94444444444444298 0.58333333333333337 0.91666666666666674 0.1116748630463003 0.72222222222221444 0.10617120275228334 0.0025754697065653374 0.35625000000000012 1.0000000180025095e-35 0.041181278928610503 0.65000000000000002 0.05334102016722099 0.61666666666666681 0.67391304347826098 0.40725806451612906 0.85526315789473695 0.007445067845533785 0.83333333333333337 0.81250000000000011 0.10025745989570872 0.58036540240518053 0.31862745098039219 0.59090909090909094 0.52788395866146476 0.16666666666667143 0.89919354838709686 0.30764411027568928 0.022003771856314035 0.2687500000000001 0.0028843773211190893 0.081993568308602938 0.75000000000000011 0.41304347826086957 0.16004318396287567 0.0027863059689572731 0.67391304347826098 1.0000000180025095e-35 0.29280135106607569 0.77506265664160401 0.007445067845533785 0.016339611129518341 0.6130122466548702 0.67391304347826098 1.0000000180025095e-35 0.31666666666666671 0.20098039215686278 0.14583333333333334 0.0043854340775421356 0.94122317757753804 0.1688241904494609 0.88725490196078438 0.12193612280267395 0.13200090989173771 0.4193390692217443 0.97826086956521752 0.37998733375554156 0.1194973343488195 0.23895813429366042 0.15641081520814923 0.55497600820889026 0.68709957188518167 0.14123557202743645 0.71666666666666667 0.27777777777777152 0.83290193939598234 0.15625000000000003 0.17306700335251657 0.23913043478260873 0.93478260869565222 0.20116365436989359 0.2687500000000001 0.16532258064516131 0.14699461615297124 0.56672062904717868 0.58474576271186451 0.12911611785095325 0.020455984800506654 0.51694915254237295 0.35416666666666669 0.69486215538847118 0.45277669143527577 0.44045756746186943 0.72744360902255634 0.5 0.69110275689223066 0.64583333333333337 0.020235043844551787 0.88333333333333341 0.37857114316538149 0.1203293223559215 0.91532258064516137 0.10617120275228334 0.1367022604218868
decision_type=2 2 2 2 2 2 2 2 2 2 2 2 2 2 2 2 2 2 2 2 2 2 2 2 2 2 2 2 2 2 2 2 2 2 2 2 2 2 2 2 2 2 2 2 2 2 2 2 2 2 2 2 2 2 2 2 2 2 2 2 2 2 2 2 2 2 2 2 2 2 2 2 2 2 2 2 2 2 2 2 2 2 2 2 2 2 2 2 2 2 2 2 2 2
left_child=-1 2 4 8 15 7 46 24 32 10 11 -3 13 -12 16 -2 86 -18 -19 25 -21 22 -22 -24 85 26 -10 -27 30 -30 31 -17 33 90 39 42 37 -37 58 44 76 -40 43 45 -35 -34 -7 48 -8 -49 -51 52 -50 54 -52 -46 57 -57 -39 60 -9 62 -62 -64 65 72 67 69 -69 -67 -68 93 -61 74 75 -43 -41 -63 -79 -80 -77 -82 -20 -84 -85 -6 -5 88 -88 -90 91 -4 -93 -72
right_child=1 9 3 14 5 6 47 59 19 -11 12 -13 -14 -15 -16 28 17 18 82 20 21 -23 23 -25 -26 27 -28 -29 29 -31 -32 -33 35 34 -36 36 -38 38 41 40 -42 73 -44 -45 55 -47 -48 49 51 50 53 -53 -54 -55 -56 56 -58 -59 -60 64 61 77 63 -65 -66 66 70 68 -70 -71 71 -73 -74 -75 -76 80 -78 78 79 -81 81 -83 83 84 -86 -87 87 -89 89 -91 -92 92 -94 -95
leaf_value=-0.0077772726615544657 -0.0099333414995390629 0.7164417619054968 -0.016111348251080158 0.0022186364982799993 0.12198838201309609 1.1433149227729211 0.29194608308650832 0.0088623596687301184 0.10642219269438123 -0.045559214908154545 0.50696396529674537 0.26784999288475286 -0.031690242213070915 0.023794993033605313 -0.0096445640875533895 -0.030070979261878308 0.52920322418212895 0.44500677204296857 0.014183562460503627 -0.15855343781019515 0.1987724047440749 0.013076709689838546 0.37697129859165701 1.1480102646350863 -0.042775290879991747 0.28004885464906693 0.56538343757390974 0.033616941890450731 -0.0038023494455991882 0.011711055724866439 0.012697602195265873 0.19632640832615103 0.84239015758037539 0.025892879484274874 0.05227226946139131 0.022051943757620814 0.0085153107906718178 0.058537049051176397 0.4839423219362895 0.19291942000389095 0.070296727284564584 0.086456647402409353 0.059908829620335162 0.014117557352239435 -0.0095297589732992218 0.31595648447672531 0.70900964879989625 0.011080094603665394 -0.037872855685743861 0.57151036537610567 0.094838561380610739 0.013021520164697327 0.07287906811823644 0.028647066169607462 0.65822876930236829 0.44611235052347187 0.45608353391289713 0.022116757725016215 0.014434256690086696 0.034937812723073031 0.085225674708684293 -0.16019263388589025 0.33444728732109064 0.96142291933298107 -0.0070348738053164286 0.087643781132422965 0.0080125224810344564 1.1708698960867792 0.11886267874922073 0.48061080310079785 0.23714805641384037 0.65881467819213868 -0.0038582154683049069 -0.01161534723489442 0.10315485873100352 0.17263396896421912 0.73545950651168823 -0.038575510319322354 0.68226693250238879 0.210264099921499 0.29227555312681941 0.8805534968009362 0.047931112944515367 0.64372670607907423 0.040248822475868196 0.36758711837163127 0.060999748646867406 0.017542582170844454 0.68895444742270884 0.039929950024400446 0.0097386909692429406 0.43252555033605966 0.047368037371258991 -0.16153864334695614
leaf_weight=142404 19592 44 4662 14447 178 12.999999999999998 27 13592 133 2266 28 65 2514 196 9902 52 11.999999999999998 12.999999999999998 220 19 12.999999999999998 21 11.000000000000002 9.9999999999999982 62 28 14.999999999999998 1721 35634 9297 8422 102 10.000000000000002 3662 2951 7317 5888 2313 14.999999999999998 10.000000000000002 280 33 41 10.999999999999998 3374 14.999999999999998 25 18218 161 12.999999999999998 17.000000000000004 1741 1228 133 9.9999999999999982 9.9999999999999982 11.999999999999998 80 1185 1209 14.999999999999998 15.999999999999998 10.000000000000002 9.9999999999999982 20022 169 772 11.000000000000002 13.999999999999998 18 27 9.9999999999999982 5428 72 231 14.999999999999998 9.9999999999999982 25 10.000000000000002 21 16.000000000000004 12.999999999999998 33 14.000000000000002 10.999999999999998 27 318 3514 13.999999999999998 28 6048 18 95 12.999999999999998
leaf_count=142404 19592 44 4662 14447 178 13 27 13592 133 2266 28 65 2514 196 9902 52 12 13 220 19 13 21 11 10 62 28 15 1721 35634 9297 8422 102 10 3662 2951 7317 5888 2313 15 10 280 33 41 11 3374 15 25 18218 161 13 17 1741 1228 133 10 10 12 80 1185 1209 15 16 10 10 20022 169 772 11 14 18 27 10 5428 72 231 15 10 25 10 21 16 13 33 14 11 27 318 3514 14 28 6048 18 95 13
internal_value=0 0.00526533 0.00595742 0.0122482 0.00277916 0.00750654 0.0170402 0.00256656 0.0195514 -0.022514 -0.00417168 0.448933 -0.0222098 0.0841911 0.00191582 -0.00131094 0.00806224 0.0867741 0.0685296 0.0526656 0.209094 0.336099 0.535613 0.744133 0.108564 0.0465635 0.152939 0.0375621 0.00184622 -0.000592358 0.0146223 0.119881 0.0178511 0.0119586 0.0247947 0.0251287 0.0243193 0.0326202 0.0524836 0.0138931 0.0965562 0.131184 0.204868 0.369959 0.0104189 0.52653 0.857588 0.0155579 0.0360947 0.0120326 0.112337 0.0338877 0.0600417 0.0750288 0.303502 -0.00588318 0.11474 0.0692274 0.0435966 0.00188281 0.0103953 0.20512 0.406774 0.647935 -0.00232808 0.00995707 0.053272 0.179276 0.581746 0.125469 0.0207747 0.217823 0.00320889 0.11726 0.147386 0.28008 0.464189 0.107094 0.183461 0.362523 0.425298 0.555986 0.0509245 0.190287 0.378196 0.154336 0.00676047 0.023698 0.0837814 0.256271 -0.000362753 -0.0131572 0.108721 0.107575
internal_weight=0 210341 205228 68884 136344 63245 21586 41659 40358 5113 2847 109 2738 224 28526 73099 18624 303 291 1971 74 55 34 21 267 1897 148 1749 53507 44931 8576 154 38387 21212 10389 17175 17098 11210 3893 7438 300 395 77 36 7138 25 38 21548 3157 18391 173 3130 1389 160 27 3476 102 90 3498 41392 13699 107 35 20 27693 7671 1034 212 25 187 822 50 6637 380 308 77 20 72 56 31 44 29 278 58 25 205 18321 3874 360 42 10823 4775 113 40
internal_count=352745 210341 205228 68884 136344 63245 21586 41659 40358 5113 2847 109 2738 224 28526 73099 18624 303 291 1971 74 55 34 21 267 1897 148 1749 53507 44931 8576 154 38387 21212 10389 17175 17098 11210 3893 7438 300 395 77 36 7138 25 38 21548 3157 18391 173 3130 1389 160 27 3476 102 90 3498 41392 13699 107 35 20 27693 7671 1034 212 25 187 822 50 6637 380 308 77 20 72 56 31 44 29 278 58 25 205 18321 3874 360 42 10823 4775 113 40
is_linear=0
shrinkage=0.2


Tree=11
num_leaves=95
num_cat=0
split_feature=3 26 11 20 3 3 6 3 2 3 11 1 20 1 3 10 3 21 12 13 24 25 28 12 20 20 20 7 3 3 6 23 20 7 10 13 10 22 7 7 13 13 3 28 20 1 1 1 3 7 3 2 13 24 19 12 25 24 1 3 1 3 20 18 25 12 23 13 4 6 16 17 12 25 3 13 7 0 23 1 6 7 28 3 20 21 3 1 1 15 4 4 7 21
split_gain=237.164 117.227 80.6894 115.477 157.805 137.822 126.423 83.7798 78.1034 128.981 90.3008 94.5971 110.664 144.88 190.518 186.318 116.792 96.5681 94.749 85.3208 76.9629 75.0805 79.9208 88.537 74.8269 72.583 66.5936 65.7117 63.9585 63.4576 92.7565 66.4666 61.4328 111.015 123.165 94.6511 94.1443 87.9466 72.578 70.376 60.146 59.283 59.0659 58.1055 57.7505 100.838 89.5122 68.8222 59.7819 55.7346 53.0168 99.1943 51.9994 50.9135 47.5906 47.4694 79.1712 46.1264 45.9315 55.5303 61.4952 50.8042 140.892 61.0676 68.3587 51.1069 67.9773 45.5286 45.5207 45.1817 44.8212 56.6276 44.2303 58.7279 43.9249 43.8286 77.8442 59.3431 56.4386 43.6756 42.9023 42.6733 41.5467 41.237 82.1885 68.6569 52.0788 42.6766 43.1308 40.999 40.5727 85.9188 40.3818 40.2782
