tree
version=v4
num_class=1
num_tree_per_iteration=1
label_index=0
max_feature_idx=75
objective=regression
feature_names=Column_0 Column_1 Column_2 Column_3 Column_4 Column_5 Column_6 Column_7 Column_8 Column_9 Column_10 Column_11 Column_12 Column_13 Column_14 Column_15 Column_16 Column_17 Column_18 Column_19 Column_20 Column_21 Column_22 Column_23 Column_24 Column_25 Column_26 Column_27 Column_28 Column_29 Column_30 Column_31 Column_32 Column_33 Column_34 Column_35 Column_36 Column_37 Column_38 Column_39 Column_40 Column_41 Column_42 Column_43 Column_44 Column_45 Column_46 Column_47 Column_48 Column_49 Column_50 Column_51 Column_52 Column_53 Column_54 Column_55 Column_56 Column_57 Column_58 Column_59 Column_60 Column_61 Column_62 Column_63 Column_64 Column_65 Column_66 Column_67 Column_68 Column_69 Column_70 Column_71 Column_72 Column_73 Column_74 Column_75
feature_infos=[0:1] [0:1] [0:1] [0:1] [0:1] [0:1] [0:1] [0:0.99999999999999989] [0:1] [0:1] [0:1.0000000000000002] [0:1] [0:0.99999999999999989] [0:1] [0.1214153561517114:0.96022201665124896] [0:1] [0:0.99999999999999978] [0:1] [0:1] [0:1] [0:1.0000000000000002] [0:1] [0:0.99999999999999989] [0:0.99999999999999989] [0:1] [0:1] [0:1] [0:1] [0:0.62843018542916085] [0:0.99999999999999989] [0:1] [0:1] [0:1] [0:1] [0:0.90574272063250938] [-74.404498281109738:2474.1181409407413] [-71.929254762464694:2619.278132783928] [-145.0769657779573:2633.123165334358] [-371.65674544986035:2458.1028214047133] [-147.8867229842723:2425.7517399195526] [-242.97303771972656:2500.656494140625] [-205.60477649695082:2656.2677275011083] [-307.2352273100642:2586.0922957352277] [-255.26750183105469:2520.72607421875] [-293.28308783442947:2709.2876256078857] [-122.75791246893641:2569.4948686000125] [-384.95987818472327:2550.3740988025061] [-259.53672763315876:2398.333691202321] [-167.69163513183594:2644.86865234375] [-65.320444693096078:3083.3360038129067] [-263.27111979530747:2419.4801807808749] [-170.27509556380141:2398.92253333485] [-246.66168265473033:2528.6857375567406] [-173.91543579101562:2585.38623046875] [-101.09647580118269:2334.0620188812736] [-170.8290619487899:2722.7193139359797] [-305.13436542570224:2370.4317510078304] [-214.63693237304688:2515.01171875] [-221.23446498458458:2572.2058880521113] [-257.90743450077895:2528.7364156535032] [-340.87984396564775:2657.2273869499213] [-183.08821105957031:2261.97216796875] [-228.57539367675781:2802.21728515625] [-185.58876037597656:2300.8232421875] [-361.77288818359375:2703.13916015625] [-280.53045654296875:2196.0107421875] [-7.1054273576010019e-15:1685.1538333999997] [0:1685.1538333999997] [3.1974423109204508e-13:1511.8386605439507] [0.00010399466447807981:1452.181740673434] [0.00010399466447807981:1463.3654467243352] [0.0002079893289490542:1516.846667] [2.4634875423146241e-05:1373.9948325097362] [2.4634875423146241e-05:1421.7757701177552] [2.4634875423146241e-05:1383.1561025706199] [9.2370555648813024e-14:1390.4816678475861]
tree_sizes=5747 5761 5794 5721 5712 5754 5721 5774 5800 5736 5817 5803 5767 5811 5755 5823 5716 5743 5769 5840 5866 5793 5788 5826 5795 5765 5822 5893 5832 5832 5864 5785 5821 5867 5926 5826 5911 5806 5897 5957 5912 5837 5886 5908 5815 5918 5906 5914 5980 5861 5980 5908 5908 5971 5908 5884 5920 5970 6084 5929 6013 6082 6012 5960 6006 5907 5856 5928 6025 5937 5916 5958 5985 5983 5947 6020 6028 5995 5936 5978 5984 6062 6083 6054 5951 6068 5967 5923 6008 6083 6059 5947 6004 6049 6002 5962 6033 6034 5986 6063 6033 6061 6024 5961 5968 6024 6071 6122 5994 6017 6139 6022 6044 5992 6035 6034 6017 6057 6006 6005 6100 6105 5916 5983 6037 5953 6088 6053 5995 6145 6179 5956 6052 6126 6035 6093 5958 6131 6081 6238 6098 6053 6046 6012 6109 6154 6071 6023 6171 6052 6045 6064 6055 6016 6090 6125 6038 5971 6192 6132 6026 6078 6021 6094 5957 6201 6149 6074 6014 6174 5995 6112 6082 6143 5992 6092 5962 6099 6136 6086 6120 6158 6121 5940 6048 6033 6043 6185 6113 6184 6077 6111 6011 6028 6137 6135 6039 6193 6071 6093 6092 6058 6061 6116 6129 6030 6063 6078 5966 6031 6022 6029 6100 6090 6091 6120 6071 6051 5985 6184 5969 6179 6112 6151 6093 5972 6221 6082 6131 6070 6017 6141 6158 6124 6158 6020 6046 6144 6053 6006 6124 6147 6123 6187 6185 6032 6068 6147 6139 6054 6094 6105 6077 6108 6133 6147 6055 6077 6245 6053 6022 6089 6190 6010 6204 6113 5978 6016 6095 5968 6212 6040 6239 6048 6044 6083 5974 6116 6024 6159 6010 6210 6026 5993 6166 6138 6044 6187 6225 6103 6116 6059 6125 6095 6222 6099 6050 6234 6025 6136 5971 5974 6179 6057 6041 6010 5955 6042 6120 6001 6077 6203 6108 6064 6170 6093 6142 6139 6021 6116 6154 5990 6048 6012 6123 6008 5989 6146 6157 6171 6133 6010 6188 6135 6118 6178 6102 6285 6073 6040 6120 6078 6192 5999 6030 6130 6129 6052 6134 6056 6105 6093 6048 6240 6111 6221 6138 6121 6029

Tree=0
num_leaves=63
num_cat=0
split_feature=38 40 38 35 38 38 38 40 35 40 35 49 36 36 61 42 38 61 38 62 64 47 64 64 47 64 64 39 40 64 35 60 68 38 68 47 54 67 35 42 44 73 35 56 73 67 45 46 46 69 64 44 58 12 39 54 36 38 61 66 42 41
split_gain=167529 36944.7 24710.3 7247.28 6680.78 3856.33 2186.14 1048.42 1000.7 908.891 802.576 657.447 637.7 513.046 331.216 315.932 312.844 284.075 261.584 243.039 220.835 219.877 217.403 211.351 208.164 201.189 194.27 189.176 178.44 173.25 170.656 165.979 155.143 150.918 149.369 146.989 146.824 146.415 144.771 138.263 135.556 133.803 133.669 132.918 127.841 125.903 119.692 118.042 117.797 121.586 117.72 114.106 120.546 112.307 110.857 110.044 108.261 107.943 105.385 129.829 104.22 100.801
threshold=367.71654720940097 123.74481582641603 733.03707608024718 37.92948921097684 211.58546137393563 1019.8687398986063 573.67390098249223 187.80329132080081 73.08895072990299 296.92768859863287 13.333128942970403 68.533417971916052 196.86608107052083 234.51783636735237 151.35685729980472 562.0839237589247 304.5428960841831 118.38399124145509 413.86265826838354 286.71800231933599 176.81518554687503 1018.0456891840234 209.28182220458987 92.242931365966811 723.12872856478418 375.63719177246099 284.01876831054693 294.00364239843572 380.07421875000006 182.27568054199222 54.320070277312077 165.44516228172208 121.10739467984108 476.84538903213667 124.9907318093736 1018.0456891840234 33.269730519741699 179.64964324462571 54.320070277312077 403.58647125908413 732.28001786898551 87.486298097572572 101.02905159502514 352.60147155605455 223.09565173778896 167.60458497059736 103.38658570588217 401.24171324076451 558.94931598120468 209.99688927788804 162.30066680908206 279.79159791247338 142.66208123030577 0.59596344249809607 276.01581810825576 29.853072510086285 163.07241901470897 281.24678926884116 931.10073852539074 168.52882589226752 323.50177629425036 155.80133247743774
decision_type=2 2 2 2 2 2 2 2 2 2 2 2 2 2 2 2 2 2 2 2 2 2 2 2 2 2 2 2 2 2 2 2 2 2 2 2 2 2 2 2 2 2 2 2 2 2 2 2 2 2 2 2 2 2 2 2 2 2 2 2 2 2
left_child=1 3 6 10 7 13 11 17 30 16 -1 15 27 45 -9 22 23 38 50 32 47 43 -2 -6 26 36 -20 -8 -22 41 -5 -27 51 -24 61 -7 -14 39 -3 -25 -33 54 -10 -15 -29 -4 -21 -11 49 -30 -13 -16 -53 -26 -18 -45 -17 -32 -37 -60 -36 -19
right_child=2 4 5 8 9 35 12 14 42 20 -12 18 25 21 19 56 29 34 24 46 28 -23 33 37 53 31 -28 44 48 -31 57 40 -34 -35 60 58 -38 -39 -40 -41 -42 -43 -44 55 -46 -47 -48 -49 -50 -51 -52 52 -54 -55 -56 -57 -58 -59 59 -61 -62 -63
leaf_value=-0.017815787301774823 0.23304524440609917 -0.0084922144061073401 0.37324869826701168 -0.0046968313403989957 0.1395213867901843 0.359709037778008 0.38185808682297012 0.021906513151808717 0.0076129764252155065 0.13523440000777218 -0.011173023724762273 0.23273256956150565 0.3881131227803849 0.35391196542591291 0.051466348118177997 0.33339628186689069 0.19170359568564418 0.025426411788497649 0.18256299236973558 0.20193903492657669 0.082044713085987986 0.32844012223316227 0.14668779783961833 0.06144925824664705 0.18443969208226416 0.47850290252378025 0.13566526080883215 0.27686260919382605 0.11161202918070745 0.079950786314622976 0.00084476756151454532 0.18089805334484085 0.036774084699438873 0.19894531841440014 0.018982701423099404 0.37579345320045621 0.23598646297291351 0.043810000942652715 0.015033604732468703 0.25762774828682777 0.22976392872844617 0.1177658792607614 0.015963123885253696 0.30710290606556434 0.14786794164035014 0.30283880265661117 0.074302823924050757 0.36006890370061434 0.25521653129270111 0.0712760430680697 0.11027402072318002 0.32188948355299102 0.096546272426794449 0.39655958348125653 0.45630673362424407 0.24991768074012338 0.20255176724603211 0.21294703268617821 0.43544640173480703 0.39966518288463793 0.2274666978280786 0.036650969955000195
leaf_weight=159671 127 755 163 31216 79 178 41 1581 19310 216 63575 20 19 36 2900 43 19.000000000000004 6046 250 19 2408 133 480 4339 13.000000000000002 4.9999999999999991 1892 225 977 831 24197 790 3175 194 6440 208 96 1516 4885 8.9999999999999982 173 123 6375 94 21 104 552 5.9999999999999991 12.999999999999998 231 1047 6.9999999999999991 39 11.999999999999998 4.9999999999999991 801 25 5.9999999999999991 439 600 5.9999999999999991 2989
leaf_count=159671 127 755 163 31216 79 178 41 1581 19310 216 63575 20 19 36 2900 43 19 6046 250 19 2408 133 480 4339 13 5 1892 225 977 831 24197 790 3175 194 6440 208 96 1516 4885 9 173 123 6375 94 21 104 552 6 13 231 1047 7 39 12 5 801 25 6 439 600 6 2989
internal_value=4.30753e-09 -0.0053254 0.222954 -0.0112736 0.0397458 0.345052 0.16147 0.0274013 0.00152734 0.0734307 -0.0159241 0.14321 0.216157 0.283854 0.0424894 0.181821 0.0625969 0.0214913 0.132835 0.0473522 0.0929011 0.268304 0.173037 0.0582846 0.142813 0.198596 0.141139 0.282423 0.0899397 0.0888018 -0.0022537 0.191169 0.0444419 0.161729 0.0249914 0.402213 0.26112 0.0571901 0.0118843 0.0618553 0.189677 0.138837 0.00968548 0.259713 0.265851 0.345823 0.0785499 0.141311 0.10551 0.103899 0.112569 0.0527057 0.130838 0.286257 0.246829 0.255924 0.285292 0.000897348 0.40828 0.414784 0.0191768 0.0291398
internal_weight=0 344516 8229 304350 40166 2756 5473 29394 81104 10772 223246 4103 1370 1331 8273 869 6921 21121 3234 6692 3851 1064 801 5943 2167 1083 2142 287 3629 978 55419 968 6121 674 15481 1425 115 5864 5640 4348 963 147 25685 931 246 267 571 222 1221 1208 1067 2946 46 25 24 895 68 24203 1247 1039 6446 9035
internal_count=352745 344516 8229 304350 40166 2756 5473 29394 81104 10772 223246 4103 1370 1331 8273 869 6921 21121 3234 6692 3851 1064 801 5943 2167 1083 2142 287 3629 978 55419 968 6121 674 15481 1425 115 5864 5640 4348 963 147 25685 931 246 267 571 222 1221 1208 1067 2946 46 25 24 895 68 24203 1247 1039 6446 9035
is_linear=0
shrinkage=1


Tree=1
num_leaves=63
num_cat=0
split_feature=38 40 38 38 36 38 38 40 40 38 37 49 36 36 61 38 38 40 39 64 40 39 46 40 64 47 64 64 39 70 64 39 40 47 68 61 47 52 44 67 68 69 67 67 56 54 64 47 38 46 61 12 48 39 48 58 1 47 36 54 38 61
split_gain=151195 33342.6 22301 6029.41 6011.86 3480.34 1972.99 1002.87 950.646 827.272 751.074 593.346 575.524 463.024 350.61 254.149 236.08 231.159 228.441 216.988 216.023 209.928 208.806 199.864 192.134 187.868 184.764 175.329 170.732 162.876 146.903 145.63 141.976 135.266 133.328 137.635 132.657 128.773 121.982 120.92 116.511 115.923 113.628 108.458 106.709 108.451 106.242 105.784 104.764 103.273 102.113 101.357 100.488 99.7155 99.2183 98.935 107.088 98.7711 103.676 96.6565 96.1986 95.1103
threshold=367.71654720940097 123.74481582641603 733.03707608024718 211.58546137393563 29.235240488524369 1019.8687398986063 573.67390098249223 76.320598602294936 175.87683868408206 281.24678926884116 5.0513209463467961 68.533417971916052 196.86608107052083 234.51783636735237 159.28532409667972 476.84538903213667 413.86265826838354 279.19715881347662 91.634527951525371 176.81518554687503 380.07421875000006 127.32054772366868 1006.5694712183689 228.09697723388675 92.242931365966811 723.12872856478418 334.98634338378912 284.01876831054693 294.00364239843572 55.641026084384713 209.28182220458987 59.511331313619195 74.168121337890639 323.03700075347075 184.47724022227393 293.47721862792974 1018.0456891840234 356.63932973158165 732.28001786898551 179.64964324462571 129.59870336768822 276.22321818538757 167.60458497059736 244.55523797606733 324.5515748078065 29.853072510086285 162.30066680908206 561.16007074789684 100.33691523781877 466.26158117984403 458.14233398437506 0.59596344249809607 1004.4821166992189 652.62228034768214 1004.4821166992189 449.93150354523419 0.33823529411764713 561.16007074789684 57.040376761081909 135.40820591129781 281.24678926884116 931.10073852539074
decision_type=2 2 2 2 2 2 2 2 2 2 2 2 2 2 2 2 2 2 2 2 2 2 2 2 2 2 2 2 2 2 2 2 2 2 2 2 2 2 2 2 2 2 2 2 2 2 2 2 2 2 2 2 2 2 2 2 2 2 2 2 2 2
left_child=1 4 6 8 10 13 11 31 21 17 -1 15 28 42 48 30 46 24 -9 29 -21 -3 44 -16 -5 27 -14 -18 -8 33 50 -6 -12 -11 35 -25 -7 -17 -28 -26 -23 52 54 53 -15 -46 -13 -32 -10 -19 -2 -27 59 -22 -4 -37 -57 58 -29 -30 -34 -38
right_child=2 3 5 9 7 36 12 18 14 19 32 16 26 22 23 37 25 49 -20 20 43 40 -24 34 39 51 38 57 41 -31 47 -33 60 -35 -36 55 61 -39 -40 -41 -42 -43 -44 -45 45 -47 -48 -49 -50 -51 -52 -53 -54 -55 -56 56 -58 -59 -60 -61 -62 -63
leaf_value=-0.017082345187407876 0.19665657787563953 0.013141310151753821 0.33877479208367212 0.1355437357167619 -0.0063997409508696054 0.3417235781637471 0.36276518775195615 0.0026389324099583681 0.0060441791881322669 0.18843978742758435 -0.011380097640453297 0.2210959307104349 0.26783633318500244 0.36342524541051768 0.037467707919997373 0.25685578011998944 0.1734348388940096 0.072703689882648234 0.010794761853043927 0.077147721330260072 0.11054207229395011 0.028206112599318874 0.31110098386977936 0.053732634220149678 0.056205525138643159 0.17521770470417458 0.17527724721894544 0.31606514453887941 0.27393906773335636 0.11419457110936844 0.1389583612911782 -0.0010636946252056264 -0.0028303510947505746 0.47156098842620847 0.031694534058226552 0.081289022750116624 0.35700377604136102 0.18624878339469433 0.22086234822701872 0.037593046574768918 0.017617516797169941 0.10724928808900028 0.28769685411109375 0.069169231563975378 0.29363581273973605 0.23767223771129339 0.10476031376345465 0.27840191934789932 0.028389322503577615 0.26510929039546421 0.40940771500269579 0.37673159440358484 0.48239950180053714 0.23305850265657202 0.45082994647648028 0.096824177540838732 0.37626123428344727 0.15595361067411992 0.12322047806711574 0.19736503404047756 0.19749767382939656 0.39404433902005259
leaf_weight=150901 94 8029 140 69 27777 178 41 15821 693 27 62428 20 69 19 5004 102 250 1891 18774 2944 720 6292 143 1857 3442 13.000000000000002 836 6.9999999999999991 174 310 477 23693 4950 4.9999999999999991 534 388 208 176 178 1169 4425 12.999999999999998 104 171 97 805 1047 13.999999999999998 2158 6.9999999999999991 5.9999999999999991 11.999999999999998 4.9999999999999991 17 23 7.9999999999999982 6 286 1599 54 5.9999999999999991 1039
leaf_count=150901 94 8029 140 69 27777 178 41 15821 693 27 62428 20 69 19 5004 102 250 1891 18774 2944 720 6292 143 1857 3442 13 836 7 174 310 477 23693 4950 5 534 388 208 176 178 1169 4425 13 104 171 97 805 1047 14 2158 7 6 12 5 17 23 8 6 286 1599 54 6 1039
internal_value=0 -0.00505914 0.211806 0.0377585 -0.0107099 0.327799 0.153396 0.000481539 0.0260312 0.0697592 -0.0151225 0.136049 0.205349 0.269661 0.037962 0.17273 0.126193 0.0586951 0.00706493 0.0871123 0.0837236 0.0192543 0.254888 0.0434484 0.0527261 0.135672 0.188667 0.134082 0.268302 0.125281 0.154184 -0.00394342 -0.0107334 0.232677 0.0541635 0.0594749 0.382102 0.212155 0.183279 0.0514868 0.0238341 0.252558 0.328532 0.105044 0.246161 0.24369 0.106941 0.142934 0.0229578 0.0734133 0.209422 0.271944 0.260666 0.113368 0.354586 0.0860008 0.216583 0.128882 0.124061 0.255803 -0.00258782 0.387866
internal_weight=0 344516 8229 40166 304350 2756 5473 86065 29394 10772 218285 4103 1370 1331 10648 869 3234 6578 34595 4194 3852 18746 1064 7797 4680 2167 1083 2142 287 342 591 51470 67384 32 2793 2259 1425 278 1014 4611 10717 246 267 908 921 902 1067 491 2851 1898 100 25 233 737 163 402 14 1892 1606 228 4956 1247
internal_count=352745 344516 8229 40166 304350 2756 5473 86065 29394 10772 218285 4103 1370 1331 10648 869 3234 6578 34595 4194 3852 18746 1064 7797 4680 2167 1083 2142 287 342 591 51470 67384 32 2793 2259 1425 278 1014 4611 10717 246 267 908 921 902 1067 491 2851 1898 100 25 233 737 163 402 14 1892 1606 228 4956 1247
is_linear=0
shrinkage=0.05


Tree=2
num_leaves=63
num_cat=0
split_feature=38 40 44 37 38 38 38 40 38 39 40 37 49 49 49 38 47 62 38 39 49 40 54 38 37 66 53 37 42 67 47 53 28 62 66 40 47 53 42 15 57 37 51 40 62 46 56 11 42 69 73 53 68 42 56 46 63 63 49 55 62 50
split_gain=136470 26694.9 24473.6 4795.71 4474.37 3093.03 2733.07 827.407 787.472 782.655 757.002 629.998 527.99 475.967 386.193 287.477 228.775 218.731 217.151 191.022 188.994 186.326 179.075 164.559 158.746 153.703 149.414 146.212 144.154 142.393 130.172 128.785 128.614 127.568 123.083 120.918 116.705 115.791 115.488 116.693 113.531 112.165 109.561 108.15 105.158 102.894 121.398 102.575 99.5593 102.484 95.4756 96.2556 93.5781 92.336 90.8005 90.2588 90.2547 89.5002 88.3442 118.529 84.576 103.936
threshold=331.95356567983328 116.8008270263672 732.28001786898551 28.065977149527104 194.68373427488896 1019.8687398986063 573.67390098249223 279.19715881347662 413.86265826838354 75.311654948129188 165.68766021728518 5.0513209463467961 80.901100171058673 100.0367568891282 105.0566576020348 108.8993452055589 1018.0456891840234 286.71800231933599 246.11471478689285 87.446440265335767 66.314960019484161 87.478046417236342 43.811548661379298 733.03707608024718 284.41035987246545 116.29386256341878 410.61819458007818 174.20932986480275 323.50177629425036 102.23290732765034 1018.0456891840234 211.31854248046878 0.022328633533605913 679.37301635742199 160.29877316891682 66.786426544189467 465.3934132721439 171.6369323730469 562.0839237589247 0.37221353148220576 260.77005004882818 102.73118495673747 294.8039840090442 55.803710937500007 543.92498779296886 401.24171324076451 249.88818414144467 0.90789473684210531 357.48846459193521 167.28383745599811 170.70842776166361 254.67468261718753 49.111861745964596 719.67082138308626 352.60147155605455 220.22591525534537 300.34341430664068 121.73716735839845 37.024228082054471 73.909966643605856 963.64346313476574 304.0617144611071
decision_type=2 2 2 2 2 2 2 2 2 2 2 2 2 2 2 2 2 2 2 2 2 2 2 2 2 2 2 2 2 2 2 2 2 2 2 2 2 2 2 2 2 2 2 2 2 2 2 2 2 2 2 2 2 2 2 2 2 2 2 2 2 2
left_child=1 3 6 11 10 14 8 18 20 43 19 -1 27 31 24 -12 26 25 34 -3 57 -11 36 52 60 -17 -16 32 -20 -21 -7 -10 42 48 58 -13 -9 40 39 -33 -30 -40 -8 -5 -19 -22 -47 54 49 -24 51 -15 -14 -29 -28 -50 -41 -2 59 -6 61 -4
right_child=2 4 5 9 7 30 12 22 13 21 15 35 23 50 16 17 -18 44 28 29 45 -23 33 -25 -26 -27 47 53 37 -31 -32 38 -34 -35 -36 -37 -38 -39 41 56 -42 -43 -44 -45 -46 46 -48 -49 55 -51 -52 -53 -54 -55 -56 -57 -58 -59 -60 -61 -62 -63
leaf_value=-0.016225676786321124 0.27389519810676577 0.0036874375294437263 0.4472617881638663 -0.0065421340811194235 0.23186491605910389 0.32219020245392205 0.50016478538513187 0.099312771004302705 0.26381353490492881 0.0017923120725449005 0.013583976857070787 -0.011010566048943342 0.30819373230139413 0.21522932569770253 0.39950157679044285 0.040843885583398777 0.30476145389651466 0.068429233345953869 0.056258438807919225 0.024718542386694069 0.087672627913243206 0.0090439308198612244 0.073464094551836501 0.22074715942916476 0.26319560080389437 0.027656055675327029 0.31383023306175517 0.20086811398038804 0.31819364563985297 0.014758896762904867 0.36847266154759584 0.1148849493365896 0.44569196592677723 0.30218487183252973 0.033243848006790137 -0.0036064885527324225 0.32094127734502159 0.086479198929307527 0.28293936048683371 0.20349616816169336 0.060610104032925195 0.17279369706066991 0.26271525812253621 -0.0018387434614933554 0.26394702621868682 0.18424688824624927 0.10493582155042219 0.2905742563787968 0.25573780238628391 0.050772872217149795 0.10852134338313678 0.12984445937251904 0.16756311832746731 0.29690666556358342 0.22050220726573222 0.094788955774921177 0.15708282417499672 0.12302384265476136 0.045511188776137156 0.065590440904164327 0.4074534598986308 0.30522687250505326
leaf_weight=150970 9.9999999999999982 2807 13.999999999999998 28146 10.999999999999998 173 4.9999999999999991 593 34 18767 1757 57876 11.999999999999998 34 12.999999999999998 4266 121 392 2444 5140 1674 16777 2426 193 158 4583 27 151 11.000000000000002 11891 1247 130 10.999999999999998 5.9999999999999991 2123 6095 5.9999999999999991 237 38 133 6.9999999999999991 59 171 21603 6.9999999999999991 54 453 62 8.9999999999999982 626 659 1130 831 30 750 271 493 578 2841 418 30 161
leaf_count=150970 10 2807 14 28146 11 173 5 593 34 18767 1757 57876 12 34 13 4266 121 392 2444 5140 1674 16777 2426 193 158 4583 27 151 11 11891 1247 130 11 6 2123 6095 6 237 38 133 7 59 171 21603 7 54 453 62 9 626 659 1130 831 30 750 271 493 578 2841 418 30 161
internal_value=0 -0.00521266 0.185548 -0.0104829 0.0316947 0.311455 0.135134 0.0575597 0.119184 -0.000451279 0.0216071 -0.0144636 0.197374 0.138345 0.256847 0.0321242 0.240427 0.0356466 0.0484129 0.0157729 0.100432 0.00521512 0.0763598 0.1791 0.300859 0.0340138 0.23129 0.248821 0.059991 0.0177647 0.362834 0.168386 0.279828 0.0718425 0.0426184 -0.0103051 0.101533 0.0957646 0.164582 0.157992 0.218022 0.215944 0.269461 -0.00449973 0.0718594 0.0936494 0.113383 0.228684 0.0714277 0.0688099 0.123729 0.132339 0.169565 0.216786 0.223745 0.0999623 0.166944 0.12559 0.0487048 0.0698539 0.329887 0.31659
internal_weight=0 343106 9639 300234 42872 2756 6883 12029 5479 85293 30843 214941 1404 2710 1336 11005 973 9248 8092 19838 2769 35544 3937 1036 363 8849 852 368 2699 17031 1420 887 187 3338 5393 63971 599 255 853 756 18 97 176 49749 399 2181 507 839 3332 3052 1823 1164 843 181 777 280 626 588 3270 429 205 175
internal_count=352745 343106 9639 300234 42872 2756 6883 12029 5479 85293 30843 214941 1404 2710 1336 11005 973 9248 8092 19838 2769 35544 3937 1036 363 8849 852 368 2699 17031 1420 887 187 3338 5393 63971 599 255 853 756 18 97 176 49749 399 2181 507 839 3332 3052 1823 1164 843 181 777 280 626 588 3270 429 205 175
is_linear=0
shrinkage=0.05


Tree=3
num_leaves=63
num_cat=0
split_feature=38 35 38 40 35 38 38 38 40 35 64 36 49 36 38 38 62 49 49 49 47 44 43 72 64 47 74 62 60 39 40 64 64 49 54 44 48 49 38 55 40 40 71 36 62 52 54 68 73 56 35 44 64 34 61 61 36 61 67 56 65 45
split_gain=123199 27251.9 18194.4 6073.68 4134.07 2823.63 1588.4 1205.79 696.456 551.289 492.241 483.411 420.003 406.842 355.157 308.715 278.672 252.827 252.535 233.451 213.701 201.892 184.302 178.486 165.969 159.287 149.974 148.676 146.83 146.559 139.082 134.572 133.281 132.414 127.907 123.342 116.155 114.798 113.89 185.422 111.733 109.261 108.518 148.394 209.08 107.834 104.91 103.317 102.284 100.876 97.8527 95.2725 94.8361 93.3715 92.7507 92.3428 92.0414 91.5168 90.5993 90.3043 90.0345 89.0046
threshold=367.71654720940097 84.465724570281836 733.03707608024718 201.77406311035159 33.32158113111992 1019.8687398986063 573.67390098249223 262.37802050186428 138.22246551513675 59.508440085063704 217.89358520507815 196.86608107052083 6.1246847608396999 163.07241901470897 476.84538903213667 232.59549531350231 286.71800231933599 42.794353059186058 72.02183916396568 26.127210882693614 1018.0456891840234 567.9697982482038 342.03416442871099 110.64374346031782 375.63719177246099 561.16007074789684 162.59301380904154 543.92498779296886 165.44516228172208 314.16190713484207 296.92768859863287 138.77983093261722 238.99580383300784 52.65064648885302 33.269730519741699 245.96667857506915 1004.4821166992189 105.0566576020348 202.53227297548804 108.233448296001 97.796073913574233 477.81150817871099 183.61208614293216 171.9775726937809 543.92498779296886 639.88681464121123 8.3824161678521367 99.867088025222358 223.09565173778896 515.73868423931162 114.81851210743748 732.28001786898551 227.97026824951175 0.13721771657287143 189.3879318237305 668.55795288085949 478.60585188228453 369.60385131835943 244.55523797606733 117.13647828974156 153.71893310546878 75.943422099796578
decision_type=2 2 2 2 2 2 2 2 2 2 2 2 2 2 2 2 2 2 2 2 2 2 2 2 2 2 2 2 2 2 2 2 2 2 2 2 2 2 2 2 2 2 2 2 2 2 2 2 2 2 2 2 2 2 2 2 2 2 2 2 2 2
left_child=1 4 6 8 12 13 10 16 33 -6 54 29 -1 -4 21 23 26 32 -16 38 22 42 -15 -10 34 30 35 61 -26 -8 52 -17 41 -3 -13 -5 45 -24 -11 59 -21 -9 43 44 53 -7 -33 -38 55 -22 -35 -30 -19 -12 -2 -31 -47 -56 -32 -40 -37 -18
right_child=2 3 5 7 9 36 11 17 15 19 14 24 -14 20 18 31 27 25 -20 40 49 -23 37 -25 28 -27 -28 -29 51 48 58 46 -34 50 -36 60 47 -39 39 -41 -42 -43 -44 -45 -46 56 -48 -49 -50 -51 -52 -53 -54 -55 57 -57 -58 -59 -60 -61 -62 -63
leaf_value=-0.015433393944644614 0.26257874264436615 0.025941024386921519 0.32002030378570417 0.04298984886173373 -0.0039780177993190384 0.36487917426120808 0.32053631806373595 0.13047386854345991 0.032610348333373639 0.019532901036376119 0.13358490168640255 0.34507900978389539 -0.010497559953076071 0.4507255103853014 0.18371989323812374 0.11099856215156614 0.25636136184136071 0.077207508460258978 0.12830448006749925 0.0014070759488059579 0.41714361906051639 0.19126277084367863 0.25386106226624561 0.020798711344944668 0.43326564788818356 0.26249724193052815 0.029140413151512209 0.18719047866761684 0.15425196035140301 0.21630177510117232 0.083363058981826443 0.24161463592733656 0.085661544012610752 0.0092221444354540286 0.20309044832053283 0.11861764381738436 0.38855216589318703 0.21418985475141269 0.13225378803908822 0.041379382418490006 0.0081481989628597595 0.34648020168145499 0.083238156391113691 0.10174454420583388 0.24783864337447525 0.34176121775309243 0.047078792721806755 0.34585778193532929 0.1209890591424136 0.27619024168919115 0.017840894902883531 0.19521859923695253 0.054130616572619833 0.069254336320569349 0.15531896098104658 0.28929129225512346 0.27249253374293336 0.21942924247705378 0.056625689092614506 0.35500422141381671 0.058171523653499382 0.063379019755644833
leaf_weight=152415 34 1654 154 5338 51560 83 50 241 4882 1490 388 19 60092 8.9999999999999982 255 100 5.9999999999999991 676 1061 20053 13.999999999999998 69 238 9274 4.9999999999999991 10.999999999999998 1667 25 790 156 2241 6.9999999999999991 288 14477 96 66 166 780 13.000000000000002 87 8864 5.9999999999999991 480 1450 37 75 697 968 21 136 4263 173 1304 66 183 60 133 80 369 6.9999999999999991 925 1418
leaf_count=152415 34 1654 154 5338 51560 83 50 241 4882 1490 388 19 60092 9 255 100 6 676 1061 20053 14 69 238 9274 5 11 1667 25 790 156 2241 7 288 14477 96 66 166 780 13 87 8864 6 480 1450 37 75 697 968 21 136 4263 173 1304 66 183 60 133 80 369 7 925 1418
internal_value=0 -0.0045668 0.191194 0.0295889 -0.0103566 0.295964 0.138435 0.056742 0.0183902 -0.000825554 0.122871 0.185051 -0.0140377 0.243598 0.118033 0.026584 0.0461391 0.0762405 0.139042 0.00450122 0.233598 0.106929 0.225456 0.0248722 0.169761 0.0724576 0.042483 0.0663143 0.163015 0.242746 0.0720022 0.0567227 0.108773 0.0123797 0.226549 0.0459974 0.344876 0.223465 0.0231111 0.0729377 0.00347345 0.135721 0.104525 0.109789 0.133547 0.316696 0.0490131 0.352108 0.226335 0.289346 0.0111827 0.161611 0.0620094 0.124233 0.184867 0.236577 0.297469 0.17482 0.0795829 0.210216 0.0621972 0.0641921
internal_weight=0 344516 8229 49935 294581 2756 5473 14581 35354 82074 4103 1370 212507 1331 3806 14960 9445 5136 1316 30514 1177 2490 1027 14156 1083 4601 7996 1449 968 287 4590 804 535 20394 115 6329 1425 1018 1597 107 28917 247 2421 1941 491 291 704 1134 237 150 18740 963 1980 454 297 216 208 263 2610 20 991 1424
internal_count=352745 344516 8229 49935 294581 2756 5473 14581 35354 82074 4103 1370 212507 1331 3806 14960 9445 5136 1316 30514 1177 2490 1027 14156 1083 4601 7996 1449 968 287 4590 804 535 20394 115 6329 1425 1018 1597 107 28917 247 2421 1941 491 291 704 1134 237 150 18740 963 1980 454 297 216 208 263 2610 20 991 1424
is_linear=0
shrinkage=0.05


Tree=4
num_leaves=63
num_cat=0
split_feature=38 35 44 40 35 38 38 40 38 38 36 35 36 36 36 64 64 61 38 40 46 51 47 49 53 72 64 62 64 42 60 64 49 38 42 74 47 42 46 10 42 56 3 32 54 46 35 38 35 68 38 64 68 50 71 68 71 45 15 34 13 44
split_gain=111257 22025.3 19984 4552.69 3452.4 2494.66 2202.19 696.416 648.543 634.614 488.895 444.726 407.088 365.462 364.533 301.64 282.508 257.007 250.066 215.165 220.751 210.515 204.292 194.457 170.778 166.425 159.513 144.28 143.45 127.388 132.007 124.882 124.478 121.692 121.323 120.523 113.697 112.77 112.168 108.555 109.922 116.94 107.964 127.807 106.42 104.925 101.237 100.962 99.488 98.3182 96.409 96.1369 95.36 198.767 93.6247 93.4811 93.2808 92.1698 90.48 111.001 90.0789 141.064
threshold=331.95356567983328 81.777467192713317 732.28001786898551 201.77406311035159 32.776630728760516 1019.8687398986063 573.67390098249223 138.22246551513675 413.86265826838354 262.37802050186428 126.6737076469107 54.320070277312077 141.7237587447124 183.79023109038482 6.2146068729288979 217.89358520507815 375.63719177246099 276.79672241210943 232.59549531350231 108.41566467285158 296.52101316706586 170.22723183270131 1018.0456891840234 40.728915356811576 410.61819458007818 110.64374346031782 284.01876831054693 455.49012756347662 209.28182220458987 719.67082138308626 170.00508398098725 138.77983093261722 52.65064648885302 733.03707608024718 465.45217450606782 150.54682928434488 1018.0456891840234 323.50177629425036 401.24171324076451 0.10512982900569984 403.58647125908413 515.73868423931162 0.14402688690020007 0.32777777777777789 88.081350290183664 558.94931598120468 201.87890694760867 155.50183314581992 114.81851210743748 103.03250914397888 143.53153642178299 151.04649353027347 244.78167670267644 651.57651174868613 167.53468666278511 163.36101993707351 327.75318212840676 453.11433835833049 0.37319123973406337 0.093402682633893799 0.52822580645161299 407.51733903685925
decision_type=2 2 2 2 2 2 2 2 2 2 2 2 2 2 2 2 2 2 2 2 2 2 2 2 2 2 2 2 2 2 2 2 2 2 2 2 2 2 2 2 2 2 2 2 2 2 2 2 2 2 2 2 2 2 2 2 2 2 2 2 2 2
left_child=1 4 6 7 14 13 8 32 15 17 33 -6 28 55 -1 -2 44 35 25 -13 49 -22 24 39 -15 -9 -14 54 -10 30 -18 -20 -3 -8 58 47 -7 -25 52 -11 41 -41 43 -26 -12 -28 -29 -5 -34 50 -21 -49 53 -17 -19 -4 -47 -53 -30 -60 61 -36
right_child=2 3 5 9 11 36 10 18 12 23 16 19 26 22 -16 38 29 27 31 20 21 -23 -24 37 42 -27 45 46 34 -31 -32 -33 48 -35 60 -37 -38 -39 -40 40 -42 -43 -44 -45 -46 56 -48 51 -50 -51 -52 57 -54 -55 -56 -57 -58 -59 59 -61 -62 -63
leaf_value=-0.014648861686413878 0.13360692410902486 0.023166544229922825 0.32627289749066768 0.031450148955310037 -0.0045642173701143027 0.28946481545191965 0.23190637780619522 0.030823639023407502 0.23405900886830164 0.078105845721659226 0.27086297438332907 0.0010542183678112678 0.15215207670354822 0.37535028085112576 -0.0099815324533386006 0.081053630863635928 0.40480750083923339 0.062325662657529424 0.10646655228381095 0.013703489188869376 0.43060865203539533 0.055984328985214243 0.27646966515755167 0.059247543079752711 0.21221884560475154 0.019571310364885953 0.10608732930697934 0.20435271209904127 0.061288903653621676 0.19304165577319399 0.14714487055959988 0.045215906730583066 0.0082454306519208782 0.3289456727958861 0.47317834297815964 0.030171206948398401 0.33271949909262977 0.080840313711835185 0.10325331678882368 0.11124131543524314 0.30196701554038252 0.28786850631237032 0.19147849637383779 0.26959797234535221 0.19009195464578543 0.14749260421232743 0.077587841140727198 0.064821935862570235 0.016819236102199969 0.0045637031525768762 0.041251095468760469 0.043401856256829817 0.048150226441403508 0.29433444223620675 0.036240506822824342 0.25654819509837518 0.059703710956524873 0.14851177198191484 0.13459417706159385 0.26134551010633772 0.16525533730242434 0.21400003919289229
leaf_weight=153602 356 1968 109 1241 44608 173 140 5047 68 211 76 29455 269 15.999999999999998 57494 1581 4.9999999999999991 1630 95 2945 5.9999999999999991 9.9999999999999982 147 2621 434 9418 1651 28 37 199 854 671 16459 42 5.9999999999999991 2393 1247 786 590 149 8.9999999999999982 9.9999999999999982 419 125 88 275 36 686 4259 3404 356 3052 231 10.999999999999998 436 86 34 21 190 19 119 42
leaf_count=153602 356 1968 109 1241 44608 173 140 5047 68 211 76 29455 269 16 57494 1581 5 1630 95 2945 6 10 147 2621 434 9418 1651 28 37 199 854 671 16459 42 6 2393 1247 786 590 149 9 10 419 125 88 275 36 686 4259 3404 356 3052 231 11 436 86 34 21 190 19 119 42
internal_value=0 -0.00470658 0.167534 0.0255328 -0.0100137 0.281308 0.121977 0.0167017 0.107661 0.0506924 0.177847 -0.00122336 0.125049 0.232265 -0.0133777 0.0906427 0.16646 0.0438082 0.0249717 0.00289619 0.0109687 0.196468 0.221454 0.0680084 0.213318 0.0234974 0.116047 0.0591111 0.166766 0.156995 0.148645 0.0528123 0.0111495 0.2543 0.155687 0.0393992 0.32745 0.064229 0.084304 0.101983 0.131972 0.12235 0.210667 0.22505 0.227522 0.111092 0.133047 0.0438157 0.0100079 0.010526 0.0166744 0.0478981 0.0781712 0.0825273 0.0568208 0.295523 0.137833 0.0441201 0.133358 0.146117 0.188578 0.246397
internal_weight=0 343106 9639 51226 291880 2756 6883 37917 5479 13309 1404 80784 2710 1336 211096 2769 1222 9523 15231 36176 6721 16 1141 3786 994 14465 2229 2130 481 1058 859 766 22686 182 413 7393 1420 3407 2413 379 168 159 978 559 164 1960 64 5000 20718 6705 3301 3759 1823 1592 2066 195 309 3073 246 209 167 48
internal_count=352745 343106 9639 51226 291880 2756 6883 37917 5479 13309 1404 80784 2710 1336 211096 2769 1222 9523 15231 36176 6721 16 1141 3786 994 14465 2229 2130 481 1058 859 766 22686 182 413 7393 1420 3407 2413 379 168 159 978 559 164 1960 64 5000 20718 6705 3301 3759 1823 1592 2066 195 309 3073 246 209 167 48
is_linear=0
shrinkage=0.05


Tree=5
num_leaves=63
num_cat=0
split_feature=38 35 44 40 35 38 38 40 49 38 35 36 38 49 49 38 62 44 42 53 49 40 72 46 68 44 42 61 36 43 74 62 52 38 6 20 70 48 35 32 44 67 56 23 62 68 52 52 55 35 62 71 65 60 73 38 2 66 46 42 45 36
split_gain=100410 19879.7 18035.5 4456.8 2785.04 2251.44 2009.25 739.827 735.662 580.342 386.333 332.91 295.75 275.165 261.977 243.849 241.605 187.394 182.553 195.304 176.414 165.758 161.812 151.472 147.924 147.383 147.044 134.714 130.538 129.099 124.259 122.327 120.355 111.03 110.837 111.143 109.538 108.285 105.946 104.466 104.372 104.178 98.0618 94.0485 93.4535 93.1121 92.0435 89.9948 88.5027 105.511 139.334 104.625 87.9587 87.4685 87.0881 85.6774 85.0878 82.8332 92.1952 80.8542 80.4139 80.2687
threshold=331.95356567983328 77.91435671958935 732.28001786898551 201.77406311035159 30.19316947148269 1019.8687398986063 476.84538903213667 132.153190612793 80.901100171058673 262.37802050186428 50.307743684736813 234.51783636735237 573.67390098249223 68.533417971916052 4.0495401553744168 232.59549531350231 286.71800231933599 363.04758505557822 719.67082138308626 308.25256347656256 40.728915356811576 99.420650482177749 105.9748892032314 1006.5694712183689 163.36101993707351 407.51733903685925 465.45217450606782 668.55795288085949 126.6737076469107 294.21232604980474 162.59301380904154 543.92498779296886 356.63932973158165 159.90881156944207 0.20625000000000004 0.091636996364494308 176.77092810655819 1004.4821166992189 126.72260870195679 0.32777777777777789 471.86534479351536 98.388020685822084 352.60147155605455 0.95000000000000007 679.37301635742199 98.511243228546334 882.28366948512087 639.88681464121123 517.6286954521612 249.3219267223551 362.41017150878912 195.5460367342433 135.48657226562503 435.83679299860404 184.13027439799257 147.46550458034719 0.50000000000000011 101.44860286043392 276.44830491132245 719.67082138308626 75.943422099796578 478.60585188228453
decision_type=2 2 2 2 2 2 2 2 2 2 2 2 2 2 2 2 2 2 2 2 2 2 2 2 2 2 2 2 2 2 2 2 2 2 2 2 2 2 2 2 2 2 2 2 2 2 2 2 2 2 2 2 2 2 2 2 2 2 2 2 2 2
left_child=1 4 6 7 14 11 13 41 18 16 -6 24 -10 26 -1 22 30 21 19 -8 52 -12 -9 39 43 48 -2 32 34 -30 33 60 36 -5 35 -14 -21 47 -24 42 44 55 -13 -4 54 -39 -29 -7 51 50 -50 -15 -11 -20 -22 -3 -41 58 -23 -31 -18 -49
right_child=2 3 5 9 10 37 8 15 12 20 17 23 28 25 -16 -17 31 -19 53 27 40 57 38 -25 -26 -27 -28 46 29 59 -32 -33 -34 -35 -36 -37 -38 45 -40 56 -42 -43 -44 -45 -46 -47 -48 61 49 -51 -52 -53 -54 -55 -56 -57 -58 -59 -60 -61 -62 -63
leaf_value=-0.013994954280175168 0.11136068465914224 0.013746213980878537 0.31483117890872547 0.030153716807102167 -0.0052418129274677469 0.32829432516922186 0.26181034972406414 0.0289873795542347 0.11483159056060438 0.22460411305610953 -0.00016052714968469063 0.28446125462651256 0.17450588246186571 0.081801732181210507 -0.0099731043696179959 0.049478236230838996 0.24099969665209453 0.30765355676412587 0.34816202322642009 0.19146914017342387 0.063432442860903979 0.012422907539779411 0.01388658013038015 0.25584270192283981 0.22894487888921822 0.10118610541140477 0.17776014380437394 0.21934769388105049 0.34870474748313429 0.14012208893433006 0.026045416772709752 0.16989508709311485 0.15012443868300496 0.045165347275661849 0.14260301799291658 0.37095228698518545 0.34956307510534923 0.35350282664568922 0.023310985953718635 0.14860623245653901 0.14570220982552404 0.0076203118468995334 0.18911029522311051 0.18305003146330517 0.2572670546670755 0.31223516216084701 0.39972472488880162 0.30821501000286783 0.084693552340779993 0.10323724510424115 0.39015011861920357 0.05090022503941867 0.09228689743662781 0.22901217166421028 0.042135595541039954 0.037151354316001681 0.25270295675788351 0.0027719218822144526 0.17262616670793959 0.17698866539314145 0.05757072150708506 0.24296368255202935
leaf_weight=148501 806 4415 139 1656 44567 81 73 4982 1026 12.999999999999998 30694 28 12.000000000000002 1636 55669 811 5.9999999999999991 4.9999999999999991 24 126 2785 4167 6417 142 126 1162 93 61 7.9999999999999991 794 1677 25 352 4808 21 18 11.999999999999998 159 5571 23 36 19360 729 14.999999999999998 5.9999999999999991 974 7.9999999999999991 73 6.9999999999999991 81 7.9999999999999991 329 371 43 580 429 134 4114 8.9999999999999982 183 1432 133
leaf_count=148501 806 4415 139 1656 44567 81 73 4982 1026 13 30694 28 12 1636 55669 811 6 5 24 126 2785 4167 6417 142 126 1162 93 61 8 794 1677 25 352 4808 21 18 12 159 5571 23 36 19360 729 15 6 974 8 73 7 81 8 329 371 43 580 429 134 4114 9 183 1432 133
internal_value=0 -0.00447125 0.159157 0.0229618 -0.00975141 0.267242 0.115879 0.01495 0.148887 0.0480737 -0.00206182 0.220652 0.13386 0.0937692 -0.0128984 0.0226938 0.041535 0.00157313 0.193215 0.184895 0.0646387 0.00153387 0.0214137 0.207799 0.269123 0.0869464 0.11823 0.174851 0.152704 0.148665 0.0381732 0.0602424 0.16564 0.0413195 0.230703 0.292374 0.205216 0.311077 0.0182662 0.200335 0.0610176 0.00926114 0.192637 0.301995 0.0601132 0.318026 0.240261 0.283644 0.078918 0.125795 0.247604 0.0766279 0.0967664 0.271693 0.0597617 0.015819 0.237453 0.00780743 0.0127682 0.147027 0.0583361 0.266087
internal_weight=0 343106 9639 55380 287726 2756 6883 41985 2761 13395 83556 1336 2062 4122 204170 17781 9604 38989 699 632 3791 38984 16970 1056 280 3223 899 559 1036 985 8141 1463 490 6464 51 30 138 1420 11988 914 3407 24204 757 154 3371 1133 69 287 2061 96 15 1965 384 67 3365 4844 157 8290 4176 977 1438 206
internal_count=352745 343106 9639 55380 287726 2756 6883 41985 2761 13395 83556 1336 2062 4122 204170 17781 9604 38989 699 632 3791 38984 16970 1056 280 3223 899 559 1036 985 8141 1463 490 6464 51 30 138 1420 11988 914 3407 24204 757 154 3371 1133 69 287 2061 96 15 1965 384 67 3365 4844 157 8290 4176 977 1438 206
is_linear=0
shrinkage=0.05


Tree=6
num_leaves=63
num_cat=0
split_feature=38 40 38 38 35 38 38 61 40 35 35 64 64 40 36 38 49 36 64 35 42 64 64 46 54 47 42 46 43 47 67 62 40 72 49 53 67 40 45 3 61 42 49 35 74 60 43 61 66 54 65 3 72 66 49 51 11 19 57 75 67 38
split_gain=90683.7 20087 13421.3 3925.63 3689.93 2053.59 1139.81 697.217 540.383 517.031 429.978 401.142 380.448 319.633 309.623 268.211 255.615 203.948 203.321 192.045 190.723 184.085 182.515 164.723 159.238 156.599 150.646 144.043 129.898 129.703 125.216 123.696 117.681 103.844 114.847 123.066 102.576 115.779 102.463 112.589 101.63 98.2619 103.574 97.7626 109.755 92.2009 91.2879 90.4347 114.878 111.888 95.287 88.5008 87.9832 87.1479 86.9323 86.4745 85.3941 82.0458 80.7797 80.2456 79.6682 102.868
threshold=367.71654720940097 118.95767974853517 733.03707608024718 211.58546137393563 40.377275369944307 1019.8687398986063 573.67390098249223 159.28532409667972 296.92768859863287 17.009727021727617 71.92960046709085 227.97026824951175 334.98634338378912 228.09697723388675 163.07241901470897 413.86265826838354 68.533417971916052 183.79023109038482 182.27568054199222 71.92960046709085 357.48846459193521 428.57933044433599 166.88420104980472 1006.5694712183689 76.272527923865042 402.11154715273 562.0839237589247 466.26158117984403 259.92353820800787 561.16007074789684 100.58015046302025 307.69599914550787 165.68766021728518 152.92743255543465 40.728915356811576 91.399387359619155 244.55523797606733 380.07421875000006 103.38658570588217 0.039956789692075556 668.55795288085949 1011.7369151415538 38.84908408043691 166.04855570902461 137.24007852320173 165.44516228172208 342.03416442871099 931.10073852539074 168.52882589226752 477.18295839090678 613.67645263671886 0.046824087393158943 154.47356520240552 95.509893977529472 44.849829729507164 350.76704923657582 0.5921052631578948 0.22791245259533904 144.10327911376956 198.01205177363536 98.388020685822084 262.37802050186428
decision_type=2 2 2 2 2 2 2 2 2 2 2 2 2 2 2 2 2 2 2 2 2 2 2 2 2 2 2 2 2 2 2 2 2 2 2 2 2 2 2 2 2 2 2 2 2 2 2 2 2 2 2 2 2 2 2 2 2 2 2 2 2 2
left_child=1 4 6 7 9 14 11 19 18 -1 -6 43 24 25 -4 -13 26 40 20 -3 33 46 53 41 -8 32 -17 36 -20 -18 -21 -15 -9 34 35 57 37 -24 39 -33 55 42 -23 44 -2 -19 -16 49 -49 50 -7 -28 -34 -10 -22 -14 -37 -5 -58 -40 61 -12
right_child=2 3 5 8 10 47 12 13 22 -11 60 15 17 31 21 16 29 45 28 30 54 23 27 -25 -26 -27 51 -29 -30 -31 -32 38 52 -35 -36 56 -38 -39 59 -41 -42 -43 -44 -45 -46 -47 -48 48 -50 -51 -52 -53 -54 -55 -56 -57 58 -59 -60 -61 -62 -63
leaf_value=-0.013023941105325752 0.16972349160350861 0.001870843649102208 0.27602962852975765 0.30190224376591762 -0.0014368988842601953 0.35517153665423395 0.28541490070025127 0.017906670454618096 0.16816947855055334 -0.0076387103251306827 0.011645830244296072 0.081400891053789837 0.35791288614273076 0.03924094149409163 0.4052541949532249 0.13251293418019727 0.097143698194263398 0.33564341664314273 0.034890849978335949 0.022727823409318091 0.33171614749091016 0.24616861432790757 0.062333222093847999 0.24315237033795689 0.18055795377918654 0.30372308423859073 0.30358847767114638 0.14061916695191309 0.051205266725347559 0.13197339374394643 0.012483143038447282 0.035122522115707405 0.0317956455110259 0.030251900140480587 0.055950123090963602 0.067303944833560697 0.043269176062286009 0.083069994750120321 0.077168286258213065 0.34577467100960863 0.25067265737107242 0.24650193948012133 0.17809162187204225 0.14188376820954193 0.29707018551619158 0.13906626134323516 0.2511433819014775 0.32131127944359417 0.2886951519223076 0.23030181583368556 0.27513023256804003 0.17364612225639195 0.018238752787020706 0.093493970986829877 0.13603378032644592 0.16382832390284449 0.025351479922731721 0.091459644259884953 0.15529821464570903 -0.002616139967237056 0.0051366320273714648 0.1808216417829196
leaf_weight=167970 64 3243 154 11.000000000000002 48180 48 75 4758 60 60669 5581 1205 5.9999999999999991 2492 10.999999999999998 422 1765 5.9999999999999991 3288 4108 6.9999999999999991 60 2189 153 70 4.9999999999999991 20 65 1940 315 10888 4.9999999999999982 4680 276 1081 233 453 972 253 7 59 65 812 251 23 1022 76 468 638 106 165 38 1608 112 30 132 14.999999999999998 7.9999999999999991 59 36 19225 8.9999999999999982
leaf_count=167970 64 3243 154 11 48180 48 75 4758 60 60669 5581 1205 6 2492 11 422 1765 6 3288 4108 7 60 2189 153 70 5 20 65 1940 315 10888 5 4680 276 1081 233 453 972 253 7 59 65 812 251 23 1022 76 468 638 106 165 38 1608 112 30 132 15 8 59 36 19225 9
internal_value=0 -0.00391808 0.164035 0.0281022 -0.00847026 0.254019 0.118722 0.0193253 0.0541777 -0.011595 0.00131714 0.105537 0.15821 0.0277856 0.20936 0.100852 0.110008 0.149145 0.0458508 0.0129036 0.0607627 0.200637 0.0692013 0.195051 0.234794 0.0239662 0.142897 0.0668477 0.0409448 0.102418 0.0152896 0.0428979 0.0238395 0.0582941 0.0637949 0.0898076 0.0655209 0.0687097 0.0731742 0.216336 0.195749 0.187197 0.182776 0.157715 0.20339 0.140214 0.270629 0.295732 0.302497 0.272278 0.293168 0.218454 0.0283288 0.119544 0.173055 0.172267 0.0821651 0.213295 0.128958 0.0672297 0.0066643 0.0119182
internal_weight=0 344516 8229 42882 301634 2756 5473 32083 10799 228639 72995 4103 1370 13844 1331 3765 2560 1225 6948 18239 1720 1177 3851 1090 145 11051 480 3679 5228 2080 14996 2793 11046 1683 1407 326 3614 3161 301 12 197 937 872 338 87 1028 87 1425 1106 319 213 58 6288 172 37 138 307 19 74 289 24815 5590
internal_count=352745 344516 8229 42882 301634 2756 5473 32083 10799 228639 72995 4103 1370 13844 1331 3765 2560 1225 6948 18239 1720 1177 3851 1090 145 11051 480 3679 5228 2080 14996 2793 11046 1683 1407 326 3614 3161 301 12 197 937 872 338 87 1028 87 1425 1106 319 213 58 6288 172 37 138 307 19 74 289 24815 5590
is_linear=0
shrinkage=0.05


Tree=7
num_leaves=63
num_cat=0
split_feature=38 35 44 40 35 47 38 49 38 44 35 64 49 54 38 40 40 40 62 37 42 53 64 61 64 58 64 44 44 71 11 42 49 44 61 53 37 56 24 38 46 38 54 14 52 38 66 53 11 62 64 71 44 61 49 64 65 71 54 44 10 6
split_gain=81878.1 16260 14751.5 3342.85 2537.81 1820.33 1628.27 622.468 535.267 489.483 363.129 317.574 296.72 239.325 234.416 198.907 192.203 183.148 175.239 197.015 171.324 169.989 165.857 162.154 152.32 143.558 143.543 141.007 136.939 124.432 123.268 121.18 121.178 120.861 117.999 114.273 110.212 109.815 125.101 107.381 106.614 105.949 102.031 140.021 101.586 96.3325 94.4892 91.67 89.7203 89.6935 88.6573 88.0501 85.0544 84.7456 83.876 82.7317 82.5147 82.0916 80.6274 80.2086 90.7289 75.3591
threshold=331.95356567983328 81.777467192713317 732.28001786898551 201.77406311035159 31.214826451009763 1018.0456891840234 476.84538903213667 88.411007651385589 155.50183314581992 245.96667857506915 54.320070277312077 217.89358520507815 107.81515389175486 2.1788973874459292 573.67390098249223 380.07421875000006 421.78892517089849 135.0732116699219 332.63917541503912 55.036416106954185 719.67082138308626 308.25256347656256 136.14614868164065 114.23256683349611 188.3394470214844 905.95663269334875 334.98634338378912 363.04758505557822 1025.1739381973537 180.13530293986426 0.69736842105263164 465.45217450606782 97.797440778101205 261.89908729480226 931.10073852539074 410.61819458007818 284.41035987246545 636.44369307079864 0.71739130434782616 232.59549531350231 401.24171324076451 262.37802050186428 45.272148756844871 0.52069842738205385 639.88681464121123 733.03707608024718 168.52882589226752 694.82189941406261 0.90789473684210531 679.37301635742199 334.98634338378912 164.34519182471249 471.86534479351536 228.2928161621094 26.127210882693614 375.63719177246099 613.67645263671886 180.13530293986426 21.900209211208111 363.04758505557822 0.1511505172049821 0.49375000000000008
decision_type=2 2 2 2 2 2 2 2 2 2 2 2 2 2 2 2 2 2 2 2 2 2 2 2 2 2 2 2 2 2 2 2 2 2 2 2 2 2 2 2 2 2 2 2 2 2 2 2 2 2 2 2 2 2 2 2 2 2 2 2 2 2
left_child=1 4 6 8 13 12 11 20 17 18 -6 -2 36 -1 50 24 31 -3 29 30 21 -8 33 -12 40 47 -16 54 35 41 58 37 -18 -10 44 -14 -4 57 -39 -24 59 53 43 -17 -7 -28 61 55 -37 -44 -9 52 -26 -5 -25 -23 -30 -13 -20 -11 -61 -36
right_child=2 3 5 9 10 34 7 14 22 15 23 16 28 -15 26 42 32 -19 19 -21 -22 25 39 27 51 -27 45 -29 56 -31 -32 -33 -34 -35 46 48 -38 38 -40 -41 -42 -43 49 -45 -46 -47 -48 -49 -50 -51 -52 -53 -54 -55 -56 -57 -58 -59 -60 60 -62 -63
leaf_value=-0.012690402654085537 0.12412604309650783 0.0083289790611898173 0.26040698186390931 0.030022622765779907 -0.0041356160140693012 0.30379434760411583 0.23417009606193276 0.13676738011597464 0.035452450533163246 0.070984861812527472 0.00085891686818165476 0.071789154657692561 0.3253943828436045 -0.008971844541334725 0.20551708220371179 0.33624567644936698 0.11773590200878772 0.016957427422030141 0.0054515029088808946 0.0529290485621563 0.24496912886835123 0.17362487603758658 0.019116530335973752 0.021737348702255924 0.051918755260606221 0.33498454093933105 0.12339605168380852 0.25168672949075699 0.33706734312905207 0.015509254316774929 0.2854280655200665 0.11260545013780975 0.08502078348618701 0.11572687373263763 0.30838171387841173 0.17132430776289664 0.20676440986436467 0.40896716117858889 0.090149521754938178 0.038896357677917826 0.30713780224323273 0.056481699006192355 0.068882717740831087 0.10689781428056044 0.2366751109122705 0.1644207653205442 0.27609353881654752 0.20067737618851111 0.23291468500392512 0.26321310003598536 0.09556885227567738 0.033996694272610255 0.19799120662733916 0.041649766243106456 0.0067487565988355079 0.13152650772562166 0.21884694514659847 0.046926004582866769 0.1492349929916553 0.08078642773131528 0.29079672098159792 0.16229653093549942
leaf_weight=145372 454 19780 216 3929 48726 75 78 155 2026 486 29325 1727 12.999999999999998 61606 70 6.9999999999999991 403 8925 12.999999999999998 350 73 172 6369 1115 2891 10.999999999999998 747 5.9999999999999991 18 782 12.999999999999998 163 951 48 462 777 172 4.9999999999999991 7.9999999999999991 769 4.9999999999999991 608 572 135 227 177 641 86 64 5.9999999999999991 829 835 9.9999999999999982 2607 5730 363 82 411 39 12.000000000000002 8.9999999999999982 8.9999999999999982
leaf_count=145372 454 19780 216 3929 48726 75 78 155 2026 486 29325 1727 13 61606 70 7 403 8925 13 350 73 172 6369 1115 2891 11 747 6 18 782 13 163 951 48 462 777 172 5 8 769 5 608 572 135 227 177 641 86 64 6 829 835 10 2607 5730 363 82 411 39 12 9 9
internal_value=0 -0.00403762 0.143721 0.0219444 -0.00859756 0.241473 0.104581 0.134295 0.0143771 0.0435033 -0.00131807 0.084678 0.199761 -0.0115836 0.119358 0.055928 0.0797954 0.0110117 0.0361031 0.0677753 0.172029 0.16453 0.0248639 0.00247693 0.0518091 0.155935 0.136484 0.00940266 0.184768 0.0344447 0.147717 0.0710403 0.094758 0.0373103 0.28106 0.178285 0.236627 0.0678905 0.212772 0.0212475 0.0773846 0.0365175 0.0802293 0.118204 0.253344 0.131255 0.288587 0.152763 0.176011 0.0709 0.102058 0.0483041 0.0524223 0.0346603 0.00919029 0.145061 0.240127 0.0670096 0.113289 0.0751188 0.170791 0.30559
internal_weight=0 343106 9639 51226 291880 2756 6883 2761 37917 13309 84902 4122 1342 206978 1978 4968 3668 28705 8341 415 783 710 9212 36176 4248 632 994 6851 954 7926 65 2314 1354 2074 1414 854 388 2151 13 7138 512 7144 720 142 302 924 1112 621 841 578 984 3736 2901 6536 6845 535 100 2138 52 507 21 471
internal_count=352745 343106 9639 51226 291880 2756 6883 2761 37917 13309 84902 4122 1342 206978 1978 4968 3668 28705 8341 415 783 710 9212 36176 4248 632 994 6851 954 7926 65 2314 1354 2074 1414 854 388 2151 13 7138 512 7144 720 142 302 924 1112 621 841 578 984 3736 2901 6536 6845 535 100 2138 52 507 21 471
is_linear=0
shrinkage=0.05


Tree=8
num_leaves=63
num_cat=0
split_feature=38 35 38 44 35 38 38 40 40 64 64 35 40 36 44 44 38 46 36 64 38 36 49 54 68 54 49 46 35 49 71 23 49 71 21 43 42 53 68 23 42 42 53 47 35 74 37 56 49 42 46 72 60 13 44 49 64 69 43 35 53 66
split_gain=73938 16413.7 10939.7 3688.29 2480.14 1692.07 920.064 836.12 490.001 337.331 317.385 317.301 314.004 268.243 224.923 198.411 177.913 177.892 172.234 162.912 160.002 188.252 155.552 152.431 143.278 142.435 141.485 135.836 132.387 129.404 127.086 114.38 107.395 109.106 104.747 130.829 104.73 104.346 103.501 102.259 94.7741 90.8866 89.9198 88.0857 87.1597 99.0442 87.3603 86.4999 84.6076 86.1181 83.209 82.9401 82.6674 82.2887 112.17 80.4965 79.96 79.8449 79.7817 79.068 78.2682 96.2795
threshold=367.71654720940097 84.465724570281836 733.03707608024718 211.19547236418728 36.13971185370675 1019.8687398986063 573.67390098249223 165.68766021728518 296.92768859863287 227.97026824951175 334.98634338378912 15.207050540763904 87.478046417236342 163.07241901470897 567.9697982482038 363.04758505557822 232.59549531350231 296.52101316706586 183.79023109038482 428.57933044433599 413.86265826838354 141.7237587447124 39.487224550741288 43.811548661379298 122.79171864255983 76.272527923865042 48.579163228770788 1006.5694712183689 114.81851210743748 93.746987776863421 189.35917671008028 0.41666666666666674 8.9233461462681287 180.13530293986426 0.72222222222221444 123.97636032104494 219.29578997467516 139.47636413574222 214.9989934797679 0.71666666666666667 230.23688491667875 465.45217450606782 990.30981445312511 465.3934132721439 166.04855570902461 134.16122127393064 37.220329310812687 281.52127902582566 25.698934018314745 1011.7369151415538 466.26158117984403 161.7088119394509 165.44516228172208 0.52822580645161299 407.51733903685925 39.487224550741288 166.88420104980472 276.22321818538757 342.03416442871099 52.700834474075791 990.30981445312511 225.86011876567193
decision_type=2 2 2 2 2 2 2 2 2 2 2 2 2 2 2 2 2 2 2 2 2 2 2 2 2 2 2 2 2 2 2 2 2 2 2 2 2 2 2 2 2 2 2 2 2 2 2 2 2 2 2 2 2 2 2 2 2 2 2 2 2 2
left_child=1 4 6 7 11 13 9 26 15 44 25 -1 59 -4 20 22 24 34 42 58 -11 41 -5 43 55 -8 -3 47 -28 30 -16 -19 33 -26 35 -14 -33 40 -24 51 -18 -22 57 56 45 -2 -47 -21 -49 -50 -25 -23 -20 54 -43 -9 -10 -12 -15 -6 -7 -62
right_child=2 3 5 8 12 60 10 16 23 14 18 -13 17 19 29 -17 37 31 52 27 21 39 38 50 32 -27 28 -29 -30 -31 -32 36 -34 -35 -36 -37 -38 -39 -40 -41 -42 53 -44 -45 -46 46 -48 48 49 -51 -52 -53 -54 -55 -56 -57 -58 -59 -60 -61 61 -63
leaf_value=-0.011823597129338469 0.1515072673925611 0.023973714973861155 0.25087408547277573 0.064390467999976858 -0.0038990352467464895 0.24448087653986189 0.26051029809316001 0.047091473066797285 0.14093151626875625 0.072192750788525634 0.17961603196743647 -0.0074509847195166892 0.0049156909839711098 0.37239924127405344 0.15315458124483028 0.087326396342926563 0.077140514765466961 -0.0087961522596222974 0.3112486322720846 0.34341819116047456 0.10895234170211009 0.10644975910246901 0.03929105805649568 0.057874239079401993 0.18027042698115109 0.16133981154965504 0.0076228398936260466 0.21912557039397701 0.015388288455200669 0.10951397610588701 0.31497335008212501 0.37328542641231 0.018723774642943912 -0.029361395372284785 0.00022209868873690757 0.016833777655076317 0.088607757786909727 0.043336202070947585 0.018088357472802515 0.070576379586775165 0.22465107066423765 0.42485124667485552 0.36782530744870506 0.23388801813125612 0.12826167124238205 0.15212080441415307 0.34050898477435115 0.24006186206089822 0.15959890791295328 0.22023792744628967 0.11830374341586541 0.080555684729671381 0.12511162163994782 0.13814510614417183 0.1866232545514192 0.028581680537221633 0.078014480261288863 0.046388717864950496 0.22832776117873821 -8.5159773507455342e-05 0.2860692797681928 0.2565720017930847
leaf_weight=163859 61 1968 154 570 29856 299 75 669 56 1189 179 55555 9939 10.999999999999998 91 223 49 7.0000000000000027 5.9999999999999991 6.9999999999999991 217 788 5563 3194 20.000000000000004 70 17492 153 7998 276 13.999999999999998 6.9999999999999982 5181 8.9999999999999982 7412 2997 6 891 642 551 13.999999999999998 5.9999999999999991 5.9999999999999991 9.9999999999999982 251 10.000000000000002 15.999999999999998 38 829 63 58 509 1022 96 28 4814 514 11.999999999999998 76 24943 637 489
leaf_count=163859 61 1968 154 570 29856 299 75 669 56 1189 179 55555 9939 11 91 223 49 7 6 7 217 788 5563 3194 20 70 17492 153 7998 276 14 7 5181 9 7412 2997 6 891 642 551 14 6 6 10 251 10 16 38 829 63 58 509 1022 96 28 4814 514 12 76 24943 637 489
internal_value=0 -0.00353787 0.148117 0.0229696 -0.0080312 0.229357 0.107207 0.0158184 0.0487911 0.0953611 0.142685 -0.0107165 -0.000192858 0.18882 0.0910655 0.040921 0.0270441 0.00510787 0.134405 0.1807 0.0869649 0.0949667 0.0393936 0.0631635 0.0251983 0.212635 0.0110567 0.175445 0.0100594 0.127487 0.17473 0.154154 0.0192609 0.115212 0.00496138 0.00767686 0.241896 0.0477333 0.0370973 0.0886217 0.109921 0.128758 0.177233 0.0867767 0.14321 0.186337 0.268052 0.168312 0.166994 0.163882 0.058952 0.0962878 0.126198 0.161819 0.228663 0.0308401 0.0841958 0.171246 0.246544 -0.00216306 0.267221 0.273259
internal_weight=0 344516 8229 49935 294581 2756 5473 39105 10830 4103 1370 219414 75167 1331 3765 6998 11647 20368 1225 1177 3384 2195 6775 3832 10693 145 27458 1090 25490 381 105 20 5210 29 20348 12936 13 954 6205 1848 63 347 197 580 338 87 26 937 930 892 3252 1297 1028 130 34 5483 570 191 87 54799 1425 1126
internal_count=352745 344516 8229 49935 294581 2756 5473 39105 10830 4103 1370 219414 75167 1331 3765 6998 11647 20368 1225 1177 3384 2195 6775 3832 10693 145 27458 1090 25490 381 105 20 5210 29 20348 12936 13 954 6205 1848 63 347 197 580 338 87 26 937 930 892 3252 1297 1028 130 34 5483 570 191 87 54799 1425 1126
is_linear=0
shrinkage=0.05


Tree=9
num_leaves=63
num_cat=0
split_feature=38 44 35 40 35 38 47 49 48 64 39 35 49 44 38 54 54 68 68 44 68 43 40 58 62 61 11 64 40 42 64 63 47 62 36 13 63 36 49 36 43 64 49 42 35 38 49 6 45 49 61 35 18 64 54 36 54 60 52 55 42 36
split_gain=66788.1 13838.3 11938.3 2384.56 1853.54 1732.89 1480.82 523.377 411.769 357.05 327.3 260.52 253.112 251.265 182.631 180.753 156.797 154.677 153.407 142.42 137.265 134.02 129.252 126.51 125.351 122.851 119.373 130.914 119.234 138.011 118.686 110.811 106.711 105.126 103.79 99.8795 140.598 98.4599 97.759 96.1885 94.1689 93.9083 85.5473 85.1148 85.5083 83.5212 81.552 81.0507 80.1892 80.1731 137.629 83.1442 79.1053 78.4352 78.0387 77.6049 77.5602 76.8027 76.4046 73.2401 73.0803 72.5498
threshold=304.5428960841831 732.28001786898551 77.91435671958935 181.444450378418 30.19316947148269 476.84538903213667 1018.0456891840234 88.411007651385589 256.66152954101568 182.27568054199222 135.79287619588919 50.307743684736813 107.81515389175486 407.51733903685925 573.67390098249223 5.45096583451586 202.87724797371226 121.10739467984108 112.81243191067723 363.04758505557822 244.78167670267644 987.78674316406261 477.81150817871099 396.85880895230673 455.49012756347662 108.5242156982422 0.90789473684210531 428.57933044433599 296.92768859863287 719.67082138308626 334.98634338378912 149.03058624267581 561.16007074789684 963.64346313476574 234.51783636735237 0.15725806451612906 323.88311767578131 122.92089444950457 51.814499620971553 109.13607915369492 199.45035552978518 201.26399993896487 41.382387154421636 465.45217450606782 214.81156857717167 1019.8687398986063 39.487224550741288 0.35625000000000012 895.41213455240074 11.398345262892382 369.60385131835943 134.03538716193094 0.89130434782608703 334.98634338378912 78.581808442078014 362.43046803820454 9.9796184550242071 514.72901277222456 326.55585189467223 321.84729644132557 323.50177629425036 741.42979128998593
decision_type=2 2 2 2 2 2 2 2 2 2 2 2 2 2 2 2 2 2 2 2 2 2 2 2 2 2 2 2 2 2 2 2 2 2 2 2 2 2 2 2 2 2 2 2 2 2 2 2 2 2 2 2 2 2 2 2 2 2 2 2 2 2
left_child=2 5 4 10 15 9 12 16 17 31 38 -6 34 20 53 -1 21 23 42 25 22 28 -11 40 41 -13 27 -14 52 48 -16 -2 -15 55 -3 -34 -37 -32 -4 -26 -5 56 59 -33 -45 -29 -24 -25 58 50 -19 -51 -7 -9 61 -8 -10 -31 -30 -12 -20 -47
right_child=1 6 3 8 11 7 33 14 24 13 18 19 26 32 30 -17 -18 49 60 -21 -22 -23 46 47 39 -27 -28 45 29 57 37 43 35 -35 -36 36 -38 -39 -40 -41 -42 -43 -44 44 -46 54 -48 -49 -50 51 -52 -53 -54 -55 -56 -57 -58 -59 -60 -61 -62 -63
leaf_value=-0.011415206796398916 0.1869601054875939 0.24420628409300532 0.017236732962772179 0.028045181962783657 -0.0042923577542691672 0.28894213557243348 0.26848962234484181 0.1248037284324246 0.1317086911191129 0.062817679401468027 0.039514555498282825 -8.6858575728839143e-05 0.24340184036156406 0.0836154976789205 0.18531501322552296 -0.0080448271259502668 0.10918353577556253 0.057706274855881937 0.012547657340510844 0.26813921034336091 0.03625440657406033 0.42432379245758062 0.17276956804774024 0.092116186980690268 0.15040338956275767 0.007077220650299202 0.22440724914393773 0.15114055615273261 0.18363518336721296 0.28365612588822842 0.21011717207729819 0.10271199848524321 0.36131363034248354 0.26037492504152931 0.19206611992100178 0.31385260290569733 0.10169126944635183 0.11490275725289914 0.0063774253031727655 0.061445703364443043 0.041619364726195936 0.041610977304119057 0.021364517167384661 0.31169996619224538 0.08384967531476703 0.32833865880966184 0.088786215159758264 0.28857378661632538 0.25748800056822158 0.013093374942912812 0.33074272692203527 0.026390539703887057 0.1321920470757918 0.086053000052602219 0.17499211668310799 0.20795148999670579 0.056775057687200918 0.16915032620783207 0.13693815715592447 0.20220292040279936 0.098161503631621599 0.11304517745971682
leaf_weight=150037 54 168 2288 2622 44567 30 74 155 36 2957 590 31600 46 1394 70 54133 147 60 8419 4.9999999999999991 447 4.9999999999999991 33 21.000000000000004 49 7382 82 735 112 32 28 285 4.9999999999999991 1154 221 8.9999999999999982 59 896 22003 80 2492 3554 4853 10.000000000000002 6.9999999999999991 18.000000000000004 233 6.9999999999999991 17 1597 4.9999999999999991 4455 10.999999999999998 829 68 186 847 27 402 6.9999999999999991 25 4.9999999999999991
leaf_count=150037 54 168 2288 2622 44567 30 74 155 36 2957 590 31600 46 1394 70 54133 147 60 8419 5 447 5 33 21 49 7382 82 735 112 32 28 285 5 1154 221 9 59 896 22003 80 2492 3554 4853 10 7 18 233 7 17 1597 5 4455 11 829 68 186 847 27 402 7 25 5
internal_value=0 0.121205 -0.00390534 0.0176646 -0.00795433 0.0888093 0.218192 0.121124 0.0339843 0.0725669 0.0109012 -0.00168104 0.180591 0.0692111 0.107427 -0.0105216 0.155724 0.0288481 0.017022 0.00130402 0.0622197 0.166481 0.0658208 0.0352401 0.0466493 0.0012698 0.166731 0.161307 0.164437 0.158708 0.122543 0.120991 0.0867015 0.253904 0.214584 0.14563 0.129771 0.117788 0.00740028 0.0952358 0.0346597 0.0452367 0.0235617 0.109195 0.217879 0.156735 0.0992052 0.141231 0.150647 0.0234749 0.0787091 0.0228817 0.246887 0.092157 0.201921 0.225182 0.0598301 0.231255 0.147113 0.0414221 0.0128011 0.281536
internal_weight=0 11011 341734 54010 287724 8254 2757 2761 15825 5493 38185 83554 1343 5137 1978 204170 783 11259 13894 38987 3670 636 3223 5142 4566 38982 954 872 631 590 994 356 1467 1414 389 73 68 924 24291 129 5114 4437 5450 302 17 826 266 28 531 6117 65 6052 41 984 91 260 883 59 514 597 8444 23
internal_count=352745 11011 341734 54010 287724 8254 2757 2761 15825 5493 38185 83554 1343 5137 1978 204170 783 11259 13894 38987 3670 636 3223 5142 4566 38982 954 872 631 590 994 356 1467 1414 389 73 68 924 24291 129 5114 4437 5450 302 17 826 266 28 531 6117 65 6052 41 984 91 260 883 59 514 597 8444 23
is_linear=0
shrinkage=0.05


Tree=10
num_leaves=63
num_cat=0
split_feature=38 40 44 38 36 38 38 49 61 40 39 64 36 40 54 64 38 64 40 53 61 61 46 54 42 64 62 40 49 42 56 24 74 71 62 43 42 36 6 20 68 41 50 59 48 64 42 49 47 44 48 66 43 48 16 53 64 68 69 66 44 69
split_gain=60294.4 11994.5 10878.2 2219.07 1994.08 1346.93 1184.76 474.135 438.877 411.853 399.357 254.395 226.205 202.093 189.868 189.628 160.775 157.378 155.637 130.74 124.5 120.565 120.556 115.561 111.146 116.041 105.456 104.642 103.569 98.6981 96.9538 110.648 93.2776 90.8364 90.0115 87.4676 87.1694 86.4375 93.0231 98.5583 85.286 85.2258 84.8917 83.9835 100.815 87.3671 83.6607 93.9419 82.8985 82.1777 81.9627 77.6913 75.2261 74.9427 80.8454 73.8472 73.4176 72.9753 72.6848 71.6915 90.7481 71.0354
threshold=331.95356567983328 112.48566818237306 732.28001786898551 194.68373427488896 24.102853638272229 1019.8687398986063 476.84538903213667 80.901100171058673 144.42417144775393 279.19715881347662 69.14083898158016 217.89358520507815 183.79023109038482 170.45891571044925 2.1788973874459292 124.25160980224611 573.67390098249223 284.01876831054693 421.78892517089849 410.61819458007818 73.656982421875014 668.55795288085949 1006.5694712183689 43.811548661379298 357.48846459193521 188.3394470214844 286.71800231933599 83.521785736083999 97.797440778101205 465.45217450606782 636.44369307079864 0.71739130434782616 126.75766940970045 167.53468666278511 679.37301635742199 294.21232604980474 719.67082138308626 126.6737076469107 0.20625000000000004 0.091636996364494308 112.81243191067723 132.36897021974536 136.20899595259496 278.78038855755881 1004.4821166992189 640.31295776367199 1011.7369151415538 110.85726643547886 465.3934132721439 261.89908729480226 336.36993408203131 190.9243855560899 259.92353820800787 1004.4821166992189 0.66604010025062654 308.25256347656256 188.3394470214844 98.511243228546334 236.2263725788716 125.73986737024313 302.01643230220481 149.59215220322693
decision_type=2 2 2 2 2 2 2 2 2 2 2 2 2 2 2 2 2 2 2 2 2 2 2 2 2 2 2 2 2 2 2 2 2 2 2 2 2 2 2 2 2 2 2 2 2 2 2 2 2 2 2 2 2 2 2 2 2 2 2 2 2 2
left_child=1 4 6 8 14 12 11 17 20 15 -6 -2 43 59 -1 -5 58 -8 29 -14 -3 36 46 48 33 49 40 -12 61 30 -13 -32 41 52 -25 -18 55 38 39 -37 -15 -22 50 -4 45 -45 47 -21 -11 -26 -28 -47 56 54 -7 -19 -17 -55 -9 60 -10 -20
right_child=2 3 5 9 10 53 7 16 13 23 27 18 19 26 -16 24 35 21 28 22 32 -23 -24 34 25 -27 42 -29 -30 -31 31 -33 -34 -35 -36 37 -38 -39 -40 -41 -42 -43 -44 44 -46 51 -48 -49 -50 -51 -52 -53 -54 57 -56 -57 -58 -59 -60 -61 -62 -63
leaf_value=-0.010881529939938146 0.10805005821161431 -0.0037033975059577286 0.37017654577891035 0.062092406691767646 -0.0039764692799767187 0.19058917101989264 0.20052539807881498 0.095050683632620273 0.0181428304843388 0.070407865559493785 0.00027510111469833723 0.056824591531178081 0.29641846683290274 0.030756389837667205 -0.0074939164663587483 0.036958009151327104 0.25714011883193794 0.24571899622678758 0.089976837273109067 0.18064292445113617 0.0093469818983269101 0.1917839856899303 0.2016837662061701 0.048079704404666468 0.31318992227315889 0.055041345963254579 0.073687849286943677 0.0053430887364483088 0.072835717164800182 0.098006848380415262 0.37829988718032842 0.078464254271239042 0.0039912299817495061 0.016342432784821833 0.24191548824310305 0.13140743573506672 0.20643928291495231 0.11217436892919389 0.098540838807821274 0.3209666602313519 0.019678260814049782 0.018813520540376279 0.041486165115692607 0.22612664416432382 0.29943716238284934 0.18187134806499927 0.20753730333903256 0.14151025818900292 0.25719791054725649 0.10951384007930756 0.21820333233246436 0.046260217364345282 0.042650273306526779 0.27836757624674141 0.24371830153465274 0.11997250266722403 0.024600538381504028 0.24183376936635931 0.059827782807208733 0.0089751189466289686 0.23126412689685824 0.13670963818141449
leaf_weight=145310 454 1909 8.9999999999999982 503 53253 137 129 849 4866 593 22339 2138 18 2971 57821 1921 10.999999999999998 11.999999999999998 290 196 7468 92 154 3332 8.0000000000000018 80 40 18721 951 163 4.9999999999999991 7.9999999999999991 4782 1089 5.9999999999999991 12.000000000000002 34 977 20 15.999999999999998 4184 3488 371 100 29 43 68 705 5.9999999999999991 12.999999999999998 12.999999999999998 13.999999999999998 1310 159 150 432 3211 974 177 3493 4.9999999999999991 113
leaf_count=145310 454 1909 9 503 53253 137 129 849 4866 593 22339 2138 18 2971 57821 1921 11 12 290 196 7468 92 154 3332 8 80 40 18721 951 163 5 8 4782 1089 6 12 34 977 20 16 4184 3488 371 100 29 43 68 705 6 13 13 14 1310 159 150 432 3211 974 177 3493 5 113
internal_value=0 -0.00346481 0.123332 0.0203952 -0.00712768 0.207275 0.089721 0.115067 0.0137874 0.0387815 -0.00111952 0.0727434 0.171238 0.0198003 -0.00991725 0.0323568 0.103004 0.150655 0.0683734 0.162733 0.00835502 0.139368 0.16059 0.0520569 0.030397 0.0825001 0.025714 0.00258581 0.0818377 0.0604949 0.0576523 0.193786 0.00981769 0.0296982 0.0484281 0.116898 0.12928 0.115393 0.180899 0.239727 0.0242783 0.0123608 0.0499423 0.221005 0.213787 0.197967 0.154059 0.150023 0.0722789 0.187105 0.109135 0.148563 0.031956 0.24118 0.218357 0.123371 0.0292262 0.246961 0.0889742 0.0144416 0.0183616 0.103081
internal_weight=0 343106 9639 45662 297444 2756 6883 2761 33590 12072 94313 4122 1336 15943 203131 8135 2062 699 3668 1141 17647 570 1123 3937 7632 101 7579 41060 1354 2314 2151 13 15738 7531 3338 1036 478 1025 48 28 7155 10956 424 195 186 157 969 901 599 21 53 57 6442 1420 287 444 5132 1133 1026 8364 4871 403
internal_count=352745 343106 9639 45662 297444 2756 6883 2761 33590 12072 94313 4122 1336 15943 203131 8135 2062 699 3668 1141 17647 570 1123 3937 7632 101 7579 41060 1354 2314 2151 13 15738 7531 3338 1036 478 1025 48 28 7155 10956 424 195 186 157 969 901 599 21 53 57 6442 1420 287 444 5132 1133 1026 8364 4871 403
is_linear=0
shrinkage=0.05


Tree=11
num_leaves=63
num_cat=0
split_feature=38 35 38 40 35 38 44 38 64 38 35 40 35 36 38 49 46 64 45 64 68 37 38 51 68 62 72 40 36 47 51 62 39 64 10 43 44 52 39 67 44 58 69 38 48 60 56 68 38 54 38 10 64 44 43 64 49 47 39 65 37 46
split_gain=54469.1 12170.6 8091.14 2465.44 2146.2 1235.56 658.113 441.833 314.832 310.332 309.172 278.322 246.034 211.271 205.964 184.442 165.615 151.495 141.092 136.523 123.123 121.777 120.645 120.175 119.144 159.624 115.745 113.58 105.785 119.217 110.233 104.903 104.071 103.25 103.165 103.949 102.332 96.2976 89.0858 87.2801 86.8494 84.5793 83.4 81.3194 80.1341 79.3899 78.3361 77.7708 77.1426 90.243 74.7234 71.8716 71.3706 124.363 71.0497 70.9499 70.1947 73.8242 69.2821 68.2013 67.6302 67.2346
threshold=367.71654720940097 90.399278006485588 733.03707608024718 228.09697723388675 40.377275369944307 1019.8687398986063 567.9697982482038 159.90881156944207 227.97026824951175 262.37802050186428 17.596469229009671 97.796073913574233 348.50935643103816 362.43046803820454 476.84538903213667 28.335510511259411 296.52101316706586 227.97026824951175 171.32337302459112 151.04649353027347 98.511243228546334 125.39818216515725 140.09787678637318 170.22723183270131 198.61914563014315 455.49012756347662 110.64374346031782 380.07421875000006 65.459486933656777 323.03700075347075 452.50033787654519 963.64346313476574 294.00364239843572 505.91967773437506 0.31750052776018584 374.40774536132818 261.89908729480226 882.28366948512087 152.67151564913925 66.04130664731791 732.28001786898551 396.85880895230673 401.49821481664475 476.84538903213667 559.06405639648449 625.51516803773609 281.52127902582566 86.497205049779595 155.50183314581992 1.1966956807400815 232.59549531350231 0.17014988389275917 92.242931365966811 245.96667857506915 415.09513854980474 334.98634338378912 53.513399109909052 357.00829091680703 71.126648276016496 295.11434936523443 125.39818216515725 715.36779819194578
decision_type=2 2 2 2 2 2 2 2 2 2 2 2 2 2 2 2 2 2 2 2 2 2 2 2 2 2 2 2 2 2 2 2 2 2 2 2 2 2 2 2 2 2 2 2 2 2 2 2 2 2 2 2 2 2 2 2 2 2 2 2 2 2
left_child=1 4 6 7 10 13 8 26 43 24 -1 58 32 31 44 -9 20 28 54 36 22 -20 46 -18 25 39 38 45 29 59 -30 33 -8 -4 35 -15 -17 -34 -3 41 42 -5 -14 -2 -10 -19 -13 -35 -41 -50 -21 -31 53 -24 -16 -23 -46 -58 -6 -11 -33 -36
right_child=2 3 5 9 11 -7 12 15 14 17 -12 16 40 34 18 19 23 27 21 50 -22 55 52 -25 -26 -27 -28 -29 30 51 -32 60 37 47 61 -37 -38 -39 -40 48 -42 -43 -44 -45 56 -47 -48 -49 49 -51 -52 -53 -54 -55 -56 -57 57 -59 -60 -61 -62 -63
leaf_value=-0.010092894378034662 0.11333007828448023 0.012618218675040828 0.21867634442945325 0.063647222250307875 -0.0025081167631516741 0.22935197630550777 0.22264269394617453 0.059882150068063168 0.066176042691943757 0.11597099102447542 -0.0059093400783979877 0.0091801182248409455 0.10492516018815078 0.34693418343861904 0.36534820795059209 0.029729175195412384 0.26780602872371667 0.041557801706039559 0.12530370174481423 0.016197249599160201 0.0029029350331144948 0.11604143116288844 0.052743764931376835 0.049364881392787489 0.017074275379116734 0.1335109439765125 0.0081422913725172751 0.061924652950659437 0.060739135662791724 0.14428041477998096 0.23661987661487527 0.3380048103630543 0.14143478912907462 0.24474636797721569 0.10096977392888883 0.13793192554959449 0.082816237478734969 0.31709719896316529 0.024638791396190528 0.019655280981730444 0.13806604486890137 0.25431510955095293 0.024937940965173766 0.1692605277837449 0.18110106947521371 0.21015865834695951 0.137057372306784 0.15363212804925644 0.1961134852634536 0.03761698507145142 0.028884220764420827 0.35789870194026402 0.023270997482232967 0.26881018366132464 0.1308722585439682 0.079652954535566811 0.2471928745508194 0.080750134488756675 0.0010776454426647427 0.033586017441536699 0.2199000496864319 0.19449053405735053
leaf_weight=169437 266 6413 120 190 28399 1425 51 331 2215 89 59730 6012 785 5.9999999999999991 6.9999999999999982 2647 10.000000000000002 2729 223 6255 10272 156 137 17 822 43 14492 967 878 8.9999999999999982 8.9999999999999982 15.999999999999998 315 26 22 703 94 7.9999999999999991 2029 667 204 5.9999999999999991 34 86 24 6.9999999999999991 11.999999999999998 236 8.9999999999999982 4206 1425 6.9999999999999991 497 6.9999999999999991 6 948 6.9999999999999991 138 25627 35 50 152
leaf_count=169437 266 6413 120 190 28399 1425 51 331 2215 89 59730 6012 785 6 7 2647 10 2729 223 6255 10272 156 137 17 822 43 14492 967 878 9 9 16 315 26 22 703 94 8 2029 667 204 6 34 86 24 7 12 236 9 4206 1425 7 497 7 6 948 7 138 25627 35 50 152
internal_value=0 -0.00303657 0.127129 0.0214093 -0.00664932 0.196997 0.0919467 0.0147742 0.0817962 0.0423508 -0.00900249 0.000947089 0.121563 0.162356 0.0775239 0.0231373 0.00653413 0.0519076 0.0932081 0.0219702 0.00633688 0.0916023 0.0116292 0.130269 0.0347446 0.0375809 0.0108534 0.0471951 0.068899 0.109291 0.0625237 0.190323 0.156266 0.180266 0.148167 0.139701 0.0315497 0.145786 0.0155073 0.0367686 0.108875 0.069484 0.101605 0.126995 0.0687081 0.0419892 0.00943485 0.162674 0.0354552 0.0379554 0.0185513 0.237738 0.0322516 0.063247 0.257129 0.0847948 0.101895 0.0887853 -0.000807226 0.0927172 0.248532 0.182666
internal_weight=0 344516 8229 44359 300157 2756 5473 33686 4076 10673 229167 70990 1397 1331 3724 10752 16964 4730 1340 10421 16937 1327 6665 27 5943 5121 22934 3703 1027 140 887 448 374 382 883 709 2741 323 8442 5078 1023 196 819 352 2384 2736 6024 262 4882 4215 7680 16 641 144 13 1104 169 145 54026 124 66 174
internal_count=352745 344516 8229 44359 300157 2756 5473 33686 4076 10673 229167 70990 1397 1331 3724 10752 16964 4730 1340 10421 16937 1327 6665 27 5943 5121 22934 3703 1027 140 887 448 374 382 883 709 2741 323 8442 5078 1023 196 819 352 2384 2736 6024 262 4882 4215 7680 16 641 144 13 1104 169 145 54026 124 66 174
is_linear=0
shrinkage=0.05


Tree=12
num_leaves=63
num_cat=0
split_feature=38 44 35 40 35 38 47 36 44 39 49 49 61 38 61 44 49 49 67 44 38 65 68 39 54 53 48 56 66 40 50 56 49 61 72 36 39 14 49 7 58 2 40 23 47 20 41 21 24 35 61 5 12 45 69 40 33 36 68 61 52 68
split_gain=49228.2 10167.7 8830.71 1765.01 1365.6 1251.16 1117.39 408.956 317.659 252.087 206.303 200.177 197.813 183.248 164.803 148.213 138.003 134.166 128.996 127.25 122.954 119.079 107.224 106.027 105.852 103.469 99.3382 98.0298 94.9706 90.5812 88.7615 85.8623 85.7295 94.1777 85.6444 85.5528 85.3376 84.9769 83.7243 84.292 84.5563 108.747 83.5476 81.396 98.1319 80.1354 80.0835 79.6762 78.5041 77.9526 77.2839 92.3752 107.084 76.2853 73.6026 77.8025 94.0669 93.8048 72.0503 83.8126 83.9249 114.843
threshold=304.5428960841831 732.28001786898551 77.91435671958935 181.444450378418 30.19316947148269 476.84538903213667 1018.0456891840234 126.6737076469107 261.89908729480226 135.79287619588919 60.070789784117302 107.81515389175486 72.553855895996108 573.67390098249223 228.2928161621094 407.51733903685925 36.406369228228144 7.8696345947386854 102.58551847409765 363.04758505557822 733.03707608024718 153.71893310546878 130.86467852661193 314.16190713484207 29.412013992789458 157.95848083496097 1004.4821166992189 249.88818414144467 249.33277218910345 477.81150817871099 448.88218768955443 352.60147155605455 33.080655631938924 931.10073852539074 101.27000486888927 234.51783636735237 370.13795949714739 0.55654486586494001 40.728915356811576 0.029091359247338456 71.311989970735183 0.50000000000000011 112.48566818237306 0.8500000000000002 723.12872856478418 0.07074969091307419 138.32436289624167 0.72222222222221444 0.45652173913043487 529.86354168017556 536.53314208984386 0.50000000000000011 0.75529322162985535 648.99987032478668 164.3944856723941 477.81150817871099 0.13980865163945883 66.582754140212941 169.81073860444423 219.26091003417972 146.3374168873307 158.19482482228031
decision_type=2 2 2 2 2 2 2 2 2 2 2 2 2 2 2 2 2 2 2 2 2 2 2 2 2 2 2 2 2 2 2 2 2 2 2 2 2 2 2 2 2 2 2 2 2 2 2 2 2 2 2 2 2 2 2 2 2 2 2 2 2 2
left_child=2 5 4 9 17 10 11 20 14 34 25 35 -6 43 22 28 -15 -1 -11 42 23 36 -5 37 -13 27 31 -2 30 -27 -12 -26 -8 49 -4 -3 -10 -7 39 -16 41 -41 -14 44 -9 -39 -17 58 -25 -34 -50 52 -52 54 55 -23 -57 -58 59 -44 61 -61
right_child=1 6 3 8 12 7 32 13 21 18 15 24 19 16 38 46 -18 -19 -20 -21 -22 53 -24 48 26 29 -28 -29 -30 -31 -32 -33 33 -35 -36 -37 -38 45 -40 40 -42 -43 47 -45 -46 -47 -48 -49 50 -51 51 -53 -54 -55 -56 56 57 -59 -60 60 -62 -63
leaf_value=-0.0097519762609502084 0.12278818381138337 0.21165513766131233 0.011337779011647975 0.026325785927938796 -0.0033525761018402852 0.29698586742083233 0.27570613911074976 0.086617301662440013 0.087077277844641796 0.023308647407799057 0.052664992488218682 0.19545791608445784 0.00046995151123948643 0.16860384952438914 0.021924648893634893 0.22104720332556302 0.10492190846303824 -0.0067352523521377232 0.012038933819926996 0.25388098612427712 0.23321261679132782 0.044407632511758229 0.014506862574468055 0.094334826598476085 0.21177780518929168 0.073558535419133958 0.17271884821308484 0.31492948941886428 0.0299777203301477 0.11971043177735306 0.082916546468935745 0.12534367073053385 0.24185709467059688 0.22230739244932565 0.0045550246352606258 0.16431700618962897 0.2821108231941859 0.071114327451762036 0.030527716373580333 0.015580666363239291 0.058994277228735563 0.32088676691055296 0.012448812043647771 0.053244509276236619 0.26246465370059013 0.1943221861875411 0.071365239947282944 -0.0012320922703581356 0.11359252786351136 0.17630696947443059 0.097901078519122359 0.29123388037962072 0.26245756049950919 0.17989428071305158 0.027115063590171358 0.31071770787239078 0.19997498805706318 0.044886226474474641 -0.0080617137883128541 0.064771705773937246 0.008672400931966728 0.26381213236600159
leaf_weight=155903 39 168 6275 4496 51858 14.999999999999998 62 958 86 3344 2546 85 26383 92 180 8.9999999999999982 1130 48267 10550 4.9999999999999991 42 2198 3348 112 30 827 159 7.9999999999999991 417 122 268 680 57 1073 18016 221 5.9999999999999991 17 4350 4.9999999999999982 404 7 2956 203 7.9999999999999991 59 1257 1793 64 222 29 17 14.999999999999998 9.9999999999999982 678 4.9999999999999991 12.999999999999998 39 407 77 67 7.9999999999999991
leaf_count=155903 39 168 6275 4496 51858 15 62 958 86 3344 2546 85 26383 92 180 9 1130 48267 10550 5 42 2198 3348 112 30 827 159 8 417 122 268 680 57 1073 18016 221 6 17 4350 5 404 7 2956 203 8 59 1257 1793 64 222 29 17 15 10 678 5 13 39 407 77 67 8
internal_value=0 0.104058 -0.00335286 0.0151985 -0.00683521 0.0762898 0.187193 0.103748 0.0292389 0.00937967 0.0624884 0.154531 -0.00145059 0.0961778 0.0257881 0.0579282 0.109716 -0.0090388 0.0147513 0.00166127 0.152665 0.0437812 0.0212812 0.142351 0.142205 0.0830781 0.136996 0.155493 0.0522462 0.0794917 0.0555461 0.128996 0.218215 0.215578 0.00630719 0.184761 0.0997969 0.188228 0.0329357 0.0505105 0.0628793 0.193676 0.00162147 0.0820254 0.0880736 0.166763 0.0724293 0.00734503 0.124736 0.189699 0.151975 0.192245 0.154 0.0420302 0.0415601 0.0459032 0.103576 0.0836584 0.0117202 0.0143107 0.0505195 0.0835049
internal_weight=0 11011 341734 54010 287724 8254 2757 2761 15825 38185 5493 1343 83554 2391 12790 4497 1222 204170 13894 31696 370 3035 7844 328 954 996 869 47 3231 949 2814 710 1414 1352 24291 389 92 91 4946 596 416 12 31691 1169 966 76 1266 5308 237 279 125 61 44 2943 2933 2255 57 52 3515 3108 152 85
internal_count=352745 11011 341734 54010 287724 8254 2757 2761 15825 38185 5493 1343 83554 2391 12790 4497 1222 204170 13894 31696 370 3035 7844 328 954 996 869 47 3231 949 2814 710 1414 1352 24291 389 92 91 4946 596 416 12 31691 1169 966 76 1266 5308 237 279 125 61 44 2943 2933 2255 57 52 3515 3108 152 85
is_linear=0
shrinkage=0.05


Tree=13
num_leaves=63
num_cat=0
split_feature=38 38 40 39 38 38 38 40 36 64 61 40 37 44 47 64 36 54 40 64 47 56 44 68 47 62 64 39 40 68 63 59 37 64 62 42 56 38 62 45 53 14 13 63 44 42 64 53 54 39 59 65 4 72 44 43 64 38 55 74 53 47
split_gain=44428.4 9189.18 7937.62 1483.55 1271.67 1069.51 1019.5 332.978 326.574 281.58 258.356 240.597 215.795 209.279 200.789 190.358 180.209 152.347 146.746 145.459 135.701 134.795 125.57 113.563 111.963 106.838 112.665 104.721 99.4616 95.3637 95.3079 91.9592 102.08 86.9749 102.587 88.4008 85.9438 85.5812 84.5046 86.4343 83.5052 92.4094 80.7996 108.39 79.7789 78.2788 75.7053 77.5618 75.589 72.2612 71.9873 71.6203 69.3813 68.7341 67.9825 67.8309 66.4219 89.4203 66.3133 65.3649 64.4426 64.2952
threshold=304.5428960841831 733.03707608024718 112.48566818237306 46.313411431361942 175.17499950744892 476.84538903213667 1019.8687398986063 238.97633361816409 126.6737076469107 182.27568054199222 118.38399124145509 70.90116119384767 11.385996117793683 407.51733903685925 723.12872856478418 154.52429199218753 163.07241901470897 46.694077958748821 156.55135345458987 505.91967773437506 561.16007074789684 352.60147155605455 261.89908729480226 244.78167670267644 402.11154715273 455.49012756347662 201.26399993896487 314.16190713484207 477.81150817871099 169.81073860444423 149.03058624267581 278.78038855755881 113.95131241251954 428.57933044433599 963.64346313476574 1011.7369151415538 876.56412402817011 187.45697921541239 286.71800231933599 103.38658570588217 694.82189941406261 0.55654486586494001 0.15725806451612906 323.88311767578131 363.04758505557822 465.45217450606782 334.98634338378912 694.82189941406261 26.850926478807022 91.634527951525371 885.98188470606601 125.74248504638673 0.19464977823950139 275.10857971356569 732.28001786898551 192.19282531738284 306.67236328125006 413.86265826838354 883.91656219973765 172.68076020262274 92.721138000488295 276.82617147094169
decision_type=2 2 2 2 2 2 2 2 2 2 2 2 2 2 2 2 2 2 2 2 2 2 2 2 2 2 2 2 2 2 2 2 2 2 2 2 2 2 2 2 2 2 2 2 2 2 2 2 2 2 2 2 2 2 2 2 2 2 2 2 2 2
left_child=2 5 3 12 10 9 16 15 27 30 -4 -5 -1 23 17 22 -3 36 51 52 48 -18 -6 28 29 26 44 40 56 38 -2 32 61 -23 35 59 -10 -24 -20 -40 41 -7 -22 -44 -9 -32 -19 50 -15 -13 53 -12 -16 -48 -45 -17 57 -11 -29 -35 -39 -27
right_child=1 6 4 11 7 8 -8 25 14 13 18 49 -14 20 19 55 21 46 24 -21 42 33 37 -25 -26 31 -28 58 -30 -31 45 -33 -34 34 -36 -37 -38 60 39 -41 -42 -43 43 54 -46 -47 47 -49 -50 -51 -52 -53 -54 -55 -56 -57 -58 -59 -60 -61 -62 -63
leaf_value=-0.0092130858444500387 0.16388084953305773 0.19730397967694258 0.0039198842239502917 -0.0028358864422140758 0.032472285081506534 0.2813756588846445 0.20729811121444955 0.047510249029332548 0.12261559288201265 0.054166465537241283 0.015492354221627362 0.00059034956426559421 -0.0055830071152194287 0.10648457816521811 0.32414434443820611 0.012004505386221389 0.21929305569798341 0.10856907484439118 0.020257721285311531 0.11546480096566181 0.33093935847282413 0.19232897077042324 0.25544246435165407 0.026750300636085824 0.25520853757858281 0.13778232410550112 0.032887074051824249 0.12165701713986121 0.082928628480426023 0.0083584073356659482 0.085391526594432776 0.056986523518777067 0.067645179085871754 0.12951414517118881 0.16490555039539803 0.18129262901269472 -0.068477801419794565 0.21169095598161222 0.17849621314268849 0.04491922724400095 0.34098411500453951 0.14885806321745385 0.27635006189346312 0.084341362005068088 0.14138081028409627 0.1929029997645153 0.075235702338650068 0.10591362115058425 0.065442410715452676 0.0050430993273313726 0.17542678604231163 0.0071718438415351391 0.18066393218727575 0.035051740842052447 0.27636181831359868 0.022455537113193598 0.042600421582353672 0.09621381426164273 0.27760871819087435 0.097467638656645164 0.06426837285842267 0.33259520265791154
leaf_weight=161273 54 154 9605 44593 2013 15.999999999999998 1425 1424 304 1510 3991 19891 54869 123 10.999999999999998 2650 51 220 6903 180 4.9999999999999991 65 6.9999999999999991 447 4.9999999999999991 8.0000000000000018 4330 260 266 1829 285 85 17 575 201 65 5.9999999999999991 7.9999999999999991 12.999999999999998 177 7.9999999999999991 74 9.9999999999999982 59 23 18 1288 207 1276 16813 17 7348 36 116 4.9999999999999991 3749 1309 138 6.9999999999999991 220 101 8.9999999999999982
leaf_count=161273 54 154 9605 44593 2013 16 1425 1424 304 1510 3991 19891 54869 123 11 2650 51 220 6903 180 5 65 7 447 5 8 4330 260 266 1829 285 85 17 575 201 65 6 8 13 177 8 74 10 59 23 18 1288 207 1276 16813 17 7348 36 116 5 3749 1309 138 7 220 101 9
internal_value=0 0.0988555 -0.00318522 -0.00612591 0.0165614 0.0724632 0.177908 0.0287531 0.0979266 0.0597431 0.0106743 -0.000368137 -0.00829157 0.0567652 0.091186 0.0224363 0.146442 0.0864807 0.0138756 0.135917 0.0726511 0.139787 0.0353872 0.0503676 0.0186707 0.0378896 0.0369236 0.141971 0.0536431 0.0185382 0.102685 0.0847852 0.154282 0.136186 0.132746 0.12523 0.118917 0.0859718 0.0211631 0.0540587 0.186177 0.172417 0.136407 0.123263 0.0490023 0.0917783 0.0810396 0.0773194 0.0690508 0.00263002 0.073154 0.0101004 0.214244 0.0719157 0.099343 0.0181275 0.0510087 0.0576874 0.125746 0.120646 0.0750884 0.240919
internal_weight=0 11011 341734 297439 44295 8255 2756 14424 2750 5505 29871 81297 216142 5148 2385 8528 1331 2158 20266 227 1478 1177 2129 3670 8927 5896 5777 365 3223 8922 357 119 34 1126 1061 860 310 116 7093 190 98 90 79 74 1447 303 1848 1628 1399 36704 1421 11339 47 1404 64 6399 2957 1648 267 795 109 17
internal_count=352745 11011 341734 297439 44295 8255 2756 14424 2750 5505 29871 81297 216142 5148 2385 8528 1331 2158 20266 227 1478 1177 2129 3670 8927 5896 5777 365 3223 8922 357 119 34 1126 1061 860 310 116 7093 190 98 90 79 74 1447 303 1848 1628 1399 36704 1421 11339 47 1404 64 6399 2957 1648 267 795 109 17
is_linear=0
shrinkage=0.05


Tree=14
num_leaves=63
num_cat=0
split_feature=38 40 38 39 44 38 44 57 40 36 40 54 36 36 44 61 54 67 53 74 53 38 45 10 38 46 23 0 62 10 43 39 39 61 68 67 53 58 53 11 75 66 40 41 39 68 67 50 53 57 37 65 69 56 43 3 58 46 39 46 23 44
split_gain=40123.6 9040.33 5947.37 1848.14 1465.72 920.102 494.374 340.211 298.333 276.499 228.017 205.985 200.181 166.069 139.065 134.475 128.433 123.756 111.174 110.89 109.78 106.331 102.951 107.718 101.092 93.3558 94.79 89.2684 89.1317 88.8271 90.2138 87.4947 86.3699 145.112 86.0431 84.5958 83.8671 83.3929 82.4947 81.95 79.3131 76.0194 74.8935 98.3311 73.3233 75.705 72.6641 135.855 106.427 80.9442 71.6971 68.4152 67.8404 67.8103 66.4332 65.6055 73.9753 65.6503 65.1247 65.0464 64.1855 63.9341
threshold=367.71654720940097 132.153190612793 733.03707608024718 54.252147983818297 221.24650298632437 1019.8687398986063 567.9697982482038 195.01293945312503 83.521785736083999 15.2467303205991 296.92768859863287 61.346622185305442 302.56175755534088 362.43046803820454 363.04758505557822 106.68451309204103 45.272148756844871 175.66077104864908 171.6369323730469 145.99474448009707 241.9150085449219 573.67390098249223 453.11433835833049 0.1511505172049821 262.37802050186428 558.94931598120468 0.78333333333333355 0.68750000000000011 963.64346313476574 0.31750052776018584 374.40774536132818 165.55758163487556 152.67151564913925 228.2928161621094 184.01347420175736 54.049949931192408 410.61819458007818 527.35435801413428 286.65325927734381 0.61842105263157898 91.809070098939287 78.472897199875646 228.09697723388675 65.026533406271099 106.21027714450382 113.88432314332549 187.46900263302101 651.57651174868613 334.32214355468756 665.89199829101574 31.510817584081114 144.05874633789065 401.49821481664475 175.27188359015406 315.17411804199224 0.0012392738047835178 74.343922512219066 296.52101316706586 370.13795949714739 466.26158117984403 0.65000000000000002 261.89908729480226
decision_type=2 2 2 2 2 2 2 2 2 2 2 2 2 2 2 2 2 2 2 2 2 2 2 2 2 2 2 2 2 2 2 2 2 2 2 2 2 2 2 2 2 2 2 2 2 2 2 2 2 2 2 2 2 2 2 2 2 2 2 2 2 2
left_child=1 3 6 9 7 13 11 15 -5 -1 14 20 22 28 34 -3 59 35 -13 31 -2 60 -8 -24 44 26 46 -25 41 30 -15 -17 33 -16 37 55 -23 51 -27 -29 -26 -4 -37 -44 -10 -46 47 -20 -49 -48 -38 61 -14 -28 -43 -9 -57 58 -58 -12 -22 -6
right_child=2 4 5 8 10 -7 12 17 24 -11 16 18 52 29 32 19 -18 -19 25 -21 21 36 23 27 40 38 53 39 -30 -31 -32 -33 -34 -35 -36 42 50 -39 -40 -41 -42 54 43 -45 45 -47 49 48 -50 -51 -52 -53 -54 -55 -56 56 57 -59 -60 -61 -62 -63
leaf_value=-0.008638225655273838 0.14356250441999416 0.0017951198896908383 0.22600375843398712 -0.0013796983071814773 0.040433141377188862 0.19693321039645295 0.15834949304334781 -0.034745004597832176 0.0026375771850986069 -0.0046540760893068441 0.067021054655376736 0.16503492350931523 0.092355173334853921 0.31174004872639977 0.3750810404618582 0.012844347794385567 0.043704687402387546 0.012761536931318464 0.068691555432526474 0.0062179935835580194 0.09079456222390074 0.21244108181160232 0.085453507753387503 0.099375933425893126 0.19907670915126802 0.24852607734501364 0.13949422483435936 0.2712270259857178 0.21756919726277843 0.15855121661791172 0.11703543158990443 0.021998939698722242 0.063252869218166988 0.02733651647965113 0.018631312335273483 0.022206770807471007 0.2701108186195294 0.18563813070456189 0.085696325551890828 0.15085072431802041 0.040624107486967535 0.30014844621930803 0.25586878508329391 0.03385246350657501 0.010735998422666664 0.0036012769353789887 0.047102204204530734 0.37435472488403321 0.12968165974132717 0.13264116614029325 0.088401119782295284 0.031706726623871202 0.020274644268347936 0.041096284168277729 0.14454256151843806 0.14279826421822822 0.039229525953032224 0.17257882033220748 0.2073777491847674 0.18978127674622969 0.060989198285689654 0.093921454195754928
leaf_weight=171833 89 2980 34 45277 163 1425 187 17 18192 58330 567 27 818 5.9999999999999991 5.9999999999999982 8135 3131 1809 1493 4058 461 26 181 76 10.999999999999998 7.9999999999999991 18 17 66 174 703 3843 208 6 1238 3490 5.9999999999999991 8.9999999999999982 281 84 28 6.9999999999999991 4.9999999999999991 1956 7873 7045 597 4.9999999999999991 40 29 57 4022 34 642 341 28 143 10.999999999999998 5.9999999999999991 10.999999999999998 297 85
leaf_count=171833 89 2980 34 45277 163 1425 187 17 18192 58330 567 27 818 6 6 8135 3131 1809 1493 4058 461 26 181 76 11 8 18 17 66 174 703 3843 208 6 1238 3490 6 9 281 84 28 7 5 1956 7873 7045 597 5 40 29 57 4022 34 642 341 28 143 11 6 11 297 85
internal_value=0 -0.0026062 0.109112 -0.00536982 0.0211314 0.169012 0.0789477 0.0150997 0.00125898 -0.00762853 0.0380408 0.0701501 0.104616 0.139119 0.0317946 0.0115488 0.0477023 0.024145 0.0640133 0.0133614 0.0907373 0.0851866 0.128281 0.112575 0.00486306 0.0631371 0.0603672 0.14031 0.163915 0.126539 0.118683 0.0157815 0.0707777 0.201209 0.0302401 0.0277858 0.136888 0.0335988 0.0902037 0.171112 0.0853159 0.154644 0.0266 0.0344185 0.0047683 0.00736664 0.0654261 0.0712715 0.156868 0.0510649 0.105707 0.0332783 0.0894787 0.0437799 0.147673 0.0593178 0.0678234 0.0547028 0.0460006 0.0693573 0.0791162 0.0587658
internal_weight=0 344516 8229 308589 35927 2756 5473 26481 78426 230163 9446 4076 1397 1331 5737 19016 3709 7465 3140 16036 936 847 545 358 33149 3113 2824 177 448 883 709 11978 220 12 5517 5656 89 4279 289 101 39 382 5451 1961 33110 14918 2164 1538 45 626 63 4270 852 660 348 205 188 160 149 578 758 248
internal_count=352745 344516 8229 308589 35927 2756 5473 26481 78426 230163 9446 4076 1397 1331 5737 19016 3709 7465 3140 16036 936 847 545 358 33149 3113 2824 177 448 883 709 11978 220 12 5517 5656 89 4279 289 101 39 382 5451 1961 33110 14918 2164 1538 45 626 63 4270 852 660 348 205 188 160 149 578 758 248
is_linear=0
shrinkage=0.05


Tree=15
num_leaves=63
num_cat=0
split_feature=42 35 46 40 35 47 42 40 36 64 49 37 44 71 64 40 57 46 49 49 13 47 55 62 67 42 69 64 64 11 74 68 64 0 39 36 66 21 43 44 59 43 49 62 19 12 59 39 34 23 58 46 65 35 4 7 18 63 65 64 49 64
split_gain=36234.6 7277.48 6608.61 1419.69 1226.1 845.581 677.375 347.954 346.428 249.946 221.418 190.519 178.363 185.311 171.15 152.514 144.837 164.177 142.044 137.167 132.599 131.847 115.892 112.423 102.492 99.0789 103.921 98.3178 96.4375 100.016 96.4147 94.1271 92.7051 95.0045 89.7936 84.483 83.0478 82.7279 94.2276 80.7104 83.9654 80.6584 78.3615 87.0924 77.9631 96.0605 75.5086 75.051 74.1691 72.3755 71.5496 71.2727 87.6478 68.457 68.2252 67.2443 67.0509 66.0906 65.6843 64.8004 70.3693 63.7629
threshold=323.50177629425036 84.465724570281836 715.36779819194578 228.09697723388675 39.768700200673116 1018.0456891840234 465.45217450606782 152.56098175048831 126.6737076469107 217.89358520507815 107.81515389175486 7.0156653166141014 327.74228142179817 180.13530293986426 334.98634338378912 380.07421875000006 90.187839508056655 296.52101316706586 24.414290285705093 39.487224550741288 0.85887096774193561 723.12872856478418 158.93304843194514 362.41017150878912 102.8911254375513 562.0839237589247 250.76665821983153 182.27568054199222 334.98634338378912 0.85526315789473695 211.02342412031567 124.25676387302632 334.98634338378912 0.68750000000000011 208.19861456071138 84.007690383979551 103.53484045257765 0.72222222222221444 147.94288635253909 221.24650298632437 261.48869633562941 315.17411804199224 33.080655631938924 963.64346313476574 0.19300980605494814 0.40936785986290941 349.03903184511529 208.19861456071138 0.0045895021385984206 0.083333333333333356 396.85880895230673 244.40098572596 147.12835693359378 305.74697019370427 0.088324609421824449 0.12688784352562518 0.5434782608695653 645.56753540039074 218.49833679199222 505.91967773437506 57.156920574232821 91.021770477294936
decision_type=2 2 2 2 2 2 2 2 2 2 2 2 2 2 2 2 2 2 2 2 2 2 2 2 2 2 2 2 2 2 2 2 2 2 2 2 2 2 2 2 2 2 2 2 2 2 2 2 2 2 2 2 2 2 2 2 2 2 2 2 2 2
left_child=1 4 6 7 11 10 9 24 20 35 -4 -1 13 19 57 59 -6 37 50 23 22 36 -8 51 39 -24 30 55 -12 -30 54 47 33 -17 56 -2 48 38 61 -3 -41 -21 -7 -44 45 -31 -23 -20 -16 -25 -9 -5 -53 -35 -27 -14 -19 -10 -34 -11 -61 -18
right_child=2 3 5 12 16 42 8 18 14 15 28 -13 27 -15 21 32 17 34 31 41 -22 46 25 49 -26 26 -28 -29 29 44 -32 -33 58 53 -36 -37 -38 -39 -40 40 -42 -43 43 -45 -46 -47 -48 -49 -50 -51 -52 52 -54 -55 -56 -57 -58 -59 -60 60 -62 -63
leaf_value=-0.0083872878538483932 0.13186218018213719 0.011865854275206866 0.16355161922321915 0.035543522782697075 -0.0012033350514611034 0.24252389786734938 0.25705591720693255 0.045548993426930195 0.11309102787915618 0.040465229740683457 0.24103935211896899 -0.0052867704156989116 0.066800734493881464 0.011153924905146887 0.20267436861991883 0.065434505835204854 0.0093451289983729688 0.33368632963725486 0.017870139557895577 0.02793886108902301 0.30638192025097938 0.25823812617195979 0.095146340164031742 0.24750158414244652 0.0053825400281246084 0.033634570054709913 -0.013484730323155723 0.048856019383134698 0.11183801494371695 -0.048294079277132244 0.35784606536229457 0.012325529803732336 0.15286053498001662 0.13144737875199547 -0.0031014432509740195 0.080086590932897078 0.067603912282230366 -0.00040328933614715084 0.018736025628633798 0.044258092053877637 0.21378136966377498 0.042437571427634435 0.15779082094361674 0.19094841046448258 0.21473123356699944 0.15143628032055012 0.10975520532546482 0.03053868684958698 0.08923042599264891 0.090112323500216016 0.20703584509236472 0.17726355927092408 0.05966332924568251 0.062588397467222362 0.16335708467766297 0.18085587505872053 0.093952729701995835 0.2685083440371922 0.053988506781320715 0.28714352369308455 0.080181000580120343 0.0015886005839896985
leaf_weight=154962 104 7120 401 559 46973 62 17 341 300 1741 15.999999999999998 72833 28 1101 14.999999999999998 381 4461 7.0000000000000018 5579 5244 10.999999999999998 8.9999999999999982 158 7.9999999999999991 17475 10.999999999999998 8.9999999999999982 962 850 6.9999999999999991 5.9999999999999991 6944 17 118 5.9999999999999991 325 1537 7448 1350 84 7.9999999999999991 1174 241 1111 44 43 176 1479 365 84 6.9999999999999991 17 233 52 129 24 5 6.9999999999999991 1413 5.0000000000000027 23 6525
leaf_count=154962 104 7120 401 559 46973 62 17 341 300 1741 16 72833 28 1101 15 381 4461 7 5579 5244 11 9 158 8 17475 11 9 962 850 7 6 6944 17 118 6 325 1537 7448 1350 84 8 1174 241 1111 44 43 176 1479 365 84 7 17 233 52 129 24 5 7 1413 5 23 6525
internal_value=0 -0.00269528 0.0952794 0.0152579 -0.00564944 0.16048 0.069167 0.0110512 0.0884387 0.0564853 0.132348 -0.00739596 0.0326645 0.0302787 0.0817619 0.0523494 0.000308602 0.00389512 0.0172428 0.0331557 0.135607 0.0766686 0.129915 0.0514243 0.00745221 0.123009 0.151411 0.0524758 0.119313 0.11725 0.161576 0.0164586 0.061878 0.079303 0.154831 0.0926382 0.0727785 0.00375779 0.00627009 0.0124671 0.0589992 0.030591 0.187559 0.185038 0.16619 0.123474 0.116979 0.0205248 0.0937085 0.103798 0.0487973 0.0454683 0.0676601 0.110385 0.153165 0.119442 0.233797 0.116635 0.0551639 0.0416788 0.117139 0.00473823
internal_weight=0 343041 9704 48471 294570 2775 6929 39037 2750 4179 1361 227795 9434 8420 2409 3750 66775 19802 14350 7319 341 2102 330 901 24687 313 155 1014 960 944 146 14002 1981 551 18 429 1917 19784 12336 7212 92 6418 1414 1352 94 50 185 7058 380 92 348 809 250 170 140 52 12 307 1430 1769 28 10986
internal_count=352745 343041 9704 48471 294570 2775 6929 39037 2750 4179 1361 227795 9434 8420 2409 3750 66775 19802 14350 7319 341 2102 330 901 24687 313 155 1014 960 944 146 14002 1981 551 18 429 1917 19784 12336 7212 92 6418 1414 1352 94 50 185 7058 380 92 348 809 250 170 140 52 12 307 1430 1769 28 10986
is_linear=0
shrinkage=0.05


Tree=16
num_leaves=63
num_cat=0
split_feature=38 44 35 43 38 35 44 49 40 64 35 49 42 35 44 62 49 36 54 71 42 58 49 67 74 38 36 43 49 46 40 24 43 49 63 42 63 49 3 56 64 48 49 36 36 64 26 42 19 72 44 58 19 5 66 30 46 72 50 25 60 42
split_gain=32790.6 6799.34 5954.16 1344.31 826.872 761.661 760.76 317.959 308.185 240.203 184.524 163.197 157.37 138.791 144.084 132.128 114.084 113.899 111.782 110.629 135.844 125.671 107.254 103.999 102.666 101.031 99.2827 98.2239 92.4548 131.608 86.8287 86.843 86.6421 86.3906 85.6446 83.4358 82.2513 81.4371 79.294 78.6468 76.504 86.8888 76.0559 72.5826 72.5104 69.9074 68.995 70.6404 68.9018 89.4746 83.9391 67.1353 66.408 66.1377 72.9844 66.5338 65.5953 64.8986 63.9757 71.6576 63.965 63.3028
threshold=304.5428960841831 732.28001786898551 71.92960046709085 168.98877716064456 476.84538903213667 25.270420989880435 1025.1739381973537 88.411007651385589 228.09697723388675 182.27568054199222 114.81851210743748 107.81515389175486 403.58647125908413 46.554585302556639 302.01643230220481 455.49012756347662 51.814499620971553 213.9585048147791 202.87724797371226 180.13530293986426 403.58647125908413 396.85880895230673 14.31288414148368 179.64964324462571 150.1281281944965 573.67390098249223 109.13607915369492 987.78674316406261 44.849829729507164 244.40098572596 296.92768859863287 0.5434782608695653 315.17411804199224 24.414290285705093 149.03058624267581 719.67082138308626 108.02693939208986 33.080655631938924 0.11178679795055453 515.73868423931162 505.91967773437506 1004.4821166992189 67.431055854552895 119.15089572396427 362.43046803820454 194.3364181518555 0.25000000000000006 323.50177629425036 0.077926211244466387 99.471259580178909 567.9697982482038 327.96379278770934 0.040139413118541703 0.70000000000000018 173.42475197861333 0.50000000000000011 715.36779819194578 100.5140510695724 448.88218768955443 0.46610169491525427 514.72901277222456 357.48846459193521
decision_type=2 2 2 2 2 2 2 2 2 2 2 2 2 2 2 2 2 2 2 2 2 2 2 2 2 2 2 2 2 2 2 2 2 2 2 2 2 2 2 2 2 2 2 2 2 2 2 2 2 2 2 2 2 2 2 2 2 2 2 2 2 2
left_child=2 4 5 10 9 -1 11 18 23 34 16 44 38 -7 -15 19 -4 -14 27 20 28 45 -16 33 42 -9 46 30 29 -10 31 -6 -27 51 -2 48 -31 -8 -11 -38 -13 53 -12 -34 -3 -22 -17 -48 -32 -50 56 -5 -43 54 -42 -55 57 -51 -59 -60 -37 -36
right_child=1 6 3 8 7 13 37 25 15 12 24 40 17 14 22 26 -18 -19 -20 -21 21 -23 -24 -25 -26 32 -28 -29 -30 36 35 -33 43 -35 61 60 39 -39 -40 -41 41 52 -44 -45 -46 -47 47 -49 49 50 -52 -53 -54 55 -56 -57 -58 58 59 -61 -62 -63
